100 64
46 -0.011498 0.048651 -0.096517 -0.204406 -0.036888 -0.195445 0.036249 -0.096975 0.190668 0.754467 0.126560 -0.004194 -0.345692 -0.062470 0.024758 -0.058853 -0.353467 0.132423 -0.252469 0.007356 0.131221 0.269627 0.123706 0.276861 0.014831 0.395639 0.379718 -0.483558 -0.303468 0.076151 -0.059804 0.271988 0.443434 0.117592 0.306724 0.022364 0.407910 -0.273270 0.087641 0.594769 0.272684 -0.161217 -0.432190 0.048768 0.329516 -0.271866 -0.190500 0.078192 0.073908 0.136589 0.064686 0.368187 0.012032 0.162713 0.035439 0.374179 0.307021 0.274429 -0.305156 0.013270 -0.421315 -0.281338 0.052467 -0.048249
93 0.441493 -0.154266 -0.243169 0.498137 0.151860 0.285998 -0.459537 -0.244181 0.181379 -0.165153 0.187122 -0.456578 0.321655 -0.346937 -0.460286 -0.118606 0.255789 0.580907 0.373225 -0.454247 0.383201 -0.127163 0.316851 -0.109783 0.171368 -0.000293 0.270414 -0.065332 0.162774 0.370953 -0.478421 -0.092661 -0.168446 0.016102 -0.621884 -0.402313 0.118227 0.246602 0.418494 0.107280 0.236640 0.225052 0.019230 -0.110031 0.373700 -0.379546 -0.025326 0.019614 -0.010924 -0.390468 0.245334 -0.317531 -0.118777 0.254034 -0.329560 -0.128763 -0.538405 0.086891 0.400151 -0.231228 0.130579 -0.020561 -0.297326 0.099297
8 0.413990 -0.381835 -0.444566 0.535313 -0.598684 0.161383 0.275234 -0.259014 0.284323 0.093955 -0.289253 -0.216321 0.242121 0.188973 0.127279 -0.141923 0.127386 -0.062569 -0.683585 -0.096974 0.590576 0.453876 -0.421840 -0.175528 0.780297 -0.043321 0.409248 -0.153459 -0.302838 0.505971 -0.144317 -0.290427 0.221602 -0.079990 0.216748 -0.714575 0.276636 -0.149679 0.352067 0.226633 -0.045721 0.324819 -0.158631 -0.162676 0.105692 0.013455 -0.134700 -0.361434 0.287219 0.481245 0.219320 -0.077712 0.002285 -0.212426 0.626531 0.486071 0.001242 0.488847 0.220942 -0.051955 -0.003074 0.324539 -0.303238 0.007024
33 0.278236 0.006891 0.496718 -0.056108 0.093416 -0.071055 0.067960 0.328144 -0.047287 0.370058 -0.058903 -0.205343 -0.177757 -0.822839 -0.238358 -0.380032 -0.086953 -0.273635 -0.361485 -0.306784 -0.021761 0.050701 0.513429 -0.101123 0.027883 0.320621 0.091194 -0.597174 -0.247830 -0.659068 0.080042 -0.488104 -0.046095 0.254972 0.033251 -0.237694 -0.168391 0.176914 0.135115 -0.441496 0.266711 -0.020524 -0.489149 0.110540 0.421607 -0.262357 -0.101443 -0.226702 -0.065694 0.561763 0.663045 -0.019761 -0.261933 0.260615 -0.385215 0.081292 0.250040 0.626547 0.166292 0.166751 -0.075619 0.016214 -0.078047 -0.132830
82 0.042404 -0.675321 -0.110417 0.528811 0.601528 0.158410 -0.296002 0.105797 0.156277 0.485906 -0.060951 -0.255000 0.380315 0.339816 -0.133094 -0.293359 -0.026515 0.170168 0.212272 -0.047185 -0.142684 0.079563 0.041902 0.557922 -0.037840 -0.058519 0.579784 -0.295639 0.220468 0.492141 0.049023 0.328564 0.113179 0.330801 0.015252 -0.096101 -0.140908 0.095066 0.361624 -0.443266 0.126303 0.111507 0.240739 -0.830388 0.019672 -0.322790 -0.366070 -0.306097 -0.385197 -0.103529 0.122577 0.193422 0.136512 0.002072 0.355126 -0.206353 -0.419479 0.327525 0.359420 0.090423 -0.127781 -0.415179 0.090035 -0.459642
20 -0.610619 -0.341801 0.443031 0.327009 0.229089 -0.141025 -0.319364 0.029214 0.601573 -0.726095 -0.327728 0.196776 -0.077626 -0.201382 -0.350645 0.348373 -0.856847 0.330482 0.469036 0.361384 0.221631 -0.300712 -0.132822 -0.251565 0.254334 0.070016 0.134103 -0.274020 -0.470076 -0.074774 -0.025876 0.070312 0.165635 0.209941 -0.171663 0.029160 0.026609 0.009753 -0.035768 -0.022943 -0.106639 -0.283717 -0.805555 0.031568 0.231629 0.024906 -0.337239 -0.091399 0.098924 -0.228823 0.440289 -0.200774 0.180523 0.330914 -0.629636 0.260546 0.339912 0.501708 0.170017 -0.421928 0.107184 0.204989 -0.042220 -0.584602
25 0.011696 -0.068570 0.031390 -0.011927 -0.187542 0.186736 -0.728500 -0.121897 0.580251 -0.961896 -0.284927 -0.225615 0.173159 0.400834 -0.323721 0.110888 -0.064048 -0.201213 -0.197483 0.057183 0.376887 0.601728 -0.244318 -0.542594 -0.012403 -0.184238 -0.016250 -0.178378 0.030049 0.337306 -0.102060 -0.201753 -0.657056 -0.151173 -0.441526 -0.417569 0.547685 0.052970 -0.265047 0.226836 -0.302970 0.038091 -0.210964 0.055398 0.404751 -0.546788 -0.496688 -0.229233 -0.488149 0.181805 0.198924 -0.260952 -0.014824 -0.186823 -0.130431 -0.030846 -0.252814 0.053948 0.184671 -0.211571 0.342634 0.102757 0.283152 -0.188992
54 -0.104475 -0.339654 0.242924 0.212086 -0.131863 0.319649 -0.362220 0.020565 0.145718 -0.185681 0.175663 -0.114993 -0.494958 0.081847 -0.157010 -0.075575 0.315574 0.124700 -0.436393 -0.030062 0.704085 0.282365 -0.032227 0.209473 -0.105681 -0.036274 0.432894 0.265388 0.106900 0.691289 -0.243762 0.242116 0.404738 0.054275 -0.358114 -0.304036 0.395264 0.077682 0.300321 0.158188 -0.004260 0.142241 0.031980 -0.081365 0.079124 0.313451 -0.012521 -0.119581 -0.016521 -0.257731 0.093552 0.132776 0.109869 -0.124408 0.000365 0.158288 0.087456 -0.307285 -0.428784 -0.148351 0.058136 0.042756 0.145590 0.315302
7 0.123066 0.129084 0.102081 -0.063005 -0.520713 0.027410 -0.408064 -0.029257 0.019885 -0.084073 0.150151 0.171006 -0.146732 0.075872 -0.483232 -0.308178 -0.160790 -0.331912 -0.210710 -0.268607 -0.091193 0.196543 0.005895 -0.300732 -0.128279 0.551617 -0.230739 0.280630 -0.116621 0.042933 -0.339666 -0.686942 -0.307415 -0.281795 0.354270 -0.156906 0.376387 -0.229789 0.537336 0.225079 -0.287231 0.094488 -0.395433 0.161319 0.242539 -0.091002 0.016277 -0.646161 0.115497 0.120822 0.664229 0.045546 -0.025046 0.405328 0.155852 -0.245928 -0.452824 0.500024 0.484532 0.116310 0.376833 0.050175 0.431628 0.129626
43 -0.312898 -0.275668 0.049034 -0.054134 0.316665 0.085708 -0.326694 0.015543 0.235983 0.262643 -0.208252 -0.463022 0.143980 0.036895 -0.951923 0.271926 -0.019170 -0.555390 -0.137632 0.093056 -0.238506 -0.316183 0.146533 0.360472 -0.162192 0.325622 -0.181809 -0.109394 -0.699772 -0.157229 0.751185 -0.090791 0.226042 0.515688 -0.494902 -0.405164 0.423493 0.251352 -0.115434 -0.197269 -0.015446 -0.116295 0.186748 0.611567 0.027086 0.018055 -0.391023 0.024170 0.218026 0.030388 -0.089317 0.216762 -0.097855 -0.343863 -0.229343 -0.258252 0.268890 0.188127 -0.268831 0.046161 0.266502 -0.075453 -0.282713 0.044625
34 0.310094 -0.106226 0.159372 -0.057273 0.386744 0.277877 -0.077582 0.014556 0.860898 0.260988 -0.056775 0.007621 -0.474831 -0.146575 -0.286556 0.203265 0.549968 0.251978 -0.234662 -0.012630 0.095950 0.133747 0.088576 0.340592 0.098975 -0.182344 -0.095133 0.104852 0.138529 -0.310906 -0.106093 -0.446857 -0.021056 -0.515087 -0.206176 0.534798 0.473624 0.332892 0.062157 0.257669 -0.466944 -0.057784 -0.086964 0.003033 0.637573 -0.261338 -0.570901 -0.041087 0.458693 0.537386 0.284614 -0.151799 -0.156406 0.082772 -0.067297 0.180331 -0.285007 0.029449 0.360123 0.002570 -0.332492 0.014685 -0.468418 0.154912
79 -0.130609 0.166073 -0.025227 -0.005158 0.124968 0.141722 -0.389416 0.205098 0.166838 0.167063 -0.043767 0.118677 -0.550122 0.440549 -0.002114 0.005409 -0.079156 -0.421329 -0.672362 0.137691 0.025352 0.660585 0.280659 -0.185442 -0.500063 0.223128 0.318644 -0.271320 -0.111716 0.454360 0.121958 0.441546 0.471297 0.402187 0.077538 0.273939 0.444581 -0.558744 -0.247313 0.218813 0.056302 0.007332 -0.024575 0.426911 0.329172 0.088995 -0.363040 0.033676 0.223609 0.205244 -0.248647 0.197745 -0.048496 -0.089765 -0.116152 0.176770 0.297769 0.181364 -0.425876 0.225308 -0.390916 -0.395034 0.316513 -0.415803
64 -0.193982 -0.166587 -0.119425 0.409787 -0.299988 0.840545 0.021500 -0.348521 0.231967 0.616444 -0.203644 0.188732 0.719879 0.075221 -0.215302 0.075657 0.024458 -0.199226 -0.373200 -0.407598 -0.163795 0.296544 0.470281 0.010714 -0.156450 0.049101 0.131622 0.092683 -0.229511 0.366389 -0.261508 0.104911 0.038670 0.088951 -0.192181 -0.184968 0.023664 -0.102144 0.465214 -0.118724 -0.055360 -0.621794 0.043816 -0.161193 -0.214860 0.497124 -0.120214 -0.059967 0.007570 0.802066 0.044080 -0.046774 0.125378 -0.638025 0.049801 0.120795 0.542417 0.016038 -0.093794 0.994257 0.224871 0.150557 -0.191609 0.281081
83 0.316376 -0.490147 0.266807 -0.325087 0.458705 0.001783 -0.462800 0.266465 0.020731 -0.085391 0.425420 0.097112 0.157684 -0.429074 -0.025725 0.519810 0.064472 0.522391 -0.493617 -0.069177 0.568111 -0.045830 0.330487 0.168002 0.707796 0.181193 0.002849 -0.367281 -0.256750 -0.340693 -0.038878 -0.060408 -0.092602 0.085689 -0.145580 -0.228371 -0.294791 -0.571641 0.282574 0.326926 0.218160 -0.172024 -0.748483 0.118894 0.304733 0.258197 0.204656 -0.367701 0.443702 0.041063 0.594261 -0.211341 0.018922 0.152251 -0.579028 0.279443 0.589137 0.401379 0.001922 -0.212203 0.350672 -0.005153 -0.433022 0.076701
68 -0.060607 -0.178453 0.361383 0.062600 -0.346763 0.606145 -0.098389 0.293303 0.427834 0.093071 0.478821 0.079475 -0.417958 -0.576009 -0.362105 0.230902 0.444471 -0.258374 -1.035696 -0.144125 -0.126162 0.451466 -0.033743 -0.079485 0.202788 -0.024228 -0.218870 0.358796 -0.273945 -0.099202 -0.082051 0.057092 0.167989 0.113511 -0.078410 0.037532 0.009982 -0.334113 0.548626 -0.202029 -0.163879 0.157553 -0.254247 0.139943 0.800651 -0.194590 0.051061 -0.465217 0.473574 -0.051673 -0.467642 0.065096 -0.499313 0.175545 0.259981 0.412212 -0.247744 -0.418376 -0.214321 -0.152434 -0.017161 0.582587 0.174053 0.608226
31 -0.181815 -0.180403 -0.734120 -0.144197 -0.036269 0.474789 0.670340 0.094207 0.469947 0.369518 0.388678 -0.336538 0.181550 0.028804 -0.243531 -0.020788 -0.480615 -0.149879 -0.622388 0.202689 0.215050 0.552636 -0.122782 0.270326 -0.224275 0.274498 -0.137599 -0.633623 -0.304105 -0.053961 -0.531928 -0.608033 0.031626 0.077575 0.134322 -0.334035 0.161782 0.577270 -0.217029 0.028618 0.448803 0.325971 0.362913 -0.305990 -0.137200 -0.164994 -0.310992 -0.170978 0.042596 0.071880 -0.054767 0.795738 0.211220 -0.701077 -0.091265 -0.297933 -0.473218 -0.086180 -0.031502 0.002608 -0.068803 0.046169 -0.291020 0.307086
85 0.251280 -0.139213 0.034649 0.107702 0.105113 0.675579 -0.375964 0.651454 0.663959 -0.686757 -0.159939 0.120246 0.369485 -0.092946 -0.043050 -0.341058 -0.179277 0.103809 0.348961 0.103867 0.413147 -0.139695 -0.019805 0.281539 -0.490112 0.055799 0.151570 0.369800 -0.118304 0.121381 -0.119104 -0.460034 -0.226192 0.092881 0.380256 -0.568483 -0.532141 -0.453050 0.338738 0.348291 0.246869 0.383636 -0.183201 -0.207413 0.063431 -0.384098 -0.447168 -0.276625 -0.028014 0.131169 0.149026 0.001632 -0.041317 0.011285 -0.086901 -0.174079 -0.950480 0.476726 0.700953 -0.314935 -0.167531 -0.087929 0.008240 -0.123445
45 -0.387091 0.193805 0.736852 0.210202 0.431634 0.773369 -0.176406 0.228417 0.107506 -0.152916 0.050973 0.377748 -0.125084 -0.364270 -0.447854 0.252218 -0.057926 0.168012 0.015636 -0.380063 -0.436096 -0.049426 0.792039 0.462673 -0.111152 -0.050658 0.157684 0.298428 -0.194437 0.003830 0.176656 -0.005248 0.419907 0.428428 -0.072848 -0.109895 -0.290627 0.162695 0.531967 -0.373887 0.134020 -0.732548 -0.109014 -0.265082 0.181080 0.067114 -0.162584 -0.060954 -0.208715 0.695434 0.219906 -0.104603 0.323481 -0.323481 -0.325101 0.094532 -0.134435 -0.184039 0.106279 0.890156 -0.120606 0.276060 0.099046 -0.236968
3 -0.422082 0.313849 -0.137054 -0.023974 -0.234357 0.557590 0.051131 -0.003504 0.413810 0.166577 0.394967 0.089849 0.454336 -0.276014 -0.517972 -0.173311 -0.114174 0.146110 0.347614 -0.244560 0.127176 0.079451 0.019470 -0.052342 -0.513566 0.099435 -0.374664 -0.025524 -0.136032 0.016398 0.278358 -0.579021 -0.336252 -0.362386 -0.282332 0.330745 0.091907 0.140983 0.141270 0.326423 -0.006757 -0.381555 -0.431307 -0.437329 -0.081831 -0.235781 0.026852 0.292771 0.232229 -0.140460 0.216567 0.184753 0.414800 -0.285984 0.244630 -0.084764 -0.272374 0.318802 0.354972 0.068001 0.148360 -0.134812 -0.270261 0.746278
2 0.366708 0.242125 -0.197019 0.162955 0.590655 0.220448 -0.452048 0.013177 0.562702 0.376227 -0.524355 -0.449271 -0.105400 -0.012301 -0.560431 -0.037525 0.288699 0.034159 -0.140680 0.193596 0.295598 0.183303 0.042741 -0.133960 -0.094888 0.356014 0.258580 -0.191341 0.208884 0.293950 -0.213704 0.278375 -0.142949 -0.253611 -0.488653 -0.164859 0.563730 0.385073 -0.097979 0.189018 0.206494 0.238721 0.381960 0.320198 0.160411 -0.063542 -0.749191 -0.145565 -0.019149 -0.150722 -0.040007 0.004278 -0.042129 -0.224194 -0.632086 0.206639 0.031640 -0.098318 0.118960 0.046859 -0.150518 0.235184 -0.139069 -0.265027
88 -0.235919 -0.234672 0.454402 0.162158 0.194617 0.472358 -0.843017 0.101064 -0.209538 -0.447413 0.556862 0.392526 -0.128720 0.002765 -0.446972 -0.021774 0.840151 -0.187128 -0.361298 -0.377524 -0.094684 0.497066 0.205278 -0.189275 -0.033171 -0.354885 -0.011852 0.125981 0.239617 0.159999 0.325401 -0.119858 0.163177 0.084196 -0.529271 0.024136 -0.337439 0.013925 0.332241 -0.047294 -0.374665 0.328477 0.117866 0.128399 0.789719 -0.221709 -0.041992 0.468480 0.006438 -0.388219 0.009012 -0.339739 0.033549 -0.144714 -0.045459 -0.106220 -0.030105 0.127848 -0.206171 0.166098 0.011617 -0.554908 0.160302 -0.208606
38 0.007308 -0.204505 -0.281052 0.003423 0.630683 0.352059 0.050502 -0.265542 0.364617 0.122523 -0.409392 0.038577 0.062608 -0.434213 -0.031480 0.342907 0.591442 0.013237 -0.593384 -0.105115 0.265898 0.549586 0.328220 -0.082955 -0.186504 -0.450307 -0.102090 -0.418495 -0.365625 0.013971 0.192894 -0.542163 -0.094429 -0.303262 -0.409053 0.306594 0.066347 -0.669603 0.368562 0.371923 -0.038734 -0.321333 -0.363291 0.116960 0.989108 -0.608075 0.150283 0.099417 0.126856 1.065248 0.003732 -0.343020 -0.307478 0.236682 0.432773 0.208782 -0.290790 -0.024253 0.080500 0.571133 -0.319495 0.076731 -0.058008 0.218243
71 0.031109 -0.265810 0.324529 0.066874 0.105397 -0.068167 -0.402522 0.644632 0.515400 -0.379999 -0.085916 -0.159859 -0.561807 -0.047033 -0.240970 -0.095110 0.652588 0.362350 0.078885 0.107629 -0.008377 0.067836 0.392962 -0.479320 0.018589 -0.270645 -0.130300 -0.034726 -0.164185 -0.480807 -0.475046 0.065686 0.333242 -0.171727 -0.113258 0.524361 0.035012 0.048210 0.395051 -0.617184 -0.532385 -0.192086 0.021180 -0.510023 -0.195650 0.011598 -0.385921 -0.072127 0.436392 0.006258 0.289946 0.153986 -0.056156 -0.261777 -0.822280 -0.093739 0.119790 -0.120229 0.066742 0.141090 0.548811 0.351672 0.400016 -0.171308
24 0.619146 0.135046 -0.099729 0.416162 0.094404 0.265915 -0.021523 0.814114 0.381590 0.355124 0.138145 -0.295225 -0.093379 -0.328408 0.623345 -0.586995 -0.601907 0.070127 -0.266245 0.078834 0.247746 0.556806 0.221214 -0.161002 -0.204861 0.265848 0.444386 -0.447722 0.280114 0.570289 0.132872 -0.108971 0.253797 -0.148444 0.478203 0.289690 0.111396 -0.511788 -0.089236 -0.426092 0.535430 0.046635 -0.116883 -0.273347 0.054736 -0.160664 -0.332336 -0.308375 0.218163 0.382305 0.411579 -0.211176 -0.142714 0.146459 -0.396552 0.439853 0.149081 0.635440 -0.050662 -0.261613 -0.530025 0.195277 0.271032 -0.542128
77 0.269393 -0.210417 -0.246268 0.101836 -0.141954 0.295292 0.146205 0.287497 -0.236061 0.377725 0.386720 -0.192884 0.556803 -0.121706 0.315159 -0.554746 -0.751535 0.379042 0.269888 -0.867330 0.373433 0.551944 0.307966 -0.239659 -0.021859 0.011829 0.408274 -0.642056 0.056160 0.179336 -0.312457 -0.324633 -0.112206 0.185567 0.161500 -0.307595 0.128822 -0.323841 0.058154 -0.019616 0.268813 -0.177477 -0.561560 -0.563043 -0.063399 -0.164759 0.069377 -0.124204 -0.292471 -0.000312 0.937229 0.025488 0.603721 0.003184 -0.033496 -0.239145 0.235748 0.359356 0.126595 -0.091514 0.086889 -0.454825 0.074923 -0.175707
44 -0.341692 -0.743914 -0.046104 -0.412983 0.602298 -0.315587 -0.196605 0.112401 0.320764 0.191974 -0.919081 -0.336720 0.129219 0.266630 -0.417362 0.399864 0.020059 -0.039141 -0.053963 0.482911 0.273692 -0.117400 -0.291763 -0.748619 0.241541 -0.110158 0.110654 -0.010440 -0.425047 0.230627 0.249421 -0.221893 -0.114651 -0.230860 -0.436171 0.230468 0.205879 -0.197172 0.323514 0.243980 -0.427841 -0.164926 -0.289588 -0.183647 0.138158 -0.489123 0.224647 -0.423783 0.561144 0.060382 0.033196 0.115422 0.220326 -0.023020 -0.391684 -0.022899 0.044338 0.200435 0.189781 -0.084980 0.230711 0.628256 0.473526 -0.068894
4 -0.517181 -0.061921 0.116203 0.031384 0.336112 0.015087 0.065819 0.185957 -0.343108 0.463898 0.148912 -0.052312 0.507970 -0.398949 -0.565106 -0.044145 0.360499 0.327219 0.307832 -0.069004 0.440533 -0.223759 0.408213 0.305569 0.047183 -0.034942 0.131697 -0.180436 0.359195 0.004839 -0.269898 0.182091 0.200342 -0.489670 -0.459862 0.009638 -0.344803 0.741458 -0.138391 0.422837 -0.092819 -0.186313 -0.167803 -0.732187 0.304884 -0.171082 -0.313945 0.380539 0.373814 -0.657327 0.106955 0.540190 0.006004 -0.142635 0.090944 0.562447 0.112232 0.382062 0.457486 0.141116 -0.052657 0.365666 0.064038 -0.098362
61 -0.161733 0.419057 -0.201831 0.244494 -0.376052 -0.542830 -1.001290 -0.189417 -0.338349 0.291306 0.004429 -0.437737 0.030327 -0.057450 -0.529843 -0.111302 -0.320776 -0.305971 0.119925 -0.301671 0.048011 -0.004733 0.236547 0.328385 0.020032 0.050686 -0.129198 -0.038408 -0.111347 -0.027428 -0.108915 -0.177538 -0.323818 -0.256234 0.598595 -0.177778 0.312872 -0.014582 0.354882 0.070339 -0.266060 -0.131215 -0.272070 0.067250 0.068117 -0.145791 0.044011 -0.586117 0.178177 -0.005396 0.408927 -0.024126 -0.171343 0.508058 -0.109253 0.070504 0.112525 0.698557 -0.129395 -0.021296 0.389575 0.108287 0.409564 -0.199857
75 -0.204164 -0.632399 -0.264994 0.333638 0.333047 0.510019 -0.410171 -0.164344 0.158746 0.020761 0.329389 -0.480378 0.029555 0.214797 0.166955 -0.373645 0.582005 -0.059147 -0.087028 0.193939 0.034605 0.584633 0.190877 -0.084479 -0.113705 -0.426444 0.232512 -0.488127 0.113310 0.253573 0.448623 0.292057 0.082121 -0.259744 0.020380 0.298842 -0.476500 0.189905 0.192092 0.039561 -0.226481 0.211273 -0.137440 -0.774366 0.077700 -0.301711 -0.125789 0.076148 -0.248917 0.041210 -0.452502 -0.053416 0.289834 -0.738253 0.238076 0.169763 0.141375 0.266125 -0.130532 0.220859 -0.019613 -0.463571 -0.118329 0.288379
86 -0.853323 -0.301972 0.013455 0.200353 -0.081685 0.213832 -0.369743 -0.056643 0.168028 -0.050280 -0.058815 0.310741 0.331605 0.176594 -0.107231 0.107350 0.624312 -0.090168 -0.333749 0.473224 0.297493 0.643692 -0.318363 -0.023060 -0.027058 -0.506693 0.108325 -0.421920 -0.070637 0.254086 -0.057373 0.101125 -0.106817 -0.247187 -0.184686 0.188357 -0.259837 0.397449 0.107328 0.125199 -0.277624 -0.209467 -0.058682 -0.611855 0.206361 0.061071 -0.223266 0.536412 -0.186548 -0.032490 -0.290755 0.295138 0.049196 -0.658526 0.341820 0.316909 0.295828 0.183955 -0.237223 0.300181 0.188386 -0.612508 -0.305200 0.276230
30 -0.078588 0.364149 0.097755 -0.406263 0.476634 -0.334460 -0.284058 -0.027965 0.290175 0.149167 -0.137738 -0.225372 -0.600556 -0.355600 -0.596817 -0.266817 -0.372346 0.163817 0.326279 -0.202248 -0.040583 0.036118 0.157809 -0.359304 0.013786 0.659644 -0.008520 -0.430235 -0.046955 -0.208202 0.411655 -0.054993 -0.048428 -0.231202 0.014766 0.060543 0.269230 -0.039680 -0.305635 0.307151 -0.071501 -0.204148 -0.791655 0.244799 0.047352 -0.191835 -0.305908 -0.225554 0.338112 -0.028535 0.763038 -0.238680 0.739099 0.193777 -0.400000 0.197080 0.275803 0.561017 0.205320 0.041781 0.464703 -0.037100 0.461262 -0.264595
5 -0.064568 0.117160 0.236646 0.068348 0.296864 0.338893 -0.320149 0.125539 0.714148 0.072027 -0.045381 0.235486 0.041517 0.465217 -0.519109 0.403661 -0.095619 -0.076250 0.051966 0.305505 -0.003107 0.005775 0.084739 0.288820 -0.577460 -0.030985 -0.063483 0.161672 -0.255688 0.027620 -0.081270 -0.011441 0.257209 -0.088717 -0.277300 0.582679 0.524270 -0.300457 0.400513 -0.140482 -0.077820 -0.184156 0.260359 -0.184382 -0.309240 0.132184 -0.660709 -0.180003 0.331431 -0.091389 0.055701 0.307404 0.558594 -0.331991 -0.240900 -0.484947 0.267677 -0.113392 0.004595 0.539030 0.029840 0.005799 -0.105947 -0.202404
37 -0.768123 -0.481652 0.299030 0.438708 -0.023340 0.068155 0.115905 -0.296791 0.236770 -0.421922 -0.146989 -0.099801 -0.319375 0.027034 -0.277464 -0.001589 0.230629 -0.095610 -0.352873 0.447395 0.434509 0.363433 -0.462051 -0.577373 0.384970 0.100078 0.173429 -0.265041 -0.526404 -0.073705 -0.293170 0.351389 0.556403 -0.115415 -0.271210 -0.027261 0.219075 0.467083 -0.026542 0.127755 -0.601605 0.377248 -0.218940 -0.052777 0.182536 0.539149 -0.577129 -0.050463 -0.055467 -0.388616 0.083711 0.269072 -0.047822 -0.097928 -0.378257 0.882132 0.477278 0.137791 0.159937 -0.240652 0.020366 0.051174 -0.304283 -0.062006
19 -0.174680 -0.404707 -0.418823 0.141813 0.288788 0.756814 0.008647 0.461685 0.103316 0.200312 0.208850 -0.466000 0.288827 -0.715196 -0.479681 -0.077170 0.141033 -0.351491 -0.026335 0.114988 0.895309 0.104824 -0.018411 0.626628 -0.193929 0.219852 0.246322 -0.102836 0.019575 0.530819 0.756720 0.235008 0.228846 -0.078015 0.085216 -0.587691 -0.159900 -0.611697 -0.162902 0.094755 0.650218 -0.025322 -0.394525 -0.338228 -0.029361 -0.309947 -0.115664 -0.397198 -0.080476 -0.341028 -0.574211 0.298341 -0.015095 -0.172055 1.081677 0.328681 -0.195351 -0.176180 -0.014298 -0.299080 -0.070138 0.476969 0.185774 0.534864
70 0.123866 0.105715 0.258985 -0.326982 0.414493 0.140814 -0.442968 0.561290 0.053966 0.595264 0.201939 0.301896 0.387272 0.069343 -0.418015 0.310089 0.719462 0.266552 -0.508454 -0.483731 0.036322 0.167358 0.537539 0.654888 0.299873 0.215435 -0.166185 0.217714 0.032331 -0.379728 0.086019 -0.020612 0.019333 0.374520 -0.290336 -0.123704 -0.026043 -0.006806 -0.065975 0.442175 -0.018692 -0.406604 -0.054942 0.200021 0.228354 0.100470 -0.278860 0.295336 0.499690 0.342971 0.356219 0.295521 0.140086 -0.454490 0.221017 0.017100 -0.378379 0.120161 0.307393 0.317771 0.137747 -0.066348 -0.346918 -0.053794
65 0.109460 -0.638856 -0.011424 0.197435 0.032258 0.161165 -0.116635 0.847924 0.361030 0.141113 0.570255 -0.390557 0.498442 -0.290114 -0.507187 0.143927 0.089003 -0.109080 0.318256 -0.422572 -0.449729 -0.499878 0.227649 -0.148480 0.263621 -0.100351 -0.495781 0.089572 -0.305778 -0.082923 -0.124975 -0.148829 0.119663 0.221573 -0.278706 0.188230 -0.077612 -0.108961 -0.064757 -0.358561 -0.637120 -0.366993 0.054284 -0.044929 0.192501 -0.064543 -0.110522 0.064320 1.005718 -0.264626 0.046331 0.331235 -0.525830 -0.042548 -0.817447 0.151624 0.261050 0.339744 0.358714 -0.295480 0.097088 0.804534 -0.004178 -0.217907
6 0.284723 0.744048 0.245353 0.530280 -0.125340 -0.114256 -0.695433 -0.083720 0.453906 -0.316052 0.101578 0.057004 -0.061957 0.001161 0.071065 0.258756 -0.042132 0.052196 0.335842 -0.426998 0.394335 0.033119 0.220618 -0.603024 -0.573398 -0.040452 0.269496 -0.038109 0.077746 0.237431 -0.594427 0.065396 0.346524 0.170817 0.009110 -0.092706 -0.265161 0.188880 0.640897 -0.002513 0.200207 0.198630 0.491424 -0.731781 -0.204795 -0.418692 -0.079194 0.124168 0.360603 -0.412367 0.109554 0.026463 -0.166590 0.347275 -0.505320 0.084163 -0.469537 0.071536 0.038542 0.406003 0.000675 -0.259258 0.402265 -0.067804
42 -0.131300 -0.751614 -0.447775 0.066476 -0.396164 -0.241127 0.264518 -0.282550 -0.312878 -0.225339 -0.183843 0.036707 0.345518 0.127785 -0.755252 0.095663 -0.394137 -0.440576 -0.170944 -0.267647 0.566949 0.084336 0.217363 -0.143156 0.064361 0.068812 0.184167 -0.403375 0.120843 0.066488 -0.194160 -0.480452 -0.068866 -0.262984 -0.534523 -0.455837 0.512081 0.037617 -0.151350 -0.050417 -0.000994 -0.162894 -0.523587 -0.241946 0.902186 -0.515194 -0.336299 -0.116433 0.128242 -0.420843 0.224109 0.205951 -0.284263 0.580198 0.840789 -0.490586 -0.115278 0.690082 0.214478 -0.160838 -0.159401 -0.080244 0.171528 -0.569903
69 -0.036123 -0.014577 0.397922 0.057968 -0.208739 0.270672 -0.114450 -0.290996 -0.162006 0.770351 -0.117279 0.259249 0.174359 0.388901 -0.296992 -0.177420 0.608726 -0.434805 -0.601063 0.021531 -0.328960 0.329814 0.359283 -0.079250 -0.112387 -0.174022 0.139935 -0.188896 -0.100228 -0.464247 -0.313850 -0.629829 0.372954 0.596613 -0.139252 -0.138853 -0.106352 0.337683 0.403141 0.406052 -0.288595 0.378557 0.337882 0.087103 0.264037 -0.188217 0.013325 0.621815 0.150145 0.240987 0.498970 0.254021 0.055896 -0.415154 0.445919 -0.094827 -0.236113 0.269202 0.289725 0.471679 -0.118320 -0.685043 -0.195435 -0.089804
39 0.201288 0.472767 -0.331785 -0.077534 -0.357771 -0.207394 -0.459757 -0.051685 0.016530 0.090693 0.364986 -0.255576 -0.647241 0.614210 -0.287773 0.049844 0.200141 -0.124809 -0.018741 0.014789 0.487480 0.430736 0.085703 -0.230619 0.326072 0.321673 0.033335 -0.234786 -0.138469 0.171202 -0.058768 -0.274417 -0.476768 -0.286225 0.253904 0.247909 0.636042 0.018938 -0.371695 0.386392 -0.309804 -0.271931 -0.108782 -0.473472 -0.394620 -0.240349 0.022611 -0.266897 0.119358 -0.045662 0.410054 0.152866 -0.379519 -0.011172 -0.530498 0.529483 -0.083331 0.256220 -0.002411 -0.163701 0.417006 -0.606198 -0.054421 0.229375
47 -0.122053 -0.065733 -0.402222 -0.079076 -0.062814 0.223066 -0.093176 0.736134 0.361397 0.270805 0.221230 0.168484 -0.638452 -0.354095 -0.186288 0.272144 -0.190181 -0.216481 -0.104941 -0.226758 0.348720 0.256890 0.590395 -0.215286 -0.589586 0.120321 0.162894 -0.349527 0.235702 0.043036 -0.322435 0.164279 0.626008 0.153917 0.106891 0.360534 0.208441 -0.045545 -0.550122 0.131481 0.523330 -0.283415 -0.150061 0.126912 0.594825 -0.547184 -0.019857 0.377031 0.320336 -0.347079 -0.566740 0.439923 -0.771016 0.297267 -0.336782 -0.072912 -0.016938 -0.259422 -0.504089 -0.056436 -0.529493 0.017621 0.530671 -0.115266
29 -0.363259 0.271575 -0.317966 0.086634 -0.294338 -0.155998 -0.086789 -0.014185 0.066838 -0.027592 -0.088151 0.103241 0.178722 -0.423857 -0.484642 0.416189 -0.470623 -0.913540 0.269930 -0.315476 0.315601 0.363682 -0.204229 -0.802028 -0.188124 -0.356378 0.189984 -0.542154 -0.212744 -0.012887 0.027282 -0.509133 0.592289 -0.092467 0.374119 -0.333182 -0.053349 -0.168732 0.066490 0.029119 0.193815 -0.212655 -0.034103 0.172271 -0.120694 -0.320970 -0.056605 0.312839 0.276161 -0.498491 -0.174798 0.028765 -0.065919 0.404834 -0.080356 0.161696 0.499173 0.404660 -0.402844 0.610898 0.008848 0.007236 0.266828 -0.004561
95 0.270880 -0.001473 -0.031492 0.274002 0.069837 -0.177735 -0.277317 0.283199 0.916240 0.242043 0.174612 -0.204308 -0.120107 0.030068 0.120597 0.018325 0.068516 0.292294 -0.166108 -0.275730 -0.294052 0.401496 -0.235324 0.048596 0.799612 -0.422750 -0.147370 -0.284701 -0.000266 -0.164436 -0.328936 -0.232409 -0.113569 0.073045 -0.011127 0.071728 0.025194 0.529892 0.056524 -0.209473 -0.549426 -0.096006 0.135897 -0.421157 0.532146 -0.767929 -0.513134 0.256825 0.203376 0.323186 0.037737 -0.020639 0.079271 -0.233065 -0.410754 0.347713 -0.499462 0.060663 -0.090860 -0.203232 -0.166029 0.082775 0.036367 -0.557353
58 -0.461078 0.006488 0.273055 -0.110125 0.568644 -0.308724 -0.619279 -0.197334 -0.192047 -0.166772 -0.377592 0.280566 0.541672 -0.261744 -0.640860 0.253064 0.263261 -0.396220 -0.052298 0.192197 0.733314 0.222625 -0.040077 0.133707 -0.304351 0.266192 0.179596 0.317680 0.175768 0.834398 0.387251 -0.001842 0.109891 -0.017475 -1.062980 -0.398165 -0.044377 -0.281739 0.359195 -0.032139 0.237132 0.023614 0.147380 -0.345198 -0.067001 -0.170878 0.138873 -0.259967 -0.183760 -0.283661 0.339703 0.037244 0.306095 0.281584 0.354040 0.258336 -0.360690 0.285999 0.118342 0.641120 0.305097 -0.089345 0.453859 0.058804
40 -0.084588 -0.265775 -0.290694 0.223730 0.296556 0.670918 0.147522 0.568751 0.402697 0.881332 0.207245 0.289859 0.545956 -0.233698 0.108104 -0.296266 0.396099 0.591411 0.332897 -0.601881 0.493967 0.107689 -0.005342 0.402131 -0.098104 0.020604 0.120007 -0.032047 -0.110074 0.153114 0.062678 -0.050990 0.175192 0.226379 -0.080565 -0.082679 -0.168058 -0.145543 0.264849 0.317941 0.272311 -0.318791 -0.352990 -0.598937 -0.039130 -0.135538 0.190863 0.447451 0.155724 -0.009827 0.289898 0.324128 0.406543 -0.294330 0.677749 -0.103202 -0.417617 -0.170634 0.238152 -0.005370 -0.046844 -0.173766 -0.394006 0.568724
56 -0.704732 -0.012076 0.086457 0.255259 0.647318 0.256452 -0.640492 0.400487 -0.222838 -0.274502 -0.036759 0.545267 -0.180686 0.335975 -0.652952 0.374243 -0.064023 -0.339183 -0.424922 0.262425 0.079229 0.527711 0.764911 0.562887 0.391506 0.090168 0.033303 -0.020164 0.039090 -0.616166 0.004124 -0.510033 -0.109022 0.390820 0.300304 -0.075971 -0.376566 -0.289619 -0.253337 -0.218544 0.088876 -0.427038 -0.134371 0.435414 0.206373 0.308941 -0.324289 0.347964 -0.289902 0.533705 0.394976 -0.259659 0.144955 -0.234714 -0.053037 -0.251438 -0.428955 0.445498 -0.113219 0.394122 0.268817 -0.593671 -0.110088 -0.788643
9 -0.769451 0.384283 -0.097282 0.502914 0.090449 0.614711 -0.084815 -0.301517 0.354700 0.148216 -0.835968 0.078575 -0.370439 -0.291683 -0.718441 0.147923 -0.321654 -0.108889 0.569999 -0.600204 -0.133959 0.054256 0.500321 -0.297766 -0.402823 -0.055445 0.417142 -0.021383 -0.100817 -0.022823 -0.163198 -0.232176 0.466126 -0.006757 0.300853 -0.072439 0.246580 1.160609 0.220127 -0.164006 0.286989 -0.457626 -0.053159 -0.135237 -0.150303 -0.283489 -0.141675 0.032761 -0.692061 0.329749 -0.194724 -0.184007 0.026637 0.007967 -0.329762 -0.284002 -0.506350 -0.424390 -0.248714 0.956955 0.115551 -0.145581 0.305303 0.193874
59 -0.063638 -0.612834 -0.543023 -0.037402 0.021596 0.149641 0.676289 -0.356174 0.457366 0.017701 -0.103992 0.383214 -0.832786 -0.489686 -0.395310 0.094369 -0.246422 -0.275690 -0.578570 0.918253 0.804465 0.112708 -0.227888 -0.085834 -0.057407 0.318610 0.105671 -0.594236 -0.207157 -0.237321 -0.377083 -0.632089 0.935486 -0.179359 0.246565 -0.099662 0.078631 -0.353896 0.248209 0.117079 0.504680 0.124709 0.055598 -0.282706 0.117554 -0.342088 -0.161012 -0.068509 0.372153 0.218166 -0.091751 0.016808 -0.297715 -0.084621 0.206670 0.177375 0.165003 0.093832 -0.299048 0.128753 -0.357263 0.184655 0.031513 -0.146448
74 -0.019729 -0.080438 0.554003 0.718177 -0.725532 0.203649 -0.249037 0.506547 0.319958 -0.165924 0.161011 -0.027595 0.363821 0.317029 -0.152625 -0.686398 0.341157 -0.225620 -0.144858 -0.034643 -0.006683 0.543297 0.039647 -0.822769 -0.543141 -0.073836 -0.066856 0.288612 -0.123804 0.024904 -0.175527 -0.261638 -0.165213 0.339051 -0.453005 0.338525 0.169868 0.015266 0.042464 -0.314972 -0.480077 0.188049 -0.029484 -0.218998 0.339668 -0.233001 -0.168455 0.869856 0.356783 0.200187 0.249100 0.185079 -0.169881 -0.361379 0.424210 -0.027046 -0.410272 0.438226 0.370023 -0.207232 -0.222778 0.281617 0.206976 -0.035704
16 0.020601 -0.638265 0.159572 0.578368 -0.163782 0.735503 0.440171 -0.158492 0.554324 0.030764 -0.182548 0.262108 0.728575 -0.396524 -0.205143 -0.021801 -0.215935 -0.113723 -0.010072 -0.099778 -0.063795 -0.307920 -0.207220 -0.361210 -0.435755 0.078814 0.231066 -0.103085 -0.135869 0.548914 -0.361886 -0.196595 0.795938 0.176330 -0.409134 -0.157351 0.098093 0.241413 0.996028 -0.460594 0.285817 0.390551 0.119026 -0.444238 0.141663 0.218433 -0.093444 -0.553443 0.329746 -0.450722 0.134988 0.355673 0.069207 0.310948 0.300221 -0.472409 -0.077101 0.251422 0.609186 0.223907 -0.341049 0.407997 -0.230026 0.303860
90 -0.109805 -0.567547 0.090430 0.256699 0.110449 -0.071437 -0.582291 0.381341 0.579975 -0.043370 0.026606 0.178375 0.368333 -0.130748 -0.496922 0.450029 0.180367 -0.715277 0.012287 0.165592 -0.023741 -0.468347 -0.224833 0.330215 0.311177 -0.030693 -0.327565 0.123971 -0.623493 0.098749 0.128740 -0.192067 0.418548 0.790051 0.064130 -0.400242 -0.365052 -0.212045 0.513436 -0.354753 -0.081422 0.207497 0.307348 -0.155783 -0.005131 -0.465698 0.196856 -0.475509 0.329419 -0.408866 -0.294898 0.490589 -0.354866 0.163869 0.171120 -0.195825 -0.634505 0.049825 0.225217 -0.140262 0.052659 0.341603 0.005588 -0.023763
78 -0.034960 -0.146520 0.551943 -0.167794 0.666541 -0.254251 -0.638047 0.196126 0.361239 0.807167 -1.109837 -0.305149 0.142817 -0.094864 -0.551240 0.304156 0.761121 -0.396044 -0.204957 0.469897 0.115984 -0.156736 0.183372 0.001782 0.263202 0.078420 0.155498 0.258021 -0.026260 -0.146771 0.255730 -0.036640 0.090104 -0.206374 0.004936 0.121881 0.166670 0.460982 0.058301 0.131905 -0.354299 0.130964 -0.009933 0.281468 -0.196898 0.187473 -0.177816 -0.631605 0.538194 0.251166 0.427424 0.111137 -0.025641 0.055024 -0.007061 0.424976 -0.020969 0.285841 0.487011 0.262930 0.339519 0.634362 -0.005776 0.259461
48 -0.006161 -0.170662 -0.110176 -0.691561 0.700617 -0.284347 -0.323496 0.555731 -0.060518 0.648672 -0.691924 -0.312404 -0.113354 -0.115481 -0.342597 -0.314838 -0.025411 -0.043814 -0.037339 0.205015 -0.058775 0.036506 0.244030 -0.081194 0.251141 0.099800 0.371235 0.068995 0.266432 -0.043406 -0.267204 0.099515 0.031620 -0.476060 0.398155 -0.104614 -0.343885 0.073804 0.367748 0.379298 -0.066597 0.335316 -0.282861 -0.044254 0.184920 -0.596608 -0.240416 -0.948629 -0.114087 -0.173246 0.123707 0.226065 0.280953 0.000745 -0.621217 0.093345 -0.043432 0.454093 0.313149 0.384309 0.321418 0.408234 0.762373 -0.468572
63 -0.074839 -0.235589 0.065916 0.046032 -0.006527 -0.502119 -0.400262 0.252062 -0.019935 -0.588575 0.741744 -0.224602 0.297155 -0.633631 -0.413704 -0.048917 -0.012011 -0.456749 0.056037 0.762261 0.565253 0.014606 -0.513535 0.118754 -0.088883 0.441911 -0.467347 -0.465796 -0.468110 0.849947 0.179167 -0.528140 0.042382 -0.015967 -0.249525 -0.314098 0.215208 -0.007562 -0.117203 -0.281145 0.149597 0.004542 0.162030 -0.278269 -0.195959 0.310077 0.091398 -0.148963 0.133911 -0.510055 0.488522 0.447892 -0.439402 0.203431 -0.470050 0.510127 0.531250 0.711314 -0.009878 -0.054716 0.054877 0.005745 -0.469983 0.303290
94 -0.133668 -0.037175 0.298129 0.473268 -0.473346 0.544631 -0.538494 -0.163973 0.799272 -0.663057 0.562498 -0.008655 0.019145 0.141398 -0.097043 0.393320 -0.032841 -0.367708 -0.864489 0.136159 0.116689 0.614030 -0.413660 0.466703 0.352518 -0.441273 -0.380160 0.149933 -0.318103 0.058912 -0.193835 -0.296612 0.433747 0.565546 0.090772 -0.257217 0.474378 0.168978 0.225855 -0.583837 -0.261845 0.322331 0.374376 -0.098598 -0.385340 0.143848 -0.464741 -0.416179 -0.110153 0.552455 0.078900 -0.034778 -0.021832 -0.501551 -0.068398 0.162962 -0.363035 -0.387192 -0.251597 -0.116585 0.114870 0.317967 -0.269247 0.076403
36 0.074534 -0.210039 0.367174 0.235436 -0.088771 0.548032 0.336094 0.868126 -0.357466 0.164511 0.105278 -0.115100 0.718144 -0.020065 -0.142485 -0.577058 -0.141373 -0.324910 0.266208 0.129118 0.739487 0.030425 -0.037495 0.029557 0.056131 0.176953 0.254813 0.085415 -0.387334 0.237420 0.340244 -0.779300 -0.403615 0.109291 0.044016 -0.131123 -0.150552 -0.316016 -0.381247 -0.145049 0.047275 0.114733 -0.362176 -0.462089 -0.347279 0.090198 -0.123560 0.248880 -0.062759 0.259776 0.587925 0.255766 -0.329223 -0.190422 -0.478158 0.713692 0.123794 0.971318 0.696961 -0.385398 -0.345263 -0.239431 -0.478001 -0.069769
49 0.684504 -0.496029 -0.107349 -0.017986 0.168772 0.244182 -0.302043 0.189910 0.319384 0.194587 0.060246 -0.648359 0.133428 0.397848 -0.262338 -0.162728 0.029666 -0.066817 -0.580318 0.080792 -0.126509 0.302580 0.161209 0.525888 0.153522 -0.221420 0.043245 -0.337206 0.221597 -0.593917 -0.328046 0.061225 -0.183667 0.223748 0.100832 -0.120734 0.243766 -0.122402 0.011755 -0.074316 -0.385431 0.471938 0.272989 -0.266313 0.349868 -0.570649 -0.899709 -0.768370 0.223976 0.247449 0.261790 0.161796 -0.238158 -0.295799 0.102983 -0.152032 -0.451492 0.235217 0.582856 -0.660822 -0.190543 0.321828 0.154618 -0.703428
80 0.632791 0.442463 0.166863 0.695804 -0.009704 -0.200540 -0.671734 -0.414798 1.171233 0.125837 -0.799288 -0.189894 0.431801 0.218399 0.298073 0.378184 -0.072277 0.148354 0.476389 0.070409 0.288625 -0.186076 0.265791 0.299452 -0.599329 0.056392 0.425981 0.018863 -0.437387 0.351163 -0.318589 0.363310 0.385816 -0.039983 0.498625 -0.191874 0.146000 0.227657 0.483315 0.720918 0.144948 0.231681 0.236946 -0.031202 -0.213676 0.147979 -0.733464 0.029017 0.134521 0.483218 0.072194 0.080641 -0.202367 0.245318 -0.080428 0.286057 0.039428 0.516274 0.255675 0.674285 -0.474804 -0.494867 -0.607985 0.138524
23 -0.051040 0.011609 0.209656 0.223987 -0.169147 -0.478770 -0.763407 0.212008 -0.577544 0.363143 0.508874 0.330249 -0.075662 0.128297 -0.393879 0.230984 0.096252 -0.108199 0.115495 -0.754172 0.531492 -0.043023 0.230047 -0.211153 0.166457 -0.402887 -0.003725 -0.069280 -0.203973 -0.510596 -0.309278 -0.338921 0.337979 0.737772 0.263101 0.025385 -0.443522 -0.151544 0.388194 0.087472 -0.166893 -0.212013 0.049602 -0.607893 -0.433560 -0.360081 0.738757 0.437977 0.542564 -0.536571 0.421557 0.000684 -0.268040 0.055232 -0.237049 -0.089238 0.207164 0.145590 -0.434855 0.304783 0.494844 -0.469227 0.224635 -0.162687
52 0.013138 -0.201519 0.111281 0.008030 0.099781 0.438894 0.062852 0.605071 -0.561384 0.251658 0.866789 0.264098 -0.455302 -0.652427 -0.627197 -0.404880 0.636462 -0.165203 0.118788 -0.009903 0.615181 -0.165677 0.144993 -0.020130 0.035975 0.468360 -0.179265 -0.209858 0.094217 0.135087 0.227003 -0.767695 0.455594 -0.401663 0.138814 0.277581 0.270744 0.126293 0.139728 -0.507051 0.250003 -0.633227 -0.120641 -0.662625 -0.494703 0.362337 0.376581 0.032774 0.144094 -0.104968 0.796064 0.193997 -0.038608 -0.374527 -0.212196 -0.009979 0.670626 0.073397 -0.045375 0.427841 0.395582 0.255631 -0.128482 0.357844
18 -0.391780 0.017172 -0.104754 0.214629 -0.537148 0.564886 0.407059 0.002723 0.076439 0.575768 -0.214399 -0.121404 0.738771 0.249628 -0.575136 0.232890 -0.066421 -0.393275 -0.206568 -0.285377 -0.491458 0.195168 0.137025 0.076721 0.067386 -0.057064 0.046626 0.064871 -0.381252 0.404274 0.426412 -0.283456 0.189007 -0.553916 0.042951 0.602576 0.903436 0.309789 0.122951 -0.219936 -0.281891 -0.640064 -0.437370 0.067834 -0.184253 0.727453 -0.445275 -0.302394 0.410776 0.408903 -0.072366 0.556018 0.065615 -0.078999 0.272318 0.090876 0.312065 0.765691 0.435984 0.576976 -0.208206 0.360851 -0.501150 0.525964
35 -0.308421 0.022185 -0.110617 0.217380 -0.065802 -0.523888 -0.350600 0.279173 -0.012981 -0.230738 0.928418 -0.273653 -0.271252 0.155378 -0.368462 -0.291874 0.068807 -0.659974 0.198177 0.603102 0.227395 0.234464 -0.200169 0.248745 -0.037851 0.496491 -0.050815 -0.056791 -0.424766 0.467177 0.013635 -0.113119 0.634288 0.518209 0.222522 -0.251752 -0.057014 -0.226957 -0.264054 0.019958 -0.175983 0.593138 0.497888 -0.259669 -0.581398 0.070160 0.038244 0.441258 0.206675 -0.540382 0.203865 0.802984 0.146470 -0.216097 -0.172537 0.619642 -0.367748 0.563201 0.220951 -0.124474 0.024095 -0.476961 0.059569 -0.114264
96 -0.471224 -0.097346 0.516542 -0.511854 0.447426 0.228149 -0.730822 0.109689 0.638171 -0.800400 -0.185238 1.078229 -0.121930 0.149697 -0.199727 0.928482 -0.401907 0.290806 -0.574907 0.069550 0.930949 0.361015 -0.048183 0.295894 -0.389564 0.122864 -0.023813 0.207487 0.275941 -0.193364 -0.393721 0.114180 0.405482 0.209032 -0.299265 -0.418841 -0.020489 -0.074643 -0.179992 0.303923 0.426220 -0.406320 -0.048686 -0.225726 -0.180568 0.190555 -0.444454 -0.259325 0.388037 0.172056 0.697385 -0.235885 0.249757 -0.133531 -0.208581 -0.233862 -0.104464 -0.413949 -0.380055 0.299433 0.422824 0.225905 0.427247 -0.401967
57 -0.180462 -0.586423 -0.294728 -0.079418 0.094260 0.410607 -0.815468 0.056790 0.809166 -0.055720 -0.179132 0.096522 0.290817 0.371372 -0.302409 0.686217 0.195870 0.332333 -0.396457 0.456159 0.638426 -0.044856 0.090384 0.872204 0.405668 -0.303662 -0.120279 0.266962 -0.044445 -0.430546 -0.432441 0.306995 -0.226681 0.229377 0.127262 -0.303472 -0.192983 -0.171614 0.216406 0.695993 -0.050317 0.063940 -0.180776 -0.264364 -0.026640 -0.321653 -0.177495 -0.468396 0.264039 -0.105084 -0.474793 0.149806 -0.293268 -0.449410 0.275775 -0.154534 -0.605412 -0.336636 -0.174604 -0.609189 0.419022 0.164645 -0.168852 0.464414
76 0.201360 0.111203 0.237987 0.034514 0.410930 0.507205 -0.579920 0.015979 0.156896 -0.091107 0.624713 -0.316383 -0.216730 -0.622074 -0.196525 -0.332716 0.022744 -0.274160 -0.176622 0.343128 0.516799 0.509062 0.138616 0.588547 -0.540933 0.099676 0.056128 -0.290084 0.374700 -0.088549 0.505750 -0.461135 -0.119815 -0.045090 0.150349 -0.214159 -0.242261 0.170523 -0.433416 0.290526 0.515557 0.492576 -0.120861 -0.133741 0.248840 -0.507138 -0.246284 0.122275 -0.158996 0.080461 0.336089 -0.356087 -0.036405 -0.215840 0.330821 0.275630 -0.180092 0.200255 -0.031703 -0.217416 -0.128382 -0.499354 -0.218540 0.286330
66 -0.563721 0.126529 0.242767 0.082187 0.380641 0.321188 -0.331453 -0.156314 0.578212 -0.510141 -0.165357 -0.053313 -0.147016 0.389405 0.014132 0.204873 0.328814 -0.054587 0.206101 0.259661 0.159210 0.168489 -0.002537 -0.494737 -1.047015 -0.032873 0.211263 -0.191242 -0.435809 0.289871 0.181189 0.382318 0.733145 0.201348 0.099702 0.098241 -0.208419 0.140624 0.202311 0.862654 0.096300 0.433623 -0.102050 -0.453000 -0.157582 -0.445733 -0.146639 0.393992 0.172351 -0.275973 -0.399968 0.586974 -0.036453 -0.063548 0.225587 0.158678 -0.606024 -0.174625 0.309097 0.282948 -0.288178 -0.211479 0.443566 0.324139
50 0.024077 -1.116046 -0.371479 -0.071765 0.417177 -0.031544 0.325856 0.715450 0.080552 -0.029814 -0.017359 0.011418 0.160661 0.120653 -0.096604 0.330701 -0.110273 0.679711 -0.061852 -0.903998 0.424084 0.159645 0.417439 -0.706233 0.222367 -0.280004 0.463525 -0.623428 0.087486 -0.165419 -0.576500 0.451658 0.315005 0.454564 -0.485013 -0.132708 -0.117602 0.072669 -0.368432 0.239353 0.162331 -0.593909 -0.546420 -0.171463 0.640707 -0.267944 -0.014524 0.669138 0.169252 -0.050943 -0.208474 0.296715 -0.188717 -0.254420 -0.559890 -0.175955 0.518546 0.135076 -0.110318 0.355408 -0.191358 0.243033 0.153019 -0.526179
15 -0.528745 -0.011407 -0.322196 0.745812 -0.037665 -0.133120 -0.125440 0.007044 -0.094652 0.043072 -0.599986 -0.160724 -0.495146 0.272003 -0.878301 -0.366917 -0.215703 -0.597114 0.393377 0.387677 0.083089 -0.082171 -0.173375 -0.393243 0.233769 0.605543 0.549550 0.416684 -0.196086 1.019051 0.279367 0.038570 0.442927 0.195316 0.072070 -0.259639 0.623952 -0.321343 -0.037097 -0.181126 -0.102370 -0.322089 0.012039 -0.018020 -0.137153 -0.292095 0.055572 -0.065567 -0.193275 0.092556 -0.050092 -0.024565 -0.299609 0.280265 0.211449 0.723620 -0.575875 0.344020 0.241622 0.210396 0.030788 0.500499 0.800840 -0.589393
11 0.568557 0.195680 0.311822 0.149719 -0.314568 -0.096951 -0.646761 -0.127352 0.580601 -0.354708 0.429236 0.232963 -0.162221 -0.679223 -0.360962 0.193505 0.323571 -0.083101 -0.133264 -0.931127 -0.109798 0.171093 -0.140491 -0.252242 0.154082 0.342690 -0.261345 -0.346688 0.288353 -0.198821 0.128834 -0.385788 0.355063 0.000679 0.019358 -0.726344 0.065548 0.726088 0.649087 -0.214813 0.278005 0.051901 -0.196219 -0.068152 0.388035 -0.331149 -0.130459 -0.393604 -0.031354 -0.404169 0.594981 -0.172756 0.362206 0.236845 0.614622 -0.482586 -0.199289 0.085055 0.108060 0.646152 0.569796 0.005438 0.147623 0.288034
55 -0.125887 0.492480 0.517895 0.144839 -0.412783 0.011177 -0.281441 -0.044265 0.251935 0.087124 0.377335 -0.471653 0.257327 0.769110 -0.174008 0.063789 0.218893 0.064303 -0.381304 -0.764817 -0.400445 0.834497 -0.031350 0.002706 0.089098 -0.282726 -0.001638 0.255665 -0.439670 0.351923 0.186819 0.017620 -0.449400 0.484342 -0.456333 0.029860 0.780658 0.460286 -0.181025 0.269985 -0.686115 -0.132650 -0.288468 0.007345 -0.027472 0.046711 -0.321797 0.098054 -0.233793 0.335799 0.469970 0.391732 0.160043 -0.224948 0.081507 0.488449 -0.231084 0.098416 0.302136 0.444776 0.146258 -0.538349 -0.471773 0.263750
53 0.193166 0.275374 0.376552 0.025989 -0.428773 0.155209 -0.548601 0.303310 0.888065 0.714970 -0.005388 -0.042083 0.775826 0.036137 -0.290988 0.406927 -0.788958 -0.543933 -0.016745 -0.028866 0.401056 -0.177085 0.089278 0.353365 -0.855071 0.308703 -0.149027 0.234175 -0.052950 -0.124203 -0.119751 0.001657 0.369186 0.498920 -0.073490 -0.378745 0.395988 -0.055481 -0.104360 0.233902 0.165758 0.291001 0.298767 0.379899 -0.427913 0.416010 -0.518239 0.312730 1.157383 -0.524848 0.219488 0.536523 0.425491 -0.266420 0.194098 -0.431697 0.541095 0.094102 -0.293063 -0.485727 -0.190800 0.126170 -0.160365 0.276719
92 -0.689185 -0.811119 -0.358619 -0.283589 -0.424243 0.050451 -0.515231 0.459059 -0.002936 -0.319377 0.153974 -0.278546 0.489109 0.637505 -0.554632 0.022289 -0.636944 -0.414090 -0.202957 0.149852 -0.517207 0.464742 0.217340 0.419647 -0.144443 -0.336479 -0.069208 -0.152917 -0.264611 -0.005749 -0.002016 -0.323374 -0.591593 0.306754 0.257756 -0.331301 -0.016600 -0.018889 -0.161486 -0.301969 -0.156348 0.007786 -0.471645 0.012167 0.449969 -0.511143 -0.265055 -0.300317 -0.419013 -0.162231 -0.274425 0.529185 -0.176778 -0.190112 0.271645 -0.940911 -0.186212 0.478246 -0.324749 -0.147052 0.470198 -0.471236 0.341733 -0.231260
41 -0.452184 0.315920 -0.310027 0.538132 -0.195339 -0.414735 0.068579 -0.111807 0.459371 0.076114 0.273259 0.109536 -0.786777 -0.155186 -0.606798 -0.353926 0.122918 -0.295832 -0.016076 0.062988 0.397564 0.440824 -0.224597 -0.114224 0.423287 -0.106546 -0.003385 -0.057815 0.165959 0.289840 -0.687334 -0.157901 0.315015 0.066198 -0.399435 0.223386 0.237026 0.056817 -0.117207 -0.354223 -0.447672 -0.233105 0.229496 -0.497872 -0.032119 -0.408201 -0.244551 0.612743 0.314742 -0.113702 -0.027522 0.127291 0.250931 -0.150005 0.158074 0.542008 -0.499336 -0.129456 -0.309318 0.125350 0.156126 0.071026 0.518470 -0.509841
1 0.415294 -0.066761 0.089521 0.159802 -0.091128 0.736151 -0.143518 -0.399220 -0.093888 -0.274441 -0.165553 -0.395958 -0.379008 0.268165 -0.443871 0.035276 0.093751 0.012075 0.083198 -0.405478 0.481950 0.001045 0.516793 -0.055374 -0.558083 -0.262094 0.584114 -0.202162 -0.123230 -0.397762 0.070375 -0.289163 0.390157 0.030129 0.342243 -0.137627 0.640693 -0.196089 0.124396 0.895789 -0.018319 0.503857 -0.334332 0.275279 0.443428 -0.454212 -0.420763 0.062905 -0.109022 0.162927 -0.031653 -0.220950 -0.653087 0.452929 0.146924 -0.224778 -0.122659 0.231133 0.157861 -0.316265 -0.583573 -0.570285 -0.041302 0.293986
60 -0.059757 -0.102200 -0.385664 0.257242 -0.272487 -0.239749 0.372879 0.133320 -0.009186 0.885041 -0.671311 0.114477 0.400105 -0.182140 0.189725 -0.378891 -0.001011 -0.463628 -0.879401 0.329361 0.136362 0.641764 0.107943 -0.362227 0.199273 -0.061550 0.394673 -0.740293 -0.266413 0.217876 -0.479224 -0.540752 0.177723 0.276945 0.385399 -0.544022 -0.537193 0.150109 -0.007995 0.652112 0.419362 0.180661 0.041621 0.356909 0.769436 -0.460948 0.033032 0.633742 -0.211397 0.621333 -0.286418 0.181634 -0.630884 -0.289959 0.335594 0.469614 0.327112 0.861003 -0.502046 0.845207 -0.456033 -0.462122 -0.242231 -0.267361
26 -0.706124 -0.245594 -0.283477 0.223100 0.482343 0.281750 0.394046 -0.267031 0.183492 -0.385570 -0.041300 -0.305484 0.018354 -0.343657 0.013489 -0.245764 -0.122127 -0.399714 -0.176599 0.375955 -0.477707 0.423341 0.162450 -0.221544 0.211782 -0.294791 0.074861 -0.763427 -0.543719 -0.136525 0.041113 -0.170671 0.478197 -0.149449 0.049185 0.010789 -0.788848 0.123760 0.139282 0.002354 -0.510034 0.097812 0.069156 0.058484 0.321551 0.220949 -0.696437 0.021896 -0.195923 0.346318 -0.221911 0.072650 0.156693 -0.265496 -1.128428 0.962814 0.233759 0.955153 0.278549 0.423408 -0.508718 -0.443091 -0.451169 -0.500314
27 -0.311894 -0.357446 -0.577697 0.681507 -0.595417 0.247884 -0.343551 -0.767634 0.721315 -0.126833 0.141048 0.202997 -0.342890 -0.091718 -0.549935 0.295418 -0.390280 -0.396905 0.244518 0.034054 0.198215 0.140437 0.090088 -0.094251 0.596238 -0.241866 -0.428514 -0.150770 -0.285149 -0.790222 -0.667655 -0.770711 0.258799 0.283617 0.383853 0.140445 0.085891 0.035355 0.318071 -0.228177 -0.506157 -0.173880 -0.031313 -0.143446 -0.493629 -0.063724 0.060760 -0.057548 0.144832 0.098975 0.266446 -0.401440 0.151241 -0.245819 -0.188852 -0.188152 -0.185680 -0.103012 -0.166731 -0.196240 0.477907 -0.374139 -0.346858 0.015997
51 0.140644 0.488297 0.601145 0.286083 -0.103245 0.473039 -0.035512 -0.114063 -0.181011 -0.198886 0.562191 -0.541877 -0.271122 0.447200 -0.007432 0.081465 -0.174346 0.115637 0.380905 -0.671247 -0.228920 0.161370 0.509241 0.390279 -0.461966 0.072998 0.627330 -0.594566 -0.403824 -0.036034 0.787660 -0.054901 0.772740 0.100312 0.530654 0.191855 0.883905 0.828459 -0.084517 -0.125342 0.454872 0.671043 -0.468537 -0.322260 -0.009304 -0.405101 -0.579039 -0.198855 -0.558556 0.023479 0.321359 0.445468 0.096780 0.334236 -0.116669 -0.187268 -0.141622 0.406583 0.304514 0.040283 -0.460713 -0.708061 -0.125094 0.119602
12 -0.188269 -0.594878 -0.236722 -0.379308 0.092706 0.453797 -0.144405 -0.168989 0.167254 0.095904 0.176855 0.210136 -0.401526 -0.531280 -0.968768 -0.080717 -0.382941 0.046093 0.267863 0.366510 0.293700 -0.455753 0.267370 0.565364 -0.251814 0.027933 0.171032 -0.369552 0.008634 -0.342915 0.248814 -0.149520 0.707785 -0.087092 -0.070940 0.128383 0.269249 -0.111300 0.334608 0.021859 0.364436 -0.039332 -0.444497 0.257327 -0.018269 0.148146 -0.368243 0.149213 0.139992 -0.561567 -0.233328 0.013155 0.456227 -0.406532 -0.392466 -0.582041 0.834335 0.270841 -0.641810 -0.314407 -0.063487 -0.468373 -0.257998 0.136620
87 -0.619355 -0.233170 0.146335 0.248272 -0.303697 -0.302757 -0.273864 -0.132324 0.446987 -0.112460 0.731643 0.495240 -0.613975 0.314943 0.111548 -0.044159 -0.386395 0.251307 0.043089 -0.031702 -0.123888 0.274693 0.107478 0.796594 -0.018588 -0.040027 -0.049813 -0.298521 -0.109102 -0.382962 -0.472520 0.236253 0.751534 0.090870 0.731139 0.385866 -0.076266 0.156759 0.307560 -0.176492 -0.405367 -0.278789 -0.445732 -1.071532 -0.333369 0.171319 -0.381006 -0.279640 0.105579 -0.171052 0.564138 0.471483 0.803211 -0.107962 0.617468 -0.146222 -0.088983 0.090296 -0.085329 0.282596 0.504746 -0.683261 0.290813 -0.324560
97 -0.388270 0.202087 1.002063 -0.059666 0.522019 0.486989 -0.514663 0.700825 -0.248552 0.366349 -0.531182 -0.394936 0.322097 -0.196879 -0.525489 -0.292568 0.242563 0.272183 0.179091 0.114986 0.380576 -0.393915 0.435783 0.352110 0.056046 -0.059054 0.340264 0.453949 -0.423156 -0.602214 -0.092490 0.377437 0.538243 0.619751 -0.004985 -0.482474 -0.308255 -0.003780 0.244135 0.379281 0.107112 0.119256 0.032389 0.080135 -0.508136 -0.037268 -0.491978 0.087551 -0.280046 -0.051172 0.268285 0.271397 0.299809 -0.720031 -0.781085 0.372377 0.030977 -0.339469 0.252228 -0.057117 0.269161 0.547462 0.331039 -0.346992
98 -0.169186 0.456816 0.557799 0.628989 0.110469 0.249835 -1.122129 -0.175747 0.739198 0.502291 0.454368 -0.345894 0.335423 -0.104038 0.027444 0.115645 -0.184459 0.269001 -0.107398 -0.040413 -0.103034 0.278710 0.154349 0.960742 -0.226197 0.341501 -0.097393 0.408533 -0.349241 0.188223 -0.173544 0.573167 -0.723440 -0.118548 -0.202940 0.316418 0.456561 -0.201648 0.497291 0.306185 -0.225800 -0.144518 -0.403978 0.380943 0.623585 0.325202 -0.423160 -0.333967 -0.187872 0.002824 0.177961 0.071649 -0.069720 0.487532 0.053765 0.436582 -0.099202 -0.098685 0.024570 -0.389962 -0.083359 -0.104380 -0.536622 0.525378
89 0.187189 -0.000873 -0.386988 -0.685523 0.094071 -0.081609 -0.452429 0.185639 0.997791 0.104329 0.489380 -0.038831 -0.423357 -0.250055 -0.119077 -0.149206 -0.187236 0.432601 -0.136156 0.052520 0.269984 0.248657 -0.580626 0.030255 -0.575661 0.459502 -0.464511 0.007370 -0.486011 0.083884 0.439989 -0.012041 -0.073676 0.298016 -0.080308 -0.201836 0.065053 -0.555436 0.097173 0.663744 0.282327 -0.241959 -0.364293 -0.324278 -0.217812 -0.717703 0.251323 -0.201217 0.544281 -0.022870 0.141519 0.051710 0.332490 -0.433528 0.097351 -0.031610 -0.177288 -0.302067 -0.475565 0.091314 0.434295 -0.093326 0.124139 0.566355
0 0.151757 -0.359587 -0.037655 0.454146 -0.405849 -0.038118 -0.077688 -0.116614 0.337509 0.588918 0.747003 -0.019136 -0.910307 -0.357728 -0.163896 -0.207729 -0.354164 0.313731 -0.666248 -0.185665 0.173091 0.196837 -0.225187 0.312706 1.105317 -0.135487 0.091411 -0.235312 -0.123277 -0.531688 -0.482502 -0.182987 0.643314 0.703335 0.248477 -0.077625 0.363502 -0.026416 0.411469 -0.300853 -0.072024 0.256684 -0.261710 0.140103 0.055302 0.037676 0.285340 -0.157529 0.633832 -0.003901 0.522734 -0.341457 0.434105 -0.266178 -0.104972 0.225269 0.352812 -0.123747 -0.565395 -0.684563 0.352514 0.266265 -0.177479 -0.087490
10 -0.224259 -0.135799 0.397595 0.122362 -0.107211 0.716177 -0.528079 0.738672 0.321558 -0.431159 0.352919 -0.168882 -0.172779 -0.290806 -0.307234 -0.399190 -0.363074 0.099164 0.105602 0.331753 0.038042 0.465367 0.045335 0.560013 -0.004842 -0.148623 0.047026 0.273791 0.118403 0.345402 0.293843 -0.176563 -0.505449 -0.149341 0.365887 0.127136 0.100181 0.211862 -0.226241 -0.336323 0.246634 -0.328708 -0.577078 -0.562362 0.275818 -0.655459 -0.360528 -0.481623 -0.764801 0.312896 -0.100686 -0.181170 -0.087556 -0.406599 0.061362 0.051414 -0.352193 -0.152189 -0.221508 -0.181044 0.093587 0.145719 0.214983 0.010510
21 -0.352118 -0.217154 0.077064 0.128894 -0.261449 -0.001860 -0.502851 0.358935 -0.356369 0.186438 0.146455 0.268871 -0.102511 -0.118053 -0.938922 0.072082 0.030906 -0.896857 -0.407410 -0.069912 0.450877 -0.060660 -0.016332 0.077443 0.343416 -0.054376 -0.177575 0.330990 -0.193274 -0.638562 -0.500498 -0.608867 0.125179 0.440696 0.344383 -0.101909 -0.142878 -0.141804 0.117163 -0.627626 -0.051646 0.321303 0.293088 0.018878 -0.080940 -0.482815 0.085352 -0.411074 0.320013 -0.255848 -0.116191 0.116740 -1.055821 0.405624 -0.538084 -0.015421 -0.647225 0.112441 -0.182184 -0.361131 0.185692 0.439660 0.535888 -0.350872
17 -0.566412 0.377913 -0.235871 0.495722 -0.379988 0.071623 -0.429906 0.511238 0.404744 -0.103928 0.293183 -0.545783 0.297647 -0.225960 0.248742 -0.238320 -0.623463 0.268149 -0.191487 -0.061610 -0.421967 0.562750 0.021964 -0.056426 0.649824 -0.406178 -0.022684 -0.476802 0.028377 -0.007567 -0.788727 0.454819 -0.309742 -0.192759 0.651751 -0.327118 -0.742449 0.703154 -0.250444 0.315763 -0.055957 0.061564 -0.202372 -0.064182 0.492247 -0.390827 -0.620086 -0.099922 -0.223714 -0.244787 -0.440683 0.039000 -0.131143 -0.557700 -1.012654 0.840524 0.410503 0.459022 -0.489210 -0.032052 0.459964 0.353759 0.329247 -0.567566
22 -0.258183 -0.531676 -0.427183 0.141755 -0.498089 1.078715 -0.014261 -0.179638 -0.284709 0.485970 -0.034442 0.101458 0.576328 0.849572 -0.466952 -0.043155 0.328968 0.244553 -0.505552 -0.054340 0.226352 0.448205 0.337402 -0.270130 0.549294 -0.079537 0.365720 0.358863 0.279463 0.584256 -0.214475 -0.402949 -0.469007 -0.124053 -0.528057 -0.146261 0.522708 -0.143847 0.144457 0.372155 -0.128390 -0.174279 -0.183456 0.207447 -0.139859 0.433142 0.222348 0.264026 -0.025433 0.384005 0.173775 -0.324313 0.206948 -0.826559 -0.232959 -0.011982 0.412182 0.439355 -0.107775 0.072331 0.405521 -0.334873 -0.546578 0.416442
91 0.013681 -0.079386 -0.291527 -0.102231 0.527278 -0.275199 -0.487101 -0.037576 -0.250407 -0.474997 0.301291 -0.319876 0.661930 0.590901 -0.164366 0.645161 0.744125 0.279613 0.008835 0.040243 0.126716 0.028660 0.173343 0.339541 0.670583 -0.564851 0.126177 -0.356698 -0.077498 0.678502 -0.023200 -0.187993 -0.055019 -0.466237 -0.559535 -0.207541 0.069425 0.374037 0.055151 0.506819 -0.221928 -0.100018 0.222677 -0.591598 0.453148 -0.569031 -0.168782 0.122803 0.090077 -0.107845 0.012123 0.264804 -0.527584 0.019638 -0.473742 0.335803 -0.066007 0.606773 0.125541 0.558347 0.262037 -0.156040 -0.293158 -0.284939
99 -0.287246 0.184829 0.043987 -0.152403 -0.057418 0.078158 -0.100831 0.060019 1.130157 0.410626 0.150499 0.692795 -0.348162 -0.503415 0.067551 -0.042553 -1.011195 0.351887 -0.075862 -0.255660 0.001161 0.286416 0.331430 -0.259544 -1.112171 0.381563 -0.124298 0.176093 0.569937 0.361203 -0.979599 0.149235 0.518491 -0.114758 -0.473861 0.712976 0.373556 -0.272643 0.414892 0.195897 0.150944 -0.154354 -0.321037 0.237281 0.571889 0.055739 -0.261581 0.182841 0.827065 -0.337064 0.192589 0.229641 0.730022 0.551561 -0.274548 -0.471017 0.003988 -0.021066 -0.247846 0.012664 -0.712365 0.153273 0.556653 -0.190380
81 0.518256 0.119678 -0.237310 -0.501745 0.256568 0.690578 0.145753 0.068868 0.492601 -0.157445 -0.190379 -0.941048 -0.444679 -0.608999 -0.965004 -0.494553 0.447714 -0.330074 0.128968 0.236347 0.323122 0.004901 0.206754 -0.443205 -0.326269 0.280901 0.012541 -0.149168 -0.177684 -0.103469 0.930861 -0.868945 -0.208937 -0.635136 -0.445450 -0.470236 0.309062 0.246083 0.072363 0.124425 0.199882 0.298275 -0.067938 -0.006250 0.126265 -1.018041 -0.368238 0.293245 -0.115177 0.150642 -0.306596 -0.195831 0.459300 -0.897375 -0.040722 -0.261864 -0.308208 -0.254760 -0.089062 -0.040103 0.174557 0.239189 0.232632 0.559049
72 0.200481 -0.903065 -0.236781 0.696667 -0.024462 0.368107 -0.399192 -0.045244 -0.236263 -0.033124 0.091139 -0.180779 0.251684 0.243453 -0.139409 -0.544792 -0.093395 0.361075 -0.155240 -0.269503 0.369284 -0.016382 -0.100253 -0.339552 0.591624 -0.256568 0.256292 0.013404 -0.083918 0.547658 -0.566227 -0.230693 0.077009 1.084470 -0.386133 -0.564414 0.065858 -1.060752 0.824005 -0.127154 0.033292 -0.102065 0.152659 -0.161435 -0.050051 -0.367359 0.556068 -0.193687 -0.296012 0.272266 0.568265 -0.641567 0.083104 -0.226280 -0.172626 -0.260673 -0.169432 0.089094 0.062784 -0.286061 0.317887 0.104490 0.146114 -0.638904
84 -0.189269 0.418481 -0.192273 0.238092 -0.351099 -0.323648 -0.454961 -0.011417 0.825256 0.168825 0.183472 -0.095150 -0.253423 -0.252083 -0.417137 0.242004 0.045005 0.385081 0.171082 -0.304048 0.205874 -0.036600 0.447619 -0.115493 0.108688 0.238824 -0.398085 0.466573 0.093272 0.104639 -0.825790 0.008815 -0.337559 -0.505045 -0.361260 0.311434 0.280617 0.826754 -0.107688 0.410319 -0.404508 -0.114956 -0.334489 -0.005835 0.469904 -0.063086 0.056993 0.385975 1.097252 -0.403929 0.141466 0.232969 -0.176173 0.266819 -0.468591 0.328728 -0.403376 0.002291 0.009635 -0.350350 0.306451 0.392264 0.018998 0.405112
62 0.141535 -0.521480 -0.664009 0.001849 0.106438 0.245218 0.041300 0.719390 0.482292 0.789879 0.387008 -0.600497 -0.121660 0.449799 -0.602353 -0.291304 -0.439881 0.110592 0.063021 -0.653841 -0.655802 0.237289 0.145330 -0.158802 -0.114286 -0.172671 -0.003345 0.173151 0.188401 0.726894 0.120223 0.051528 -0.297807 0.001504 -0.474256 0.505137 0.711610 0.087898 -0.006822 -0.236440 -0.380986 -0.794627 0.212504 0.060161 0.386576 -0.374231 -0.251071 0.114505 0.183326 -0.206376 -0.472083 0.187625 0.355741 -0.699667 -0.500371 -0.613175 0.428945 0.013447 -0.642403 0.298172 -0.088989 0.157747 0.066371 -0.273057
14 -0.407885 0.477207 0.262807 -0.024966 0.406334 0.397558 -0.514672 0.254510 0.044881 -0.041770 0.866658 -0.051329 -0.277269 -0.379921 0.248252 0.163650 0.543204 0.538627 -0.837668 0.436307 0.320931 0.810523 0.091546 0.349519 -0.004166 0.249096 0.137602 0.337445 0.152625 0.881284 -0.500259 0.451510 -0.287244 -0.558191 -0.145941 0.401589 -0.198430 -0.207168 0.358987 0.675841 0.125300 0.168127 -0.122835 0.016277 0.643699 0.480133 0.110191 -0.461274 0.109621 -0.164720 -0.093411 0.261871 -0.404918 0.452397 -0.663747 1.274723 -0.406367 0.185783 0.162925 -0.050131 -0.334942 0.089219 -0.313736 0.808528
73 -0.369932 -0.562467 -0.343524 0.398431 -0.013600 -0.136508 -0.721766 0.109743 0.891668 0.435622 -0.194438 0.064441 0.332816 -0.796528 -0.386966 0.114417 0.037372 -0.341725 -0.124422 0.133296 0.033995 0.216839 -0.628073 -0.315342 0.089755 -0.212584 -0.319487 -0.117412 -0.346950 0.794255 0.082496 0.174649 -0.583204 -0.368081 -0.382752 0.334554 -0.087087 -0.166082 0.537349 -0.478887 -0.242092 -0.851315 -0.202272 0.075344 0.323957 0.289937 0.241779 -0.369694 0.085124 -0.221611 -0.485579 -0.229262 -0.155828 -0.067075 -0.163472 0.224483 1.041451 0.045013 -0.751090 0.524598 0.458165 0.139002 -0.520598 0.569196
28 -1.195841 -0.077700 0.198844 0.220143 0.022011 0.384769 -0.869118 -0.316982 -0.291985 -0.307281 0.255384 -0.032176 -0.256668 0.439172 -0.032806 0.340453 -0.104348 -0.187433 0.039159 0.788696 -0.104692 0.206852 -0.150244 0.328093 -0.025848 -0.203731 0.189297 -0.413866 -0.471212 0.439178 -0.077523 0.013983 0.375471 0.080245 1.030341 0.213534 -0.238980 0.418293 0.588860 0.143843 -0.087350 0.277867 0.165287 -0.845109 -0.669772 0.072332 0.402960 -0.755434 -0.704497 -0.340262 -0.193444 0.527098 -0.181973 -0.001299 -0.734548 0.335350 -0.223379 0.032211 -0.161957 -0.132958 0.168431 -0.632149 0.262628 0.384966
13 -0.306889 -0.209412 -0.160712 0.261122 -0.481277 -0.036823 -0.642783 0.467530 -0.563042 1.361775 -0.113488 -0.408799 -0.130640 0.555055 -0.106612 -0.100348 0.028612 0.316216 0.237861 -0.520038 0.010802 -0.201132 0.525669 0.183869 0.258815 -0.145992 0.815062 0.589622 0.305463 0.645924 -0.080688 0.835655 0.698527 0.474383 0.864933 -0.098505 0.002532 -0.010006 0.349957 0.712720 -0.132612 0.078718 -0.226190 -0.301491 -0.201331 -0.308116 0.701579 -0.038400 0.442821 -0.497887 -0.499078 0.399572 -0.353033 0.194890 0.168916 0.375571 -0.038053 0.321477 -0.492710 -0.294988 -0.045134 -0.010715 0.883232 0.396346
67 -0.230157 -0.559921 0.392463 -0.724081 0.246027 0.374500 0.148108 -0.521414 -0.533419 0.258476 -0.843845 0.315435 -0.189735 0.174464 -0.684577 -0.634914 -0.049519 -0.102617 -0.284044 0.652011 -0.105531 -0.178900 -0.050074 -0.409631 -0.154281 0.430404 0.396419 -0.065906 -0.273396 0.366015 0.509849 -0.897281 -0.332583 -0.721532 -0.295692 0.318155 0.585239 0.040021 0.848520 0.081326 -0.027299 -0.097801 -0.766992 -0.292358 0.276978 -0.392268 0.158508 -0.757688 -0.455428 0.715878 0.655509 -0.220501 0.030355 0.121286 -0.442462 -0.232262 0.209855 0.817489 0.414632 0.370596 -0.122017 -0.178994 0.226052 -0.040349
32 -0.147905 -0.804755 -0.800750 0.186259 0.676329 0.740815 -1.246943 -0.240728 0.175726 0.444173 -0.202583 -0.452697 -0.162857 0.540771 -0.450137 0.281860 0.363052 0.427071 0.371973 -0.377201 -0.000179 -0.041943 0.631130 0.221247 0.074303 -0.722087 0.309221 0.332060 0.142484 -0.154798 0.425534 -0.101477 -0.027442 0.210971 0.149071 0.381488 -0.046296 -0.511890 0.667423 0.457335 -0.445353 0.258632 -0.025521 0.705133 -0.078002 0.041976 0.459772 0.112288 0.406662 -0.022298 -0.373110 -0.861933 0.245554 -0.157117 -0.636463 -0.795792 -0.204802 0.181121 -0.499926 -0.622072 0.332229 -0.977389 -0.319317 0.648673
