100 64
1 0.18710527 -0.38431358 -0.08987577 -0.21790826 -0.2730477 0.033854667 0.39573705 -0.092029795 0.13944854 0.0922205 -0.13308203 0.33805332 -0.07706552 -0.006505589 -0.121392585 0.3714756 -0.13730831 0.46364108 -0.3668238 0.20823005 -0.41328028 0.16462554 0.010058561 0.12121788 -0.50741893 0.13406126 0.1289174 0.39636084 -0.43813503 -0.06276263 0.19658086 -0.30985373 -0.27304593 0.17178805 0.03106678 -0.2545738 0.2951052 0.4097079 -0.2291212 -0.17113926 0.2938737 0.39324293 0.4860387 0.14026025 0.1549132 -0.5051994 0.3042959 -0.059356313 0.33701822 -0.27135733 -0.24861391 -0.49579975 0.19973868 -0.09564181 0.14811356 -0.14381649 -0.14794502 -0.046997204 -0.2973531 -0.30255207 -0.20175128 -0.27548093 0.21963277 -0.42839593
87 -0.21845746 -0.20544294 -0.29289886 -0.2947782 -0.14370458 0.14207701 0.49790484 0.0141217215 0.45948187 0.10160132 -0.0926035 0.32137 0.2738851 0.3316952 -0.1367866 0.42810005 0.06267804 0.47018003 0.033462632 0.6182103 -0.62828046 0.22996554 0.29273757 0.32004175 0.25269774 -0.23917136 -0.115930125 0.25748652 -0.11596555 0.5923683 0.013970551 -0.3309434 0.67409736 0.3901188 0.13988192 0.24155344 -0.12337472 -0.016680248 -0.96445525 0.014001236 0.2894608 0.0935301 0.44135955 -0.24411123 0.3646383 0.21514337 -0.2961884 0.4681262 0.1368309 -0.15070176 -0.08079902 0.44047588 0.011051973 0.21870078 -0.2739861 -0.06321942 0.026435073 -0.39985147 -0.2078213 0.231964 -0.722928 0.026802886 0.66410804 -0.2724646
79 0.6894762 -0.17392689 0.07604235 0.10978631 -0.005668356 -0.046814382 0.0024138358 0.066696905 -0.5679247 0.17894019 0.25977156 -0.42481405 -0.07163473 0.1584976 -0.74525416 -0.31469223 0.04764525 -0.4213609 0.14342664 0.046510078 -0.18084632 -0.2664975 -0.012000662 0.3628632 -0.112924024 -0.72634673 -0.12047078 0.30018985 0.30701602 0.25811937 0.022650398 -0.22899391 0.006367356 -0.088157974 -0.023067527 -0.58588517 -0.2611179 -0.3390235 0.04083371 0.17713115 -0.38901266 0.05550646 0.06750361 0.0025588446 0.16747835 -0.27190498 -0.3245713 -0.024154186 -0.14744242 -0.4619908 -0.005251778 0.08309402 -0.61504656 0.054200564 0.4172497 -0.22075786 -0.36790973 -0.6008535 -0.4286349 -0.06860082 0.1898389 -0.5613352 0.18006262 -0.22663343
19 0.0031940157 0.15435426 0.057647265 0.40651584 -0.25314337 -0.6167436 0.23233278 0.4359121 0.043341976 -0.16888449 0.39416772 -0.081012435 0.4477052 0.2783979 -0.587595 0.2545511 -0.6461905 0.24436796 0.36734787 0.4495775 -0.5760927 -0.079397246 0.53689504 -0.07304411 0.50056815 -0.066656604 0.065132625 -0.17615595 -0.11624281 -0.28963235 0.28299165 -0.11391972 0.063944794 0.7263146 0.45250586 0.36540413 0.056338146 0.14517677 -0.60445386 0.19465306 -0.10935774 0.020886807 -0.059909552 -0.29301366 0.32959214 0.034561787 -0.30010107 -0.018738491 -0.049155816 -0.19385548 -0.028254582 0.0297685 0.3965302 0.30101132 -0.42071977 -0.18516526 -0.0011836581 0.016748616 0.2580292 0.28587338 -0.34164304 0.05796014 0.14000739 0.18291542
33 -0.1862576 0.14622222 0.04044785 -0.26989383 0.02981582 0.35366383 0.2393638 0.516306 -0.011217677 -0.3514416 0.23328167 0.07593272 -0.34273753 0.00085649337 -0.06836941 -0.178369 -0.4486045 0.111290865 0.7107424 -0.14773194 -0.05842536 -0.18769139 -0.49186012 0.03497105 0.41172022 -0.08564035 -0.22266504 0.024390757 -0.38619393 0.049835563 -0.2698907 0.5961235 0.43028986 0.47785217 0.34787455 -0.22607988 -0.18909034 -0.95237726 -0.29946208 0.32837668 -0.55670244 -0.39574578 0.00752033 -0.45571467 -0.12751886 0.32578373 -0.017223803 -0.23021692 0.1734008 -0.10626559 -0.023234198 -0.4933964 0.2534848 0.48333636 -0.019927457 -0.21159793 0.36762762 -0.02702752 0.021092894 -0.29288307 0.18627115 -0.06835062 0.1800667 -0.5261108
2 -0.22797553 -0.14690751 0.14364271 0.05832965 0.18463072 0.17794444 -0.10945493 -0.14593643 0.3839855 -0.1479703 -0.17184758 -0.1509322 -0.3442427 0.31245258 -0.10748739 0.19600369 -0.008852833 0.14602022 -0.70146734 -0.2244272 -0.08820351 0.15374655 -0.5203692 0.08318463 -0.15407543 0.13995412 -0.051682264 0.58818614 -0.08229047 0.31260118 0.03916852 -0.29615498 0.3707129 0.09525679 -0.009365383 -0.40533853 -0.26139495 -0.06286201 -0.17003661 -0.10297811 0.010033799 0.36118254 -0.100599125 -0.2346315 0.39169678 0.25067836 -0.012028072 -0.14724587 -0.27607056 -0.11393239 0.302316 0.47185683 0.26174143 -0.18010144 -0.22477208 -0.26611835 0.09733562 -0.049649093 -0.58096784 -0.1406836 -0.12966083 -0.20119113 0.04372359 -0.24611911
95 -0.03397119 0.023920387 0.03095506 -0.07676269 0.49060497 -0.20952806 0.08183658 0.19170874 0.036113083 0.011113293 0.31506613 -0.090168685 -0.29756683 0.40093294 0.19085272 0.4415409 -0.3245315 0.16825415 -0.29734293 -0.22769882 -0.092675194 -0.30697995 -0.020250093 -0.2884196 -0.10276378 0.10111841 -0.06151589 0.3631989 0.035750225 -0.16103898 0.08023174 0.36967972 -0.21471786 0.393326 0.39879283 -0.04917854 0.3221517 -0.0853806 0.093009844 -0.07601687 -0.024450617 0.033708103 0.15294324 -0.1950512 0.18637827 0.036307596 0.24618824 -0.6896396 -0.008926291 -0.26434433 0.25888923 -0.40998283 -0.07077048 0.00050909864 0.19091028 -0.3420634 0.21356428 0.048906796 -0.13682118 -0.0042893863 -0.2287503 -0.15893912 -0.13259487 -0.3010905
39 0.15121382 0.61971825 0.09644034 0.3152455 0.24505547 -0.3724679 -0.17964579 0.31890604 0.06045656 -0.5349759 -0.11304413 -0.0047324533 -0.12572645 -0.12363611 -0.19638774 -0.0494737 -0.085950464 -0.09045252 -0.5393038 -0.16818263 -0.054403573 -0.43505675 0.5825066 0.27066576 -0.14163762 0.22405782 -0.45197022 -0.21846953 -0.19793892 -0.50546986 0.083167665 -0.48213738 0.32312715 -0.034814756 0.050864365 0.2828531 -0.24975125 -0.26118323 -0.46280915 -0.34108284 0.04474653 -0.15088624 -0.102776885 0.054171417 0.30095726 0.14206433 -0.5433376 -0.41580328 -0.006809437 -0.07026223 0.32610068 0.42607304 0.2773848 -0.2406761 -0.56973547 0.16027895 -0.050445702 0.4046428 0.13940331 -0.49838609 -0.17753851 -0.7398991 0.3150179 0.21409784
28 0.25693983 -0.14003241 0.15510803 0.017741872 0.13050057 -0.6354406 -0.04486564 0.020388093 -0.39483196 -0.25508848 -0.3317838 -0.1400826 -0.09667244 0.4922132 -0.02800067 0.38255814 -0.10732685 -0.32886016 0.39765438 -0.4035959 -0.44839814 -0.4582672 0.28349638 -0.012671767 0.4251217 -0.28070545 -0.07175149 -0.02685422 -0.015404605 0.12613349 0.17804219 -0.12623641 0.4082148 -0.09087352 0.3716833 0.4923477 0.04863141 -0.38014153 -0.43494648 -0.5889751 -0.2705818 -0.53971994 0.044623945 -0.46120456 -0.13557819 0.1149439 -0.61240774 -0.41989705 -0.38862652 -0.081924856 -0.033520777 -0.20573136 -0.28891933 -0.36593586 -0.08557673 -0.39472872 0.29577103 -0.16151209 -0.21342349 -0.29587004 0.2744526 -0.47900584 0.1990461 -0.0792819
81 0.36477673 0.15749049 -0.47308782 0.56380796 0.19475071 -0.7966283 0.77904636 0.05872839 -0.050405484 0.016527154 0.31791225 0.11119542 -0.528296 -0.22818333 -0.22462274 -0.34839156 -0.11605167 0.56647635 0.2322419 0.25788498 0.105136625 0.0070673465 0.19069755 -0.041223183 -0.5445923 0.3590599 -0.063269936 0.34758446 0.18341805 -0.7145328 0.44019336 -0.13698785 -0.60100305 -0.4097779 0.27089992 -0.39486834 0.66015047 0.48275357 0.361396 -0.116630346 0.09412077 0.23331814 -0.14439087 -0.34203973 -0.47657713 -0.27180237 0.24477975 -0.46313125 0.30672178 0.018523112 -0.2760593 -0.2884765 -0.1836075 0.08553595 0.009560814 -0.30385846 -0.23961474 0.63771284 0.12824398 -0.23205578 -0.18421437 0.0012396321 -0.38176754 -0.17942595
99 -0.28203484 -0.22020239 -0.22017673 -0.1632707 -0.14431313 0.22180194 0.3013665 -0.017509876 -0.18102114 0.2855236 0.07600013 0.14169173 -0.24315512 -0.014115425 0.27566478 -0.41504714 -0.071530096 0.52543944 0.25937444 -0.012103073 0.35763994 -0.8374069 0.054069567 0.3039849 -0.15950444 0.011217743 -0.05460949 0.64910394 -0.6329237 -0.5996527 -0.34462878 0.21396025 0.44777152 0.13889004 0.1907866 0.06915766 -0.029538747 -0.18856816 -0.22846876 -0.07350944 0.09105764 0.2896714 -0.061171357 -0.24955091 -0.21579626 0.29551584 0.030570742 -0.58761865 -0.18685398 0.2443352 -0.2443757 -0.24156532 0.36180174 0.30802956 0.03822791 -0.62340724 -0.06639305 0.331964 -0.11909336 0.028679103 0.06326729 0.10239797 0.63396907 -0.082862206
23 0.0021658384 0.39760646 0.1342081 -0.2600994 0.36652452 0.15575872 -0.18331647 -0.115079254 -0.4439327 -0.73683935 0.1146412 -0.37177634 0.08163608 -0.36821276 -0.5587632 0.055424303 -0.2362121 0.021989645 -0.09846744 -0.10171498 0.14295419 0.41777837 -0.5143871 0.30442178 0.16314213 -0.32244694 0.49174064 -0.20630205 -0.10019776 0.90253437 0.2580313 -0.84756225 -0.22202821 -0.6306503 -0.2199577 -0.055295005 0.593806 0.16636133 -0.06849415 -0.045854155 0.000912638 0.11317164 0.07576745 -0.62535495 0.27538744 -0.07809018 -0.40791845 0.16666566 -0.2644756 -0.6202683 0.30835682 -0.4451507 0.26350522 -0.016181907 0.69564015 -0.3502417 -0.2808269 0.4789168 0.07376242 -0.28911027 -0.041203085 -0.9270651 0.09479323 -0.65199
83 -0.040450506 0.05253094 -0.5330494 0.073069274 -0.50215954 0.30283612 0.3194897 0.4945984 -0.5749383 0.25563926 0.04032854 -0.09576375 -0.15009497 -0.78137285 -0.11971737 -0.4308992 -0.37126568 0.07418824 -0.1729482 0.5904543 0.21073008 -0.46684894 -0.24002083 0.6297651 -0.040606953 0.57742107 -0.04207054 0.15788582 -0.49190038 -0.29465395 0.43247187 -0.9240278 0.37594414 -0.123087294 0.010679685 -0.00021989927 0.03316837 0.715758 -0.29378232 -0.5190359 -0.43238717 0.37745562 -0.5159845 0.104291975 0.37296438 -0.24008627 0.04310892 0.37176222 -0.1873205 0.06256513 -0.1641726 0.51542246 0.4188824 0.31263596 -0.22336708 -0.06584526 -0.22412153 0.6466432 0.50937605 -0.33218896 0.3059608 -0.041654125 0.06022679 -0.07760913
30 0.5736714 0.5701443 -0.17454821 0.30463937 0.28363207 -0.118221804 -0.1409877 0.035043523 0.049575124 -0.18753886 -0.36086988 0.15314397 -0.0994769 -0.05760936 -0.3296638 0.34115198 -0.1661135 0.27557424 -0.050503522 -0.04910998 -0.51139015 0.43116182 -0.10285064 -0.12521657 0.2962373 0.7098251 -0.32694235 -0.20025207 0.41718543 0.37357602 -0.23158078 -0.20424283 -0.51615685 0.038055554 0.09844635 -0.59684485 0.37118846 0.021284733 -0.07884523 0.037967533 -0.09680966 -0.062044732 0.19050777 -0.19858254 -0.033743933 -0.23344032 -0.06126932 0.16508195 0.458449 -0.35351348 0.1798043 -0.106537744 -0.473425 -0.20513093 -0.24251856 -0.017345406 -0.20957896 -0.06344198 0.015750762 -0.07776567 -0.09932877 -0.4482059 -0.079903476 -0.825084
40 0.057082787 0.25381956 0.58842075 0.05418168 -0.4073578 -0.2314232 0.27069682 -0.29413572 -0.3245519 0.3704107 -0.029420996 -0.1983819 0.21431239 -0.035014175 -0.5767508 -0.17818362 -0.58954203 -0.124540836 -0.30120695 -0.22840343 -0.12991785 -0.29286546 0.011655449 0.33546528 -0.2987716 -0.47548363 -0.33502585 0.37007642 -0.3563003 -0.05367418 -0.03419753 -0.28577793 -0.30315638 0.4386215 0.34265777 -0.24854086 -0.31329378 0.49816057 -0.4784645 0.20642537 -0.22819977 0.25792032 -0.16088024 -0.095328994 0.5076553 -0.3074818 -0.2565712 -0.24323888 -0.29220688 -0.105303735 -0.11088729 -0.14507413 -0.024736516 -0.97575754 0.22171392 -0.39305368 -0.35235015 -0.4315743 -0.2739846 0.72382206 -0.0685921 0.24637915 0.22970177 0.4166124
7 0.020619968 0.378154 0.060171902 0.3168804 0.062608324 -0.53742427 0.37244102 -0.14123085 0.023595208 -0.10607704 -0.12618485 0.129069 0.13787064 -0.07068643 -0.0006542051 -0.2638733 -0.43968508 0.48349252 -0.0103548365 0.12647666 0.16854925 -0.30106354 -0.14237243 -0.39524046 0.4368083 0.45478734 0.35819432 0.07170233 0.14824153 -0.46046504 0.39746863 -0.37943012 -0.56953335 0.1074445 -0.16278015 -0.9804844 -0.10934149 0.26277298 -0.039174706 -0.0574162 0.10374856 -0.06460141 -0.35255814 -0.17271997 0.3070877 0.21725297 -0.10391955 0.13424672 -0.043739874 0.09089139 -0.3210294 0.036879603 -0.45082366 0.0035772654 -0.35619563 -0.27920562 -0.8333432 0.4349201 0.18755838 0.20113723 -0.0790084 -0.076370746 0.020508608 -0.03580634
57 0.18844202 -0.549297 0.2819757 -0.2542655 -0.2151711 -0.25383618 0.43597206 -0.16772537 0.12473232 -0.16566424 0.1441647 0.15994568 -0.17506568 0.338488 -0.10851172 0.095308565 -0.23529762 0.53529865 0.06727143 0.4256262 0.006714923 0.0643349 -0.07970511 0.10879932 0.15665807 -0.4000126 -0.2980373 0.27666137 -0.03559958 -0.20087421 -0.01426808 -0.22500315 0.39077818 0.36085704 -0.3670052 -0.14424196 -0.43789917 -0.4055139 -0.4787402 -0.08540356 0.039004166 0.09477738 -0.020459928 0.51995254 0.13003753 0.53056407 -0.020090818 -0.30962285 0.109280676 -0.33302075 -0.4921804 -0.20578246 0.054673824 -0.3683185 -0.21623611 0.18192138 -0.2141686 -0.27152443 0.17427726 -0.49091607 0.04515205 -0.018973121 0.50010353 -0.043311395
48 0.17550923 0.5543961 -0.24580143 0.13794853 0.4694897 -0.047827855 0.0653447 -0.02103052 0.1530785 0.14037298 0.32387114 -0.085486956 0.15231468 -0.043342285 -0.13581666 -0.100510135 -0.27667558 0.021317264 0.14515422 0.018998535 -0.0859152 -0.35993543 -0.05359394 -0.02977984 0.68797904 -0.08266654 0.7279429 -0.2842354 0.10458949 -0.34033018 0.2633944 -0.08402653 0.45961076 -0.24991451 0.20437934 -0.108221106 0.6782263 0.081592605 -0.1780285 -0.24223141 0.2894853 -0.026159225 0.15205842 -0.7008319 0.22882 0.54378694 -0.099208206 -0.12943535 -0.18208623 -0.42516845 -0.043304417 -0.6257527 0.09678817 0.65732354 0.39084184 -0.0028516226 -0.007755119 0.19759981 -0.400407 0.062265508 0.08218348 -0.48663247 0.20106243 -0.5354622
38 -0.28955263 -0.2176776 -0.5583495 -0.12325841 0.7629896 -0.39423215 0.5767739 -0.1707558 -0.7073663 0.5540623 -0.0015439045 0.0675183 0.09463523 0.5337452 -0.20417531 -0.22811475 -0.06488381 -0.16603535 0.19756697 0.17337768 0.41049823 -0.4482418 0.34780067 0.1794938 0.33225688 0.024937853 -0.05780869 0.7584608 0.05878758 -0.15438108 0.13500734 -0.32707164 0.5316502 -0.100705095 -0.15289089 0.20894158 -0.014738039 0.3175416 -0.058320235 -0.38302544 0.5914135 -0.26260108 -0.244009 -0.2290675 0.36715493 -0.122866854 -0.14824012 -0.4344376 0.26263505 0.16782396 -0.114051804 0.2100436 -0.38781428 0.09982347 0.39913934 -0.5677319 0.44339004 -0.009941256 0.050897196 -0.33062112 0.1820869 -0.16872664 -0.078174196 -0.08217741
20 -0.3189829 0.02255174 0.045786224 -0.11641857 0.8824051 -0.25238526 0.27328914 -0.3337913 -0.057302047 -0.7186915 0.03742015 -0.15038417 0.09900214 0.35411236 -0.058785915 0.1035003 -0.09917854 -0.06416819 0.2114846 0.6558552 0.47603983 0.4165123 -0.22318152 0.35862905 -0.15808241 -0.3958059 0.048728224 0.28189126 0.23296201 0.41023248 0.4136472 -0.56787604 0.4434895 -0.10465175 -0.24057758 0.002719063 -0.40331876 -0.20150898 -0.17561124 -0.34239665 0.007049036 -0.30205044 -0.65733796 -0.03152662 0.3778943 -0.23325461 -0.41946194 -0.28958693 0.3116362 -0.39413115 -0.17703223 0.06804549 -0.13849136 0.02845764 -0.29681745 -0.17153597 -0.013163095 0.23931602 0.4504978 -0.42887953 -0.28848827 -0.517715 0.021483853 -0.16672146
52 -0.08806931 0.47303352 -0.056177665 0.21695904 -0.2349016 0.10447706 0.31812897 0.5273579 0.40752277 0.18336621 0.19916764 0.20077012 -0.3257845 -0.40199175 -0.5438609 -0.19946155 -0.07463861 0.13337982 -0.4893337 -0.39514244 0.028540732 -0.014175773 -0.44667605 -0.46173066 -0.018886024 0.46610874 0.2404817 0.07798479 -0.18041918 -0.13307227 0.6015686 0.17242542 -0.09360771 0.2656884 0.21178344 -0.57195765 -0.023459582 -0.12436262 -0.3727072 -0.05393082 -0.10128809 0.033334676 -0.34769422 -0.1909794 0.4026751 0.60371065 -0.14010318 0.47891602 -0.18422666 0.10860208 0.20013276 0.56490034 0.022809288 0.11051567 -0.40022185 -0.2834139 -0.24482743 0.55585486 -0.24829124 -0.24166496 -0.1582345 -0.3249376 0.13133796 -0.3649488
73 0.2146653 0.51588845 -0.051038954 0.230006 0.69090676 0.20934972 0.46780178 -0.69324625 0.053846408 0.14069185 -0.14515923 -0.16391861 -0.14937991 -0.10948483 -0.121058434 -0.86012834 -0.04509597 -0.070970796 -0.030564304 -0.7857842 0.5241606 -0.49298188 -0.2922372 0.3716471 0.074273854 -0.46785662 -0.08297733 0.36817783 0.2213285 0.052326694 -0.49317497 0.1609303 0.30675897 -0.082006276 0.34526774 -0.47132108 -0.006098374 0.08600536 -0.074640326 0.117479645 0.35241887 -0.14400132 -0.48569188 -0.4819233 0.08893809 0.5845272 0.113571234 -0.5532666 -0.02711417 0.2219592 0.11336369 0.14765349 -0.23151504 -0.11717723 -0.022845322 -0.44928634 -0.20757584 0.46783283 -0.08230084 0.23568466 0.20648028 -0.11819762 0.10215144 -0.16292477
49 0.3687853 -0.31184962 0.39329144 -0.2449277 -0.35216853 -0.42397863 -0.06305904 -0.07791636 0.21370049 0.3310062 -0.15881357 0.27773824 -0.51681787 -0.029812679 0.74126506 -0.5193395 -0.23448111 -0.21136276 0.13139442 -0.10023949 0.036511272 -0.3923079 0.2527201 0.09387967 -0.1612148 0.1896052 -0.013055958 0.40612456 -0.08731114 -0.42291528 -0.6288957 -0.40432397 0.28287172 0.6701768 0.37532762 -0.6601699 -0.25368756 0.09389674 -0.16871516 -0.6290242 -0.4830146 0.43924353 0.39499116 0.1401486 -0.021111166 -0.45168167 0.57930946 -0.28136566 -0.1606188 0.23277001 0.017109936 0.39769778 -0.49445727 0.31647652 -0.43744826 -0.7631538 0.3162413 -0.106689095 -0.5239698 0.2792704 0.246559 0.24224673 0.20360284 -0.09313649
74 0.10629812 0.3724381 -0.29799944 0.23833482 0.1794116 -0.022791905 0.5706722 -0.35417184 -0.19758055 -0.36541057 0.05084797 -0.223514 0.24961498 0.24765618 -0.6709404 0.046341006 -0.025108732 -0.17239891 -0.04716777 -0.39239174 -0.16481498 -0.048084643 -0.34947595 0.47563398 0.051406335 -0.5709389 0.15064098 0.1504875 -0.2213665 0.090074636 0.15484096 -0.33905226 -0.220661 -0.31021488 0.1678722 0.12642224 0.373585 0.44294265 -0.01740793 0.06107653 0.69755095 -0.11956993 -0.083125964 -0.81428087 0.5751616 -0.038238138 -0.010962657 -0.4025921 0.1507128 -0.011473031 -0.029290108 -0.595062 0.11731328 -0.31945515 0.5981669 -0.426215 0.08275569 0.06735713 -0.48063156 -0.49127468 -0.292583 -0.86820406 -0.07392064 -0.022295816
56 0.23705225 0.30066678 -0.5588363 0.13512531 -0.7394014 -0.11286227 0.45670298 0.40076274 0.04244422 0.37415537 0.1793727 0.20165256 0.029846776 0.059983864 -0.12890765 -0.28468364 -0.22902323 -0.18128562 0.15033133 0.016494483 -0.41081268 -0.4080175 -0.6519445 -0.35691625 0.303432 0.035692643 0.21030554 -0.14189693 -0.24190049 -0.28784296 0.52429 -0.6527674 -0.25601065 0.3869152 0.112682305 -0.38168803 0.09912992 0.16709374 -0.19018008 0.45112294 0.40709928 -0.04293415 -0.38612056 -0.08157794 -0.42906466 0.12051982 -0.18375094 0.24937065 -0.13948701 -0.63796204 -0.5830395 0.50039893 -0.15771867 0.033275686 0.2874991 0.13275547 0.35633388 -0.2029762 0.1345907 -0.09109456 0.20763092 -0.4488698 0.41508126 -0.1925938
8 0.43509322 -0.15507345 0.3314524 0.28240556 0.03347073 0.2808771 -0.23883407 0.17178978 0.31305614 -0.33644497 0.6004948 -0.3960309 -0.59420496 0.0008879436 -0.05517346 -0.21594156 -0.4101775 0.5122237 -0.2692706 -0.13178454 0.08114275 -0.0014411892 -0.28690422 0.25954157 0.17815772 -0.03984294 -0.017888784 -0.11601413 -0.43946174 -0.93931997 -0.39133155 -0.49943414 0.19803333 0.41766238 0.2924695 -0.041536044 0.54900616 0.23758289 -0.13307616 -0.3049915 0.42659977 0.5345977 0.45989257 -0.13100265 0.23076795 -0.40208235 0.6471799 -0.5251125 -0.3684959 -0.24445768 -0.12115138 -0.3043405 -0.0054777074 0.5383423 0.30577815 -0.19840725 -0.2273263 0.2402768 -0.98292977 0.43398622 -0.074195385 -0.09350584 -0.15937659 -0.25137264
41 0.15571563 0.42497817 -0.45940787 0.30298638 -0.27240276 0.49758944 0.49542385 0.07975434 -0.29974148 0.8331059 0.023953293 0.031454585 0.1453711 -0.0025895226 -0.26750565 -0.52744955 -0.46371654 0.27355844 -0.15395774 0.028288614 0.078110255 -0.30776915 -0.28785393 0.26538402 0.83519655 0.36041507 -0.35067874 0.22010039 -0.16935322 0.25127482 -0.5302127 -0.23416683 0.3645142 0.1724703 0.041817028 0.31118166 -0.044990137 0.17732888 -0.3508824 -0.05541285 0.28180388 0.16588716 -0.577249 0.008928385 0.74601823 0.70343626 0.3066922 0.24330176 0.08719447 0.39359438 0.27194062 0.6389615 -0.22684094 -0.099564575 -0.27059823 -0.46342406 0.11917297 0.20048158 0.27482435 -0.36156777 0.01776215 0.059586085 0.14874072 -0.20178798
22 0.15130645 -0.33232564 -0.042772673 -0.022665419 0.09951214 0.3228672 -0.23547944 -0.06647817 0.13956876 0.16451594 0.33179983 -0.017254015 -0.8277426 0.0065093753 -0.019715685 -0.14439982 -0.06901043 0.0016035589 -0.35290346 0.30549055 0.049309023 -0.3445756 0.15396182 0.04148521 -0.19473986 -0.221162 0.45374128 0.5552898 -0.10284596 0.37981835 0.24045305 -0.3486111 1.0006596 -0.113341585 -0.18437548 0.113081634 -0.24330997 -0.38517302 0.12792043 -0.20579928 0.48386952 0.19389369 0.31499282 0.1834452 0.3472407 -0.050630577 -0.1733824 0.053853493 -0.19059238 -0.5936348 0.01315019 0.3859706 -0.15552898 0.72425586 0.48040223 -0.13029934 0.28010148 0.23171052 0.08084983 -0.48512325 -0.010920461 -0.39978006 -0.085624404 -0.4736108
16 0.781946 -0.27009508 0.07759451 0.36634666 0.45689905 -0.1653198 -0.06484974 -0.16704643 0.44508743 0.22496496 0.56655246 -0.301461 -0.07823349 0.20871814 0.07900614 -0.09678116 -0.3876407 0.95870614 -0.6279284 0.05491349 0.3413956 -0.08222235 -0.034667004 -0.06250173 0.05283767 -0.35573122 0.19981311 0.14573199 -0.07549325 -0.6552191 -0.32014418 0.13007817 -0.15378448 0.6287651 0.28833035 -0.81335855 -0.26394817 -0.26182282 0.0054828757 0.26790905 0.312791 0.5037002 0.25025004 0.29474974 0.37931088 0.517021 -0.19180913 -0.23979294 -0.47457072 -0.5948337 0.6731537 -0.23670474 -0.3751895 0.21754065 -0.33876282 -0.08194106 -0.71562314 -0.5355078 -0.5229017 -0.08786126 0.11206199 0.19913372 -0.12019165 -0.2920716
59 -0.20639879 0.13315402 -0.55128336 -0.12061481 0.29689908 -0.22179554 0.25913668 0.09328345 0.02177504 0.05220681 -0.38528597 0.51699334 -0.19417073 -0.154182 -0.0661068 0.7347255 -0.30956602 0.61325246 0.28091288 0.02201072 -0.12815511 0.23108813 -0.077029884 0.54346377 -0.16846873 0.38263196 0.09826316 0.37598583 -0.7718582 -0.13016665 0.56319004 -0.48690954 0.34562308 0.051784102 0.537035 0.09262912 0.5035489 -0.34325698 -0.013360863 -0.45591593 -0.047392115 -0.034754477 -0.009352353 -0.60449064 0.21768008 -0.17655487 -0.15911219 0.006544145 0.2414177 0.22767276 0.41755116 -0.798031 -0.031083755 0.152449 -0.03206457 -0.1279929 0.12727953 0.14016263 -0.12168125 -0.50170285 -0.061801292 0.24163423 -0.60108566 -0.3273024
46 0.11742468 0.31783244 -0.514643 0.037108105 0.37636068 0.29235002 -0.008296266 0.044622794 -0.023844322 0.4761365 -0.17541917 -0.21354255 0.11648844 0.52856416 -0.057819214 0.20611747 0.38926142 -0.30961052 0.13709152 0.18591815 -0.43265712 -0.23688252 0.29056627 -0.27975357 0.24030837 0.2653782 0.058273204 0.75852436 0.41403013 0.19869494 -0.3385627 0.41012204 0.5890987 -0.10195922 0.21065582 0.11587867 0.3782551 0.25708005 -0.51158863 -0.6309981 -0.45899633 0.041074984 -0.09947222 0.22516572 0.43950197 -0.37858352 -0.1353837 -0.26282838 -0.052589905 -0.26168364 0.5013308 -0.31958798 0.03324619 0.058262415 -0.20982517 -0.3059152 0.13340816 -0.33547533 -0.47704518 -0.40634757 0.40836638 -0.84641737 0.6419909 -0.6070621
45 0.41319266 0.7105706 0.42407066 -0.29432058 -0.117202416 -0.3369991 0.025501883 0.41693708 0.070701644 0.39320657 0.46144095 0.15198293 0.18857506 -0.096879825 -0.19185257 -0.4346368 -0.28138423 -0.1900668 0.17702018 0.042432312 0.28978336 -0.5906574 0.27211237 -0.1114842 -0.3399867 -0.058257073 0.026529614 -0.023946818 0.13918224 -0.38608864 -0.03637414 0.23780394 -0.17068042 0.46948773 0.014316636 -0.29860756 0.2768819 -0.22369045 -0.7829502 -0.24506597 -0.6979171 0.3261403 -0.15183187 0.48710784 0.15619184 -0.16906029 -0.4267133 -0.07985413 0.17642032 -0.09085904 -0.16502048 -0.5224988 -0.05333378 0.38400233 0.019573078 -0.19048211 0.11943857 -0.23984043 -0.16001737 -0.19819403 0.20036334 -0.725547 0.4498021 -0.2150613
51 -0.6509747 -0.19712535 0.21508831 -0.5663929 0.55007154 0.7470574 -0.054593664 -0.0039871424 0.23148932 -0.33542544 0.23478755 0.34072813 -0.70570856 -0.31542096 0.45889995 0.30847535 -0.012879263 0.41288134 0.3263817 -0.15959902 0.6670117 -0.24355659 -0.16655497 0.17474301 0.22889881 0.33467975 -0.09536331 0.18946849 0.42517903 0.75823826 -0.09583339 0.24525431 0.6772852 0.21208934 -0.034714136 -0.15501603 -0.029828822 -0.7020911 -0.56721336 -0.21091782 -0.38632333 0.3033875 -0.04065359 -0.2064056 -0.07051536 0.77655226 0.09033922 0.11055823 0.10331659 0.055647552 -0.14049084 0.15155922 0.11576409 0.34762114 0.18633865 -0.6189491 0.066488415 0.63594043 -0.23679721 0.23901846 -0.17397793 -0.3478968 0.2235217 -0.898516
91 0.10216014 -0.041769143 -0.05629065 0.5438632 -0.40619642 0.24939348 -0.50100076 -0.32306054 -0.18612325 0.30204037 0.20457031 -0.44346312 -0.50822264 0.3772664 0.10962029 0.43530613 -0.22198221 -0.6514018 0.14858484 0.017133279 -0.6641524 -0.40059134 -0.0742576 0.082323134 -0.0022595683 0.0134370215 0.037954524 0.6291566 -0.07829626 0.08962305 0.13870406 -0.49601758 0.4801087 -0.14381558 0.42687804 0.012490171 0.036588114 0.3111912 0.089257635 -0.07005422 -0.38900065 0.31367287 -0.17039575 -0.2267444 0.26882532 -0.79708135 0.07699021 -0.20691471 -0.5390505 -0.9733907 0.26400304 -0.33664012 -0.10396665 -0.398348 0.7266335 -0.14421459 0.46034002 -0.46501625 -0.3959724 0.006495633 0.24451831 -0.32052413 0.025457928 0.021698063
85 0.09386797 0.4576116 0.63857824 -0.24887773 -0.09795015 -0.05842045 0.41369683 0.0603277 0.12597227 -0.23447628 0.08096105 0.20022747 -0.61945134 -0.15300867 0.177772 -0.19659947 -0.5948485 -0.0362468 0.8227302 -0.17272277 0.29095 -0.6931429 -0.32138863 -0.21581496 0.7087067 0.39077356 0.13037692 -0.059753284 0.359575 0.25710684 0.25372466 0.043144576 -0.5536337 0.47946 0.10026921 -0.88969535 0.35545197 0.08684522 -0.21334454 0.005113087 -0.30513257 -0.5242947 -0.07332614 0.09113559 -0.00965519 -0.27484307 0.031151844 0.06445235 0.27113762 0.35420063 -0.35660094 -0.3399695 -0.34985393 0.25247788 0.38222817 -0.40550023 -0.012032268 0.22325051 0.011327438 0.35672444 -0.11511607 -0.4673767 -0.32396102 -0.5590674
17 -0.018364888 -0.12562685 -0.28346536 0.2666698 0.20952179 0.21544205 -0.014507993 -0.17642023 0.38224286 -0.1513806 -0.47342807 0.110442504 -0.39540383 0.6229131 0.19271518 0.028465832 0.42603543 -0.2456519 -0.110624164 -0.3650919 -0.57081527 0.3129907 -0.48734897 -0.43589815 -0.27196425 0.47950634 -0.29747176 0.7066499 -0.1491659 0.16000809 -0.044992816 -0.46026558 0.26505744 -0.18038222 0.051715873 -0.9231737 -0.27369317 0.04890485 0.07669937 0.1575516 -0.0062491363 -0.11431268 -0.44728172 -0.08750322 -0.072224 -0.61220044 0.17986186 -0.19757256 0.3816918 -0.75481915 0.22105736 0.32605967 -0.23595533 0.2924561 -0.26105887 0.35557383 0.055337157 0.2459836 -0.25304914 -0.18886156 0.06318424 -0.320153 0.27312133 -0.05306859
60 -0.018860985 0.7686156 0.38964352 -0.23824792 -0.027111616 0.41926402 0.33037347 0.6735799 0.07111361 0.25182766 -0.041683476 -0.049619894 -0.34415892 -0.56277835 -0.5504696 -0.22063139 -0.011297961 0.25280118 -0.34861752 -0.06924248 0.021489602 -0.19961739 -0.46518344 -0.024901817 0.050438505 0.35675576 -0.061558213 -0.3855416 -0.21799155 0.39414865 0.5767734 -0.11185158 -0.08063658 -0.31579304 -0.25338694 -0.6815438 0.28135082 0.15481289 -0.2012013 -0.12314347 -0.19811766 -0.23943055 -0.07874844 0.0871467 0.10810011 -0.22795154 -0.32754666 0.17368567 -0.06416366 -0.45379445 -0.18231201 -0.1122185 0.046572067 -0.24945733 0.10261225 0.19139692 -0.9519972 0.7449787 0.023223383 0.30467358 -0.116595 -0.5156747 0.5582183 -0.072834365
34 0.47245875 -0.0338938 0.037687685 -0.123934925 -0.23080304 -0.26331508 0.46637446 0.36705375 -0.24008895 0.6847915 0.53884614 0.3932062 -0.10143581 -0.4339677 -0.53424037 -0.4370736 -0.36858135 -0.10394986 0.37536705 0.16460238 0.24565169 0.51214767 -0.21576871 0.28815696 -0.3504945 -0.33423966 -0.27655235 -0.07889465 -0.017793834 0.027739035 0.18016215 -0.09989049 -0.1153002 0.043322407 0.372537 -0.34585202 0.5086463 0.2370763 -0.4824685 0.24809901 -1.0976933 0.5224093 -0.504514 -0.42094812 -0.37085584 0.028191365 -0.060260087 0.2955171 0.5054152 -0.36199552 -0.3029714 -0.41976476 0.14380279 0.55202955 0.18030581 -0.2025592 0.21540743 -0.19358894 -0.035337728 0.043376748 0.06081584 0.24970762 -0.02290532 -0.4703557
94 0.026851522 0.19294393 -0.38579398 -0.1559126 0.5047858 -0.59619707 0.16820623 0.39171383 -0.49684483 0.32068384 -0.39601082 0.3048672 0.34790844 0.7280851 -0.30571508 -0.15241817 -0.27287802 0.29205942 0.26819822 0.39313537 -0.06598337 0.10383824 0.421406 0.4067539 0.24360535 0.40632245 -0.66631436 0.021426653 0.3520783 0.31989858 -0.38613516 -0.28777674 0.28452477 0.009804255 0.006861964 0.6420942 0.36269164 -0.27962443 0.28886482 0.041818827 -0.44878522 -0.15579735 -0.41984352 -0.26339805 0.34224182 -0.030425554 -0.21583393 -0.4915695 0.42647368 0.25016922 0.6329145 -0.2454632 -0.062501654 0.13921474 -0.47585985 -0.20988795 0.257998 0.04491366 0.6242488 -0.5311679 -0.0076649906 -0.28905958 -0.13193059 -0.40201512
70 -0.32214126 -0.43866968 0.24046229 -0.18447867 -0.17457624 0.012468575 -0.29896522 -0.16485363 -0.05444583 0.25796553 -0.30282137 0.13539648 -0.27836654 0.21352817 0.017663319 0.6528585 -0.17486516 0.3151975 -0.68386006 0.28662777 -0.41863304 -0.5987299 0.05942681 0.30402765 -0.25196537 0.3044254 -0.43298686 0.16695048 0.22758232 0.31171876 0.4841238 -0.38867325 0.81039953 -0.11274138 -0.5634552 0.005555826 -0.22829343 0.07458562 -0.13314094 0.008249655 -0.08559621 0.55757844 0.010862788 -0.019840246 -0.17949681 0.5791017 -0.1743688 -0.14708608 -0.3574153 -0.693386 -0.49243236 0.018420951 0.40369484 -0.79152673 0.2915008 0.2514946 0.063466795 -0.0107052 0.25114065 -0.012508806 -0.14362629 -0.2005855 0.46654332 0.15238212
4 0.051411934 -0.29298022 0.38080657 -0.48835272 -0.3336445 -0.49051067 0.23675013 -0.3054022 -0.013222513 0.023911335 -0.1912756 0.04044099 -0.045979124 -0.25395375 0.47324607 -0.092782035 -0.6610976 0.02339677 -0.11200059 0.008793718 -0.0194857 -0.91888255 0.28645575 0.1552424 -0.18034934 0.02326856 -0.012987518 0.32016975 0.020613028 0.18981452 -0.24669243 -0.069731705 0.073527396 1.0110326 0.040919144 -0.10176231 -0.33886084 0.2333249 0.08660903 -0.15175357 0.16278127 0.46798822 0.2345512 0.6236742 0.4641967 0.14134176 0.4058989 -0.57213247 -0.07148878 0.38971832 -0.07393353 0.10987108 0.5614983 -0.1364135 -0.20437567 -0.89153045 0.0936135 0.18657222 0.37862247 -0.09579441 0.008434028 -0.09439228 0.026374254 -0.10115622
27 0.37552655 -0.10675864 0.24090126 -0.049681395 -0.28932875 0.03236388 0.19421482 0.34092858 -0.07674407 0.18411061 -0.44296038 -0.24761112 0.38461974 0.42286718 -0.29535928 -0.07201957 -0.24609445 -0.012781574 0.16719028 0.43534356 -1.0450555 -0.17471594 -0.30600098 -0.7394933 0.1331387 0.24675761 -0.052887473 -0.06129722 -0.2363463 -0.33426672 0.31122887 0.25904572 -0.012198739 0.098514125 0.23086572 -0.14421697 -0.09593826 0.66279936 -0.19543941 -0.08547863 0.31360528 -0.43864465 -0.32698962 -0.28243577 0.015731482 -0.7815618 -0.33788437 0.020537421 0.049162228 -0.26950422 -0.30949706 -0.1298997 -0.0010291834 0.22349046 -0.306748 -0.034332912 -0.5166137 0.4984603 -0.044976793 0.19753326 -0.52963233 -0.2122522 0.6998355 -0.23674566
84 0.61867064 0.51733 0.28719947 0.12611568 -0.29444626 0.1440951 -0.20422493 -0.35542637 0.06852358 0.31814882 -0.32101518 0.23364553 0.2937109 -0.06371747 0.3127964 -0.12310002 -0.19505154 -0.45043525 -0.4682777 -0.15110093 -0.1819261 -0.79967827 0.21064281 0.15338904 0.4071032 0.2135437 0.12819463 -0.27182615 -0.22022796 -0.39846474 -0.28248504 -0.57681215 0.14866325 0.65886176 0.30046186 -0.12578613 -0.6705645 0.17161325 -0.33253562 -0.24216728 0.1388201 -0.000920999 -0.23944363 0.34296256 0.46700305 0.12521537 -0.3279165 0.1457313 -0.47515765 -0.51673985 -0.13763495 0.32741186 -0.1880821 0.18492891 -0.66935796 0.17564148 -0.4319919 0.02863194 0.14928932 -0.10382431 0.5789146 -0.58522546 0.8308525 0.119560175
64 0.14748186 -0.19788773 -0.48620355 -0.43088335 0.08103268 0.04283243 0.6141173 0.2937758 -0.2156691 0.057263408 -0.23729506 -0.2136025 0.11366295 0.14455548 -0.16819957 0.043234035 0.07142989 0.42788383 0.048524458 0.06476755 -0.6258754 -0.46287546 -0.14499708 0.4351629 -0.19113913 -0.72352 -0.048182715 0.44230923 -0.43649802 -0.15659282 0.078251414 0.35918653 0.3142111 0.38355544 0.48865756 -0.30968884 -0.037556317 -0.3959822 0.24315026 0.08092697 0.13105156 -0.2143112 0.4802622 -0.17168854 0.039540917 -0.11038978 -0.10276323 -0.5807868 -0.55565274 -0.14587195 -0.04820877 -0.51492214 0.19550729 -0.30825564 -0.17921524 -0.25970712 -0.78861433 -0.5074072 -0.09740739 -0.13700856 0.3508873 0.095621414 0.48808426 -0.13557673
14 0.13400228 -0.17152931 0.57393587 -0.7459645 0.3706704 -0.25108832 0.365055 0.019367844 -0.3651858 -0.1998341 0.17798662 0.2400214 0.24511437 -0.22691485 0.3072915 -0.5508076 -0.74167657 -0.37627462 -0.12062715 0.43429577 0.21699013 -0.4029467 -0.38214374 -0.35123557 0.047805816 -0.42863968 -0.38189542 0.21260749 -0.76098514 -1.2130637 0.21456441 0.3288665 0.38102856 0.45556962 -0.27979106 -0.83314526 -0.6036568 0.29748288 -0.3526309 -0.15668152 0.06109996 -0.4189431 -0.20125721 0.26328334 0.2483313 -0.10852063 0.13151163 -0.5514821 0.35895157 -0.41429415 -0.61935437 -0.7410228 0.09502869 0.2503615 -0.33188614 0.056421645 0.04714113 -0.28741384 0.25479922 -0.5371573 -0.12645479 0.26458967 0.29354644 0.0683987
76 0.49821362 -0.14927663 0.57091796 -0.089956515 -0.36583576 0.07866136 -0.04424939 -0.061641358 0.34660873 -0.3877705 -0.052140307 0.69071245 -1.1247746 0.03107939 -0.28023726 0.2361174 -0.038282573 -0.13594756 0.4084858 -0.61789805 -0.26659703 -0.39759478 0.7142236 0.47718105 -0.06859586 -0.39495194 -0.0736833 -0.15969762 0.26981407 0.61135 -0.3378371 -0.07746929 0.27876016 0.2255844 0.52966547 0.48046035 0.074755624 -0.8628709 -0.16030592 0.21837068 0.08670985 -0.22764942 0.45859453 0.0927315 -0.28321642 0.3724026 -0.2513353 -0.31714365 0.41459453 -0.046899416 0.3265446 -0.076610245 0.020747513 -0.054933608 0.5644344 0.10104767 0.7400696 0.32723922 -0.17254584 -0.3904064 -0.3449995 -0.8437394 0.008703107 -0.86622214
97 -0.13986613 0.065680765 0.4784277 -0.49470925 -0.44544744 -0.264449 0.16821027 0.477939 -0.20549434 0.010432623 -0.20652086 0.552227 0.0379185 -0.17369929 0.0038730218 0.07401705 -0.48839885 -0.34443644 -0.21674155 -0.29271182 -0.34392023 -0.15232311 -0.3119976 -0.3967502 -0.17920211 0.36264363 -0.051325176 0.018328138 -0.67321426 -0.15374492 0.5623069 -0.3537536 -0.20358734 0.2918722 0.32776093 -0.30177775 -0.37627038 -0.11532725 -0.24338704 -0.12293926 -0.4295089 -0.19993146 -0.6642484 -0.06402718 0.31055638 0.1242782 -0.57063156 0.22655903 0.095495716 -0.070361026 0.051429212 0.028537618 0.2598254 0.23181911 -0.05095647 0.041391704 -0.05689709 0.5376273 0.2253467 0.009800343 -0.24196155 0.13399006 0.21107735 -0.22455737
13 0.12586653 -0.29854184 -0.5698562 0.67044246 0.34808302 0.17559662 0.40389204 -0.32585877 -0.1809838 -0.38049826 -0.029645294 0.253208 -0.4067215 -0.14729942 -0.012199249 1.0034543 0.15843478 -0.05883124 0.12906758 -0.72713727 -0.32870814 0.29089722 -0.36021557 -0.098774776 0.07861848 0.47526702 -0.6282764 0.47762403 -0.061394393 -0.14888243 0.34752136 0.0347117 -0.063120425 -0.23021635 0.25899193 -0.8254339 -0.050120156 0.52867293 -0.51247686 -0.0362361 -0.22897395 0.32558832 -0.26014948 -0.18533581 -0.6888551 0.18713702 0.53650564 -0.3029779 0.31560248 -0.57805544 -0.595482 -0.13449365 0.015005529 -0.6081911 -0.047509447 -0.29365537 0.041965358 -0.21001521 -0.80623126 -0.066733085 0.26294795 0.022680331 -0.0848813 -0.2850462
21 -0.41108897 0.7636191 -0.5499712 0.15665354 0.9150332 -0.4402672 0.28478977 0.33958793 0.38708848 -0.2014095 -0.01879948 0.29855865 -0.21622725 0.0019116125 0.19770783 0.84617347 -0.01183604 0.37684909 -0.0719298 -0.21621956 -0.23484275 0.31777588 0.41168642 0.57777655 -0.39903823 0.3863386 -0.58216757 0.20049289 0.02245904 0.53219855 0.13560441 -0.13431562 0.5004586 0.34909484 0.5052653 0.17424208 0.18410675 -0.38313428 -0.27906117 -0.2594743 0.055933706 0.44584376 -0.052375123 -0.33009076 0.16201378 -0.27490693 0.19750798 -0.2544685 0.5470642 0.115141094 -0.046561003 0.40041518 -0.02051257 0.27214578 -0.43987545 -0.51612765 0.14453591 0.3186786 0.30361557 0.0005855657 -0.290905 0.24246988 -0.418073 0.2932674
86 0.31639242 -0.39263418 -0.4573724 -0.09663529 -0.3478849 -0.30928075 0.46869352 0.31271723 -0.07746665 0.4162722 -0.4881074 0.027589066 0.045024376 -0.20243365 -0.4764003 0.12867457 -0.6942497 0.6238342 0.013510352 0.66646606 -0.5100928 -0.12124766 -0.26279604 0.13418408 0.09387114 -0.06673066 -0.022410924 0.010377378 0.0073852413 0.69447166 0.6399914 0.18740088 0.2405631 0.36435506 0.19894584 -0.2209355 0.17136388 0.10359655 0.028210111 0.38785705 -0.43331248 -0.33527464 -0.22413473 -0.14205472 0.23123612 0.2800718 -0.59455115 0.5225519 0.11748551 -0.25097024 0.16218145 -0.08994629 0.29623538 -0.14945571 -0.41834947 0.04661338 -0.3553214 -0.41289517 0.9061343 -0.48855525 0.1393975 0.16533753 -0.55849755 -0.51309013
90 0.38392684 -0.054338306 0.056653053 -0.22697368 0.43191382 -0.38980785 -0.079989016 -0.41472778 -0.099832185 0.14452706 -0.35384372 0.40993184 0.100019835 -0.108869575 -0.13254577 0.13435802 -0.010506612 0.5208824 -0.22078471 0.28282255 -0.09801277 0.1263252 0.53268063 0.56925553 -0.67261624 -0.16678083 -0.013022548 0.18515809 0.2791235 -0.1805321 -0.30252275 0.0516384 -0.22908902 -0.12799858 0.1260946 -0.53159827 -0.32104266 -0.28992832 0.48221925 0.13623162 0.013129631 0.50385827 0.74197483 -0.52499 -0.35232168 -0.09868304 0.14375114 -0.43997246 0.18528555 -0.35819066 -0.20129865 -0.5731142 -0.28259358 0.10731512 -0.17703271 -0.45015958 -0.40068877 -0.093998596 0.09779668 -0.110697664 -0.20391789 -0.16485293 0.7174677 -0.4084998
26 0.065662906 -0.5007822 0.92591757 -0.23165366 -0.081997976 0.13644509 0.050413255 -0.05302367 -0.3974588 -0.26385683 -0.18221186 -0.015316075 -0.12683211 0.062488087 -0.14075267 -0.4519547 -0.5202861 0.03907254 -0.16831478 -0.0022867501 0.24680695 -0.08262149 -0.65583175 -0.021057015 0.13568863 -0.5738399 -0.1049449 0.15786949 -0.6308943 0.49769077 -0.04609537 -0.26014072 0.38607237 -0.13474981 -0.32967955 -0.34086588 -0.60341364 0.020132182 -0.17567599 0.16169736 0.0009837077 -0.19937517 -0.8199076 0.086649984 0.12900136 0.16040032 -0.61239696 0.14847742 -0.029154133 -0.27356833 0.03804932 0.4344865 0.21539092 -0.052203953 -0.11225381 -0.38807306 -0.2624817 0.45933658 0.25528693 -0.35154682 -0.3870019 0.030484844 0.1433755 -0.027085029
88 0.35129964 0.06607862 0.18918099 -0.059597123 0.27295744 0.13603275 0.29637995 -0.17799903 -0.4083367 -0.24763173 0.17925502 -0.34827492 0.045817178 -0.1623625 -0.14345516 -0.13758995 -0.19026218 -0.45728436 -0.1451135 0.028524524 -0.23589431 0.13008717 -0.63360435 0.19518717 -0.26193714 -0.18127567 -0.5085895 0.22153334 0.11434059 0.6545382 0.06387207 -0.009109685 0.109021254 -0.4760358 -0.2732306 -0.14639156 0.65066135 0.7200648 -0.16473886 -0.24648193 -0.42489004 0.44188583 -0.46558875 -0.13347344 0.48234686 -0.28604662 0.54707384 -0.09571745 0.6757729 -0.26708052 -0.20205595 -0.68264276 0.18906315 0.17067522 0.2621575 -0.41888925 0.07216856 0.27556384 0.038073305 -0.48773068 -0.4299737 -0.4475971 -0.29163027 -0.27989256
80 0.5407366 -0.41710845 -0.07464648 -0.31097364 0.18900663 -0.31859732 -0.51325345 0.40226316 -0.3387194 0.18353787 0.15305461 -0.25812143 -0.20476463 -0.28359133 -0.23090862 0.25023896 -0.48809606 -0.008037853 -1.0848763 0.65066475 -0.58039945 0.051842324 0.34874144 0.018678147 -0.41555938 0.22458306 -0.27880567 0.11747669 0.5519028 0.41294026 -0.049450044 -0.07263351 0.17822886 0.25023717 -0.008628963 -0.34508353 -0.11440698 0.37574226 0.65950316 0.038076304 -0.45321667 0.98434883 0.580719 -0.06714384 0.57959944 0.051746555 0.57054603 -0.20911261 0.11348381 -0.61190796 0.34923077 0.11076472 0.35004324 0.31440216 0.03454566 -0.16463919 -0.06458237 -0.09256778 0.25792646 -0.17323671 -0.04217586 0.018179053 -0.4244233 -0.6171565
68 0.6929578 0.12179512 0.1352918 0.43109953 -0.022438107 -0.35277656 -0.061771277 -0.7669849 -0.0863073 -0.038028937 -0.5575799 -0.2969659 0.57078695 -0.29523596 -0.24175198 0.23935597 -0.5452514 -0.2930093 -0.1751222 0.12951104 -0.78457665 -0.6365186 0.05855113 0.056582075 -0.26212123 -0.45350716 0.13045746 0.26866874 0.13981229 0.21380682 -0.027301112 0.6382415 0.28583837 0.32123125 0.15309769 -0.13412298 -0.2750133 0.2819848 -0.4959708 -0.0072094486 0.27197695 0.15598252 0.08965033 -0.05171523 0.46024188 0.24502678 -0.1854036 -0.053112473 0.20399895 0.013981313 0.017131222 -0.10877057 0.3014244 -0.54448146 -0.5313622 -0.6126057 -0.08460182 -0.3841456 0.16396786 -0.40838623 -0.21801008 -0.37530825 0.16140133 -0.27028355
75 -0.4933943 0.17650884 0.4974585 -0.34841895 0.7015383 -0.17851578 0.49549365 0.104699194 0.36229837 0.2926439 0.5956547 0.33372644 0.13607661 1.0907359 -0.24286158 -0.12937953 0.16141182 -0.117901966 0.2364894 -0.25593585 0.3860318 0.35147136 0.43994838 -0.21519968 0.046371557 -0.37500054 -0.22979641 0.15518749 0.59181666 0.8932914 -0.06939995 -0.06615941 0.021535296 0.023370337 0.17338337 0.008943497 -0.05392163 -0.44367656 -0.7621974 0.17940375 -0.24813177 -0.24868856 -0.28289258 -0.46649998 0.31945565 0.171899 -0.5270224 -0.105601065 0.23727773 -0.3489219 0.06610798 0.36332008 -0.74890685 0.12035214 0.36831456 -0.3401901 0.31257737 0.0042877374 -0.6129679 0.6599734 -0.7075458 -0.3912204 0.4739495 -0.031516027
50 0.36638007 0.15297139 0.13732915 -0.038531423 0.7557278 -0.31132573 -0.354355 -0.42798248 0.07906407 -0.51811606 0.29303268 0.08191349 -0.21728027 -0.51477724 0.5710244 0.17367339 -0.45404124 0.12680694 0.56169504 0.18167782 0.30963787 -0.43817973 0.6128976 0.414258 0.46778494 -0.5197225 0.083380826 -0.41983277 -0.13428435 0.056823738 -0.113974124 -0.15705365 0.5504321 0.22274591 0.49290237 0.124101266 0.22091277 -0.13461551 -0.65642506 -0.001147266 0.30017936 -0.12260265 0.34351933 -0.62311935 -0.38997895 0.15840778 -0.5585595 -0.02965996 -0.005212043 -0.67277396 0.029118929 -0.35229298 -0.19776241 0.5883103 0.046682093 -0.2787177 0.08663093 -0.05506479 0.41565356 -0.014481586 -0.12803519 -0.075347655 -0.0027545034 -0.29963154
36 -0.037292194 -0.3203024 0.7824473 -0.4136953 -0.31489152 -0.3108967 -0.11370982 -0.2548647 -0.36536515 0.07890663 0.43094477 0.53972757 -0.4660636 0.17506981 0.13699178 0.37537926 -1.0688691 -0.100026965 0.19366002 0.31408507 0.3827784 -0.32393062 -0.064114004 0.12928258 0.40411037 -0.036790743 0.042401385 0.16782995 -0.45247567 -0.62836665 0.19639939 -0.6329406 -0.2778156 0.41902918 0.26621678 0.38968506 -0.026856927 0.42587644 -0.42043963 -0.04745975 0.4309804 -0.013702028 -0.15852015 -0.25772738 -0.15651391 -0.074443966 -0.24008904 -0.24085172 -0.091913 -0.15726173 -0.38202462 -0.17655137 -0.10167694 -0.035095982 0.99111676 -0.2027747 1.0027184 -0.13312323 0.26547906 0.08273247 -0.51467115 0.20828964 -0.0068480885 -0.46863705
58 0.5070459 -0.07704083 -0.09355287 0.36874026 0.06573068 0.25292054 0.017061222 -0.1748425 -0.6268404 0.06305818 0.9494465 -0.12530814 0.4787261 -0.4500889 0.09840872 0.11480941 -0.41669732 -0.82863724 -0.10240754 -0.36316162 0.11031341 -0.40976065 -0.040900864 0.49596676 0.07507186 -0.55345714 -0.5056094 -0.24096425 -0.18854147 0.026905682 0.36583263 -0.49345347 0.16666488 0.39568034 0.37523627 0.4705882 -0.063843004 0.22638857 -0.616078 -0.01937244 -0.17866121 0.56189156 -0.7298128 0.05322058 0.4604988 0.39652485 0.07062633 0.36873376 -0.12142339 -0.8040665 -0.38688964 0.26166618 -0.43004212 0.48391983 0.07561823 -0.5806719 -0.121553324 -0.13468653 -0.013840116 0.00777994 -0.07338491 -0.32285944 0.15103465 0.24950126
55 -0.14747581 0.5697926 -0.19150451 0.2999153 -0.047640726 -0.202035 0.2117987 -0.59553415 -0.17708087 -0.30787444 -0.51886857 0.2751658 0.26634982 -0.2511612 0.29834297 0.793847 -0.3742885 -0.062585466 0.3669027 0.038376823 -0.27552402 -0.40370148 -0.13318627 0.3174517 0.009921827 0.5407689 0.11851643 0.42021093 -0.5336167 -0.6493759 0.45881444 -0.67692846 -0.22637929 0.011450101 0.18962432 -0.67255366 -0.3055725 0.67007697 -0.3040556 -0.33465716 0.39473706 0.034132957 -0.27294332 -0.37615642 0.1030609 -0.5953 -0.14623898 -0.0845659 0.28577256 0.16316724 -0.5293854 -0.5050469 -0.058577202 -0.20962945 0.038916815 -0.31358382 -0.35952234 0.1393014 -0.19565122 0.17533939 -0.32508308 -0.058201704 0.3040162 0.33765382
43 0.395861 0.056797083 -0.5329785 0.3631748 -0.30980286 0.13036624 0.20233409 -0.009748299 -0.30664417 0.23517373 -0.14118816 0.2756064 0.23113327 0.063498706 -0.2972148 -0.40351757 0.25160676 0.02122816 -0.2451192 -0.09793832 -0.08824074 0.18008998 0.026520176 0.42515418 -0.014334779 -0.123747885 0.388818 0.24743326 -0.89278436 -0.32508776 -0.0993321 -1.3875355 -0.0973169 -0.4717452 -0.06691248 -0.05078541 0.22363095 0.43124208 -0.43446726 -0.2755292 0.42146453 0.15832326 -0.053112075 0.13036382 0.26737693 -0.5721988 -0.54325366 0.41549316 -0.28849837 -0.6879981 0.4296134 0.20763335 -0.34204537 0.16844657 0.007142646 0.04601797 0.024884056 -0.04690941 -0.3401029 -0.9040454 0.33071464 -0.81853867 0.6134857 0.04811822
71 -0.19232613 0.36884254 0.42178273 -0.174949 -0.04914711 -0.22788759 0.37660128 0.33300218 -0.1503474 -0.3486209 -0.12730718 0.14871418 0.15730602 0.8585787 0.37084708 -0.35408223 -0.6713513 0.07690447 0.10930379 -0.12476941 -0.143448 -0.38343284 -0.7310553 -0.14367408 0.21333414 0.14141276 -0.33880746 -0.17365861 0.27960792 0.44424173 0.0032631736 -0.63798624 -0.45208806 0.39933124 -0.17346841 -0.31861866 -0.2595226 -0.3140353 0.66291064 0.6849441 -0.073036164 -0.3616475 -0.71188426 0.16676319 -0.026698057 0.07066847 -0.05572778 -0.5838279 0.13535814 -0.11441277 0.0013425868 0.34597766 -0.11060504 -0.14338665 -0.16540033 -0.118240684 0.068774536 0.49609655 0.6885716 0.39542106 -0.4796059 -0.25473267 0.19407843 0.07535209
54 0.26419613 -0.15474996 -0.24618126 0.07315884 0.56866276 -0.0077657173 0.23748869 0.142899 -0.14467296 0.08382836 -0.12971286 -0.06128219 -0.26996204 -0.28617197 -0.23785268 -0.15632398 -0.35841873 0.60512644 -0.44732526 -0.16241652 -0.031725056 0.09772972 -0.4292421 0.010072304 -0.6245596 -0.037250385 -0.86080134 0.22416449 -0.81817913 -0.5154251 0.57231724 0.102466635 0.27912098 -0.3790223 0.347486 -0.28885958 0.26222575 0.098930456 -0.13948917 0.15347123 0.10232875 -0.3755364 -0.32848418 -0.4478164 -0.25770873 0.026902314 -0.519196 -0.43179306 -0.10176892 -0.45644993 0.36902952 -0.51327854 -0.03060744 -0.66992664 -0.26319367 0.33407325 -0.46384153 0.0951865 0.18605427 -0.18883215 -0.23610784 0.69250154 -0.27208772 -0.16572912
82 0.3095036 -0.50545985 0.2325238 0.6603497 -0.6335167 -0.18416107 0.28884926 0.23935558 -0.062509716 0.28022355 0.08585427 0.21427716 -0.2901356 0.7708789 0.18920848 -0.5774942 -0.597569 -0.020750016 0.02339036 -0.0013401891 -0.8311496 -0.1439605 -0.25723955 -0.40546024 0.34274876 0.018059706 -0.17444113 0.012489177 -0.5454601 -0.2798341 -0.2642093 -0.35155806 0.31337583 0.08987974 -0.014215751 0.04087997 -0.17645347 -0.038699333 0.7430089 0.49213153 0.15320322 -0.06724252 -0.6647673 -0.132776 -0.002849154 -0.09664002 0.5245009 -0.29222625 -0.027247658 -0.7348899 -0.20953752 0.3038303 -0.31553563 0.47972423 -0.017839506 -0.12214482 0.21765399 0.39241996 0.17485926 -0.24238022 -0.4058538 0.23580523 -0.24394989 0.25617802
61 0.14264947 -0.102290966 0.010164516 -0.7057758 0.24391285 -1.2421031 0.18346302 0.35851803 -0.29973772 -0.54246104 0.33848697 0.13329445 -0.1741489 -0.15729526 0.1554726 0.41933626 -0.4321921 -0.36985493 -0.44208303 -0.2739448 -0.19758962 0.037698016 -0.10696364 -0.27713838 -0.47338 -0.13539812 -0.8284864 -0.08050873 0.26995346 -0.27227157 0.49461973 -0.21430424 -0.36111718 0.36710396 0.3051232 -0.24165842 -0.1597309 0.17776974 -0.08703323 0.25690693 -0.19204636 0.28395665 -0.046806015 -0.15159097 -0.7495293 0.60693806 -0.109702095 -1.0025824 0.3047935 -0.6376912 -0.53368044 0.04939034 0.9502595 -0.5660905 0.22059765 0.024805566 0.5960217 -0.25391096 0.75058526 -0.065935634 0.21293838 0.27635014 0.25163546 -0.2109377
15 -0.34572595 0.059476063 -0.12323851 -0.20739661 0.69601375 0.1071243 0.35077775 -0.1371274 -0.52801156 -0.12610096 0.17963217 0.40414196 -0.04583254 -0.09066286 -0.5822262 0.32765755 -0.6848349 0.5793058 -0.29830572 -0.13754256 0.77803355 0.8211459 -0.5894245 0.38438064 -0.082491435 -0.020210221 -0.21954843 0.33823588 -0.6475495 0.04339597 0.51242006 -0.5770992 -0.4218097 -0.21950904 0.13121377 -0.4475282 -0.24758488 -0.10174822 0.3320372 0.42893857 -0.16369808 -0.1473724 -0.3577661 -0.77347153 0.37219608 0.26250425 -0.25095177 -0.31019682 0.080790065 -0.33607844 0.20171298 -0.92084557 -0.01662646 -0.33563748 0.25978297 -0.0874101 -0.2809409 0.010609206 0.11701855 -0.19595014 0.046088554 0.46189037 -0.48388433 -0.375379
77 -0.33020222 0.46522728 0.26637068 -0.7778704 0.18892223 -0.4448381 0.20231296 0.3435222 0.116814315 -0.34903124 -0.16827203 0.10975777 -0.16330037 0.16729903 -0.12391866 -0.005487808 -0.4012274 0.59348124 -0.7674802 0.32826856 0.2474873 -0.13712394 0.041807305 0.53307116 -0.8202834 -0.18024 0.026861021 0.25126654 -0.031175882 0.26717138 0.11274549 -0.7265961 -0.28037304 0.112759456 -0.047677014 -0.06877379 0.11941564 0.001925585 0.25962335 0.02669192 0.18081155 0.21122327 0.0690829 0.13094816 0.6102668 -0.22175908 -0.5575415 -0.70313877 -0.00446684 0.37166286 0.49790695 -0.004391176 0.5939006 -0.4223822 0.32656097 -0.0070744627 -0.23253651 0.3851395 0.3964651 0.01785353 -0.6325517 -0.31871754 -0.16496776 -0.2278236
89 -0.3244921 0.073253624 0.019123541 0.13172089 0.37355274 -0.2078675 0.1546085 -0.35090262 0.14041841 0.35057664 -0.22808246 -0.4706348 -0.1670282 0.17083128 0.19545805 0.54249567 0.10900837 -0.009747551 0.0057190866 -0.26634818 -0.29213268 -0.7494029 -0.05794791 -0.21806028 0.12029406 0.5769087 -0.4698829 0.40704745 0.5902502 0.4717827 0.4747585 0.35564497 0.41305384 0.06747002 0.20537245 0.1085635 0.31690785 0.49443594 -0.6003493 -0.508818 0.18234397 0.2793273 -0.50431263 -0.4671701 -0.13126725 0.18367255 0.092480995 -0.12746282 0.1982962 0.1091923 -0.7689449 0.30357948 -0.10356722 -0.30398837 0.07733233 -0.6594107 -0.37447608 0.4804388 -0.11971795 0.94355077 -0.24145365 -0.06131904 0.4188563 0.20884117
31 0.4046151 0.61250085 -0.15651195 0.24835801 -0.0690439 -0.4059375 -0.09906417 -0.36164156 0.4248021 0.225532 -0.05363054 -0.10369202 -0.26933247 -0.013793241 0.25691992 -0.66225594 -0.11969131 -0.1311512 -0.60819554 -0.5948487 0.23163813 0.0017270315 -0.22950895 -0.02172164 -0.3110297 0.5059754 -0.08299309 0.27903843 0.17336509 -0.2762892 -0.6193255 -0.7754834 0.1071476 0.13853353 0.5033743 -0.028749522 0.14336196 0.3216441 -0.0036013986 -0.35630396 -0.05035246 0.63936436 -0.5268279 -0.0564187 0.48001343 0.46010694 0.26077145 -0.66058284 0.042213425 0.08285254 0.80096465 0.19483422 0.27304256 -0.14433607 -0.33553976 -0.058700968 0.35771227 0.5783553 -0.0011819552 -0.033101276 0.37954 -0.03495642 0.050890572 -0.2212319
11 0.072520755 0.3310237 0.22979642 0.35178566 -0.053341717 0.23737648 -0.3502061 -0.46785104 -0.21834375 -0.25582322 -0.29319364 -0.06822664 -0.092122994 0.5334429 0.31340852 -0.19405705 -0.458627 -0.35071895 0.5613883 -0.3070892 -0.22752757 -0.11152065 -0.62663084 -0.38057607 0.67397887 0.22304456 0.14908408 0.52377105 -0.09737905 -0.04001399 -0.6084622 -0.38322186 0.6026707 -0.23962122 -0.45052466 -0.9884908 -0.35322997 0.17955726 0.23621991 0.0110278325 -0.35516533 0.088832036 0.0045694616 -0.24845031 0.39162043 -0.5404604 0.7038425 -0.44066206 -0.061933003 -0.2528218 0.17168663 -0.79370964 -0.44639143 -0.101700485 0.06514065 -0.56919813 0.5159479 -0.107375905 -0.7675922 -0.43520603 0.22445221 -0.37102515 -0.00036438578 0.034262918
93 0.17185763 0.47536245 0.5069611 -0.5602332 0.4801424 0.79058933 -0.5395853 -0.42382836 -0.19572899 0.19286118 -0.16317868 0.060060244 -0.32124883 -0.58481365 0.5643832 0.6010065 0.08073995 -0.5070233 -0.5233861 -0.8002424 0.47394636 -0.55317116 -0.011224931 0.54162526 -0.14436948 -0.0855895 0.20492435 -0.07357286 -0.27433953 0.8073608 0.14520995 -0.010353307 0.16821226 -0.13896514 0.8732118 0.17192435 -0.2489363 -0.28449816 0.24307625 -0.65911794 -0.36003655 0.15746658 -0.42044085 -0.39550978 0.3578803 0.27840334 -0.1756899 -0.079466656 -0.22323355 -0.2703184 0.47715154 -0.4152922 -0.10468405 0.17657058 0.07554563 -0.8353713 -0.56036663 0.9000258 -0.046906047 0.15138519 -0.063714534 -0.6017147 0.57878345 -0.24005394
32 -0.007601854 0.46405178 0.040741775 0.1455943 -0.42681256 -0.12067583 0.046723265 -0.061251514 -0.08530872 -0.028776066 -0.336574 -0.021765107 0.024726152 0.4705838 -0.48226017 -0.5290202 -0.49891898 0.494384 0.2229613 0.24542052 -0.57295996 -0.4028432 0.51547056 0.05636332 0.1979873 -0.2199826 -0.48525256 0.31221476 -0.17046897 -0.035855033 -0.9331341 -0.14662923 0.11755366 0.3067974 0.19968052 -0.077662796 -0.79325134 -0.18353426 0.20795204 1.0563233 0.39822856 -0.2613836 0.2534207 -0.22320709 0.118474856 -0.23369126 -0.3689162 -0.6296344 -0.29582348 -0.39227062 0.37504888 0.046499696 0.17684399 -0.7659977 -0.14679044 0.23054904 -0.0017684193 0.026234547 0.72476727 -0.07056106 0.03325368 0.09482322 0.70772773 0.23160765
72 0.35346287 -0.012574239 -0.46017563 0.55399173 0.21242648 -0.41046882 -0.10325533 -0.16062516 -0.518847 -0.14403728 -0.19650199 0.10170954 0.27546278 0.23342724 0.10731839 0.49648973 -0.5277596 0.08682675 0.211564 -0.15555844 -0.36681306 0.364944 -0.1803281 0.2007404 0.70455337 0.5611325 -0.43389162 0.010120223 0.21017198 0.68711436 -0.31656724 -0.8689994 0.05046173 0.15233488 -0.20814468 -0.3466017 0.17080425 0.61127615 0.044805903 0.16790469 -0.21083206 0.6561852 -0.35418656 -0.040249523 0.25819993 -0.106314525 0.48656008 0.1182002 0.34416524 -0.3569965 0.036336143 -0.022157457 -0.28412554 0.08134403 -0.20535067 -0.60279626 0.08252416 -0.1804925 0.23393892 -0.29686967 0.37100142 0.056655347 -0.5721345 0.012430104
92 -0.11756165 0.18828906 0.4381224 0.2443084 -0.4328952 -0.33140513 0.17315519 0.18885227 -0.42709306 0.54929835 -0.4523599 0.708396 -0.52368104 -0.016808858 -0.6707634 -0.72025687 -0.19474159 0.2718279 0.42455417 -0.14879204 0.26556045 -0.49364585 0.073666565 0.24795677 -0.24805889 0.4724395 -0.31968507 0.32035974 -0.0655952 -0.355794 0.16722414 -0.39527684 -0.46897563 -0.24161649 -0.3963422 -1.194497 -0.2664621 -0.5395801 -0.07359412 0.56525636 -0.7915542 -0.25560147 -0.44517568 -0.13359033 -0.652718 -0.24905854 -0.7060967 0.29191902 0.042449605 -0.14526409 -0.44184318 0.21395205 -0.59325624 -0.30937228 0.11806568 0.22071041 -0.32455403 0.0011287434 0.25821984 0.07806971 0.39635888 -0.21133538 0.34657285 0.13287483
96 0.11745308 -0.15790491 0.28720415 0.40608236 0.18512441 0.23134923 0.55492336 -0.07579486 0.07366586 0.5153604 0.0019477732 0.29188994 0.12723953 0.17270167 -0.45369044 -0.46029505 0.26751512 0.42854676 0.3236783 -0.2843209 0.006950763 -0.20711166 0.40187258 0.20452692 -0.35756367 -0.68740976 0.20944114 0.45844132 -0.25617707 0.1924846 -0.013985572 0.64557457 0.5838847 -0.101556286 0.1369519 -0.10505703 -0.2430264 -0.88618 -0.18067244 0.039360363 -0.47208083 0.029233655 -0.26645127 -0.050570063 0.22417323 0.22033307 -0.15401308 0.14928083 -0.17377487 0.0012591861 0.11125142 -0.14568657 -0.48758638 0.6409284 -0.74035037 -0.69121385 -0.76662135 0.3730178 -0.51446044 -0.41651645 -0.33850312 -0.28225887 0.48764303 0.08582266
35 0.02663569 -0.28781977 -0.19766048 -0.26772183 0.055282343 -0.3736539 0.2128278 -0.6137359 0.044955682 -0.3919486 -0.6175652 0.12513363 0.3816641 -0.0867484 -0.07986446 0.32593927 -0.44274902 0.18442388 0.2717417 0.53319794 -0.49152258 -0.22223684 -0.19029596 0.39771807 -0.24120894 -0.42256907 0.62897724 0.6239385 0.22411479 0.5339648 0.10693316 -0.3882478 0.32493708 0.91441166 -0.2735583 -0.6601996 -0.67250663 -0.3097761 -0.12890546 0.26501417 0.67811036 0.123458415 0.2787509 0.30722043 0.38425305 -0.13016358 -0.40164918 0.2269938 0.22820756 0.059630297 -0.34305283 0.34815514 0.11982535 0.2906159 -0.12243542 -0.27641606 -0.18923864 -0.2859144 0.61527187 -0.18055153 0.080539584 -0.2208035 0.10724654 -0.45499182
6 0.005360397 0.17789921 0.5896923 0.107406445 0.11723765 -0.4097472 0.37978408 0.63639474 0.447619 0.11081167 0.16979684 0.1329007 -0.45404723 -0.05610807 -0.39459273 0.054791592 -0.23603897 0.39977795 -0.305704 -0.26276436 -0.13972747 0.178937 0.582997 -0.16572931 -0.0959912 0.20689 -0.20267884 -0.008919846 -0.44358745 -0.39202067 0.39677814 -0.03758244 -0.08961944 0.27345192 0.8805198 0.06287528 0.3816333 0.1416914 -0.5272338 -0.49602434 -0.3097321 -0.10497158 0.18116952 -0.10891046 0.38928238 -0.31731716 0.057413813 -0.24399164 -0.24293683 0.08838666 0.23988505 0.26803136 -0.16440977 0.105772175 -0.48890078 -0.15505832 -0.605473 0.5099717 -0.5589824 0.6539803 -0.527023 0.37097946 -0.04497361 0.09980176
25 0.29977274 -0.2986046 0.40450418 -0.099897504 -0.13734125 -0.1211533 0.3645966 -0.02203245 0.168895 -0.28878406 0.18550354 0.21475676 -0.5410867 0.06036496 0.15358719 0.3383629 -0.4084087 0.05459415 0.102760985 0.28726515 -0.049286265 0.24416028 -0.041289866 0.17157614 -0.0799789 -0.07177071 -0.42313653 -0.035415336 -0.44648913 0.25191948 0.37989414 -0.09194017 0.016414808 0.20484592 0.31967533 0.2952485 0.05186145 0.032145284 -0.57411504 -0.5440267 -0.25314575 -0.21009918 -0.24681973 0.16645615 0.32581383 -0.4807548 0.43862727 -0.04026849 0.53269964 -0.24906395 -0.3452427 -0.25268093 -0.44458905 -0.13859144 -0.2041361 -0.24674456 0.27535322 -0.015900804 0.14480469 -0.7510259 -0.3436033 -0.31474066 -0.38548207 -0.023817133
78 -0.11753746 0.57890755 -0.77209574 -0.2493279 0.30767775 -0.4065071 0.2555397 0.33342144 0.54746544 0.14979927 -0.18375908 0.25487795 0.40303844 0.48598114 0.011378991 0.4230153 0.30114856 0.8533863 -0.09451745 -0.039235387 -0.035520818 0.6122001 -0.43310407 0.07185432 0.5509335 0.33341777 0.1738904 0.03858244 -0.20548218 -0.089364626 -0.2979388 -0.7499283 0.03980004 0.5248839 0.19029805 -0.6466859 0.16709423 0.023698302 -0.445592 -0.018501233 0.19296348 0.29846796 0.29673913 -0.5086572 0.0060952203 0.044561252 -0.56248444 0.113462515 -0.31361803 -0.11196728 0.3462554 -0.08995458 0.06465033 0.4153848 -0.53310424 -0.14798324 -0.10581414 -0.56958854 -0.639104 -0.06411394 0.40702793 -0.08698992 0.51086444 -0.260965
3 0.24560757 0.7237061 -0.29454103 0.8388838 0.07792683 -0.66514003 0.43007863 0.6318153 0.66742426 -0.16983166 0.11808218 -0.037653755 -0.29467276 0.5126106 -0.49456894 -0.17055885 -0.37865967 0.69552386 0.46692663 -0.48881504 -0.6184981 0.1188697 -0.26665264 -0.295082 0.5089969 0.30759633 0.10298825 -0.41589507 0.22943148 0.006810099 0.31429783 -0.17433056 -0.07885824 0.43543473 0.43137544 -0.53451014 0.73835504 -0.4406733 0.14734936 0.7758871 -0.07908173 -0.49670243 -0.2415907 -0.30965889 -0.10190817 0.14962797 -0.4415545 -0.2549057 -0.23247248 -0.32322776 0.6046486 -0.21649058 -0.031413075 -0.08886291 -0.30074605 0.4547727 -0.40063697 0.14908545 0.11549051 0.3251991 0.2591679 -0.013514534 -0.5101339 -0.07112677
66 0.4813089 0.16012284 0.5021378 -0.36769032 -0.04745936 -0.31902802 0.44240418 0.17685734 -0.34788355 0.32843882 0.14700702 -0.026582796 -0.26971483 -0.37887678 -0.09474936 -0.41514105 -0.4215817 -0.05168797 0.43958023 0.67919624 0.12513322 -0.59222996 0.4124292 0.5246582 -0.3143986 -0.6848045 -0.12593445 0.15191832 -0.42855015 -0.35493633 0.18516967 0.50667953 0.012551129 0.19343516 0.39282298 0.096619345 0.27185252 0.05163142 -0.56368476 -0.454269 -0.50831604 -0.35229298 0.2574979 0.06347954 0.18978073 -1.0698156 -0.20619975 -0.16378142 0.06645045 0.066519834 -0.33209372 -0.73179865 -0.26468718 0.03079899 -0.17543934 -0.44088203 -0.2657053 -0.34804574 0.3270752 -0.547437 0.018954933 -0.33437386 0.25215408 0.0648675
63 0.2593798 -0.29381803 0.613096 -0.31192878 0.033036783 -0.5494678 0.030742317 0.14561598 -0.5771028 -0.24090114 0.19280113 -0.1893746 -0.13693626 0.19466253 -0.027708035 -0.17209175 -0.46563268 -0.3884497 0.17338681 0.30321103 -0.0471962 -0.2983825 -0.055124637 -0.14677179 0.5776354 -0.07367322 0.12040143 -0.099274054 0.264759 0.008663574 0.45329714 -1.2026299 0.03203892 -0.35034123 -0.5071268 -0.25120816 0.115644276 0.4219921 -0.22080788 -0.45221293 0.31847724 -0.28781828 0.37250307 -0.06528324 -0.0532577 -0.20737964 -0.40039456 -0.22489414 0.15325037 -0.20478162 -0.25896293 0.35037202 -0.5108568 -0.17974436 0.84368885 -0.21830444 0.014687207 0.17244379 -0.3947858 0.8587047 -0.6114042 -0.22019546 0.47334397 -0.2006616
67 0.32309532 -0.09947946 -0.4910803 0.43557233 0.04393165 -0.02216594 -0.013645118 0.23909716 0.11454805 -0.64306104 -0.030526944 -0.03049208 -0.3213302 0.30074567 0.0093505 -0.18898588 0.13132156 0.052650344 0.33356288 -0.5604288 -0.60558146 -0.1991067 0.32940388 0.10862247 0.5007947 -0.0025115702 -0.32920715 -0.14746653 -0.30203974 -0.639338 -0.67779607 -0.5140012 0.5505383 0.062025946 0.56779426 0.064606234 -0.1736709 -0.30745187 -0.1357933 0.16700317 0.7008719 -0.25439566 0.2943814 -0.54796934 -0.50089556 0.44320843 0.09075529 -0.772456 -0.1834965 -0.30901396 0.18001445 0.68857926 0.22195953 0.22090004 -0.19410366 0.16763523 0.13200687 0.5992185 -0.22180063 0.10421494 -0.00013245607 -0.057773914 0.72350985 -0.11155439
47 -0.068515256 -0.08473895 0.05406571 -0.39180347 -0.30489504 0.5032003 0.10244564 0.7793577 -0.23352744 0.11105207 -0.22021787 0.48071405 -0.30961376 0.02218988 -0.17887752 -0.31143597 0.0103288535 -0.062616676 -0.2037507 -0.0025332787 -0.033783127 0.35754606 -0.16867939 -0.0030051186 -0.4905733 0.610873 -0.28070474 0.43701223 -0.56308204 -0.06290675 -0.4509433 -0.19861355 -0.2260307 -0.08748546 0.075938754 -0.5951852 -0.12891115 0.031614497 0.24842614 -0.21637812 -0.9100994 0.15285556 -0.19708678 0.27435994 0.1676864 -0.6851938 0.4217004 -0.33727935 0.40326566 -0.24961017 0.24384174 -0.044671968 0.39601597 0.24806511 -0.27952355 -0.16766876 0.04871743 0.45324415 -0.3137446 -0.52642137 0.12390589 -0.38910878 0.49010506 -0.48631215
18 0.29613948 0.33238345 0.7003031 -0.06709636 -0.5639377 -0.4197491 0.19464816 0.014682743 0.22493948 0.1798567 0.45106032 0.7368504 -0.39847684 -0.09171505 -0.37273738 -0.08857641 -0.4838247 -0.42440552 -0.68688047 -0.4103755 -0.18851943 -0.09861653 0.34202746 -0.021024749 -0.25988278 -0.30613187 -0.4078159 -0.20616382 -0.30852383 -0.05205338 0.09242731 -0.6413076 -0.4551706 0.15170145 0.22408172 -0.001122915 -0.08785508 0.16127703 -0.26623988 0.60836875 0.49204895 0.2285972 -0.29407412 0.054945454 -0.08832715 0.66630775 -0.28356856 -0.35499248 0.38134277 -0.7509847 -0.17452684 0.37735304 0.35567343 -0.56308275 0.7080556 0.40631074 0.6344513 0.1859068 0.37817478 0.19256403 -0.76135683 0.03878838 0.23000334 0.028552204
0 -0.09644453 0.12145895 -0.77625453 -0.44753578 0.7634333 -0.14685921 0.5027825 0.1898433 0.1537054 1.1168281 -0.29955605 -0.23797894 0.37875095 0.1523109 0.18694423 -0.24089238 0.5238855 0.10921444 -0.683885 0.06164979 -0.46944526 -0.13253497 -0.06866025 -0.40413415 -0.7652506 0.491349 -0.08592413 0.39209592 -0.020285727 -0.1133736 0.48395455 0.07963744 0.37511447 -0.30954102 0.2152426 -0.4703166 0.3355121 0.45775303 -0.14433102 -0.42490938 0.29962784 0.18279776 -0.036865234 -0.6318452 -0.22445233 -0.35950634 -0.16223548 -0.07099748 0.13697195 -0.825389 -0.58997965 0.13689962 -0.12919767 0.5720349 -0.07341719 0.18224588 -0.63312435 0.40740523 -0.05524484 0.5251246 0.34898594 0.14037715 0.8447295 0.04531429
62 0.71777797 0.31249276 0.034379143 0.24087079 -0.63727105 -0.037143324 0.17995709 0.08795885 -0.006351115 0.69623435 0.2937351 -0.64999354 -0.07378048 -0.11458216 -0.042706337 -0.9020171 -0.5074461 0.42916885 -0.21666917 0.5647619 -0.17105778 -0.5792511 0.01967019 0.63055915 -0.31086856 -0.13741632 -0.1349704 0.039318953 0.117731914 0.40746912 -0.5893511 -0.20874006 0.08074781 0.48364002 -0.032448933 0.037625987 0.37360126 0.31322315 0.15920918 -0.008922809 -0.28350487 0.6094602 0.29185665 0.51363325 0.55679375 -0.7227363 0.13629316 0.122434765 -0.6411636 -0.19301979 0.2775337 0.054954793 -0.18594956 -0.27137184 -0.29480252 -0.68948245 -0.38299084 -0.25001138 0.44404477 -0.2226963 0.3416164 -0.32220238 0.0515352 0.1486615
44 0.15293105 -0.007336168 0.05618965 0.0513763 0.17809653 0.4358334 -0.39632526 0.051128045 -0.19555464 -0.41661632 -0.10631426 -0.4077858 -0.42707634 -0.59216803 0.3306531 -0.25730667 -0.41082644 0.09048579 -0.24316117 -0.28363374 -0.48750705 -0.7326254 -0.027769955 -0.030164827 0.4159363 0.31525815 -0.6526634 -0.4197508 0.24598613 0.61627 -0.30400422 0.2815589 0.62638927 0.24626058 -0.0100262705 -0.07744525 -0.05124628 -0.24962938 0.31175083 0.40925586 -0.16035129 0.19576886 0.19077447 -0.29157096 -0.14301594 0.5166794 0.56732094 -0.037338063 -0.2970911 -0.8611924 -0.2273802 0.2512523 0.18861935 0.036291104 -0.2969228 -0.24475837 -0.37810788 0.5350734 0.7019798 -0.20776129 0.35035723 -0.32149428 0.06981948 -0.21300717
12 0.9260756 -0.28702942 0.2058477 0.099810146 0.18526886 -0.18651477 0.09626896 0.24260621 -0.09845469 -0.17036192 0.31024826 -0.013915267 0.29293472 -0.04570899 0.24095914 -0.47153842 -0.47660604 -0.014020491 -0.19413847 0.23616727 -0.32842687 -0.6703841 0.43285728 -0.14438665 0.60086316 0.21542187 -1.0122404 -0.8089942 0.13406025 -0.6996289 -0.07877265 -0.06681031 0.31232876 0.3117665 0.09935712 0.6193801 0.47511145 0.2884824 -0.8026902 -0.26827067 0.1735403 -0.48904425 -0.10674364 0.29485336 0.0014010892 0.87540334 -0.31855398 -0.08105668 0.21303672 -0.47807446 0.3324198 0.08747092 -0.16854015 0.035490535 -0.6508021 0.46710676 -0.02199616 0.1210077 0.4021151 -0.12046368 -0.6114538 -0.28441966 0.38865718 -0.4355265
5 0.09157087 0.012239788 0.640056 -0.6827124 -0.8524954 -0.22324392 0.41095152 0.56077266 -0.04591523 0.2822177 0.1614824 1.0864745 0.22858866 0.1703018 -0.024547858 0.27770278 -0.38575143 -0.24835157 0.5570505 0.18677981 -0.180308 0.35385013 0.11799731 0.34012377 -0.06239307 -0.20370938 0.21933024 -0.27653015 -0.57153094 0.4122672 0.08611048 -0.5352496 -0.44653067 0.44952255 0.55211985 -0.28932017 -0.36070928 -0.3426538 0.2349865 0.13260841 -0.9596838 0.27667415 -0.43447095 -0.22007215 0.13669422 -0.12448318 0.12938263 0.11292522 0.6499528 -0.011833326 -0.07141376 -0.46186355 0.022223588 0.87967813 0.075833425 -0.5334618 0.3293166 0.2267799 -0.24462295 -0.00176762 -0.8977937 -0.003820734 0.24326602 -0.09026509
29 0.24005061 0.03240616 -0.2864787 0.46943986 -0.16607523 0.10617102 0.2162571 0.2986875 0.5207873 0.5683999 -0.30093193 -0.37726152 -0.78479 0.50388545 0.02951046 -0.6636506 -0.07692418 0.63099086 0.38887677 0.5098196 -0.5158154 -0.650304 -0.1884011 -0.13761277 0.23612034 0.5641288 -0.20821816 0.42246753 0.49522313 0.080044955 -0.34034124 0.14852999 0.93076277 0.37647015 -0.12135058 0.14953612 0.83933717 -0.2861212 -0.6406532 -0.27602983 0.044755515 -0.4477951 0.45641094 0.29359445 -0.039534118 -0.5497545 -0.09427333 -0.10756981 -0.021316923 -0.0076632374 0.031501267 0.47987023 -0.49704948 -0.3039772 -0.21399876 0.23937277 0.19117878 -0.28491056 0.027587274 0.39525887 0.2826222 -0.20370373 0.07422972 -0.59665763
98 0.23250136 -0.11796503 -0.14623748 -0.18915355 -0.1923604 -0.06597998 0.3999876 -0.6110172 0.81004 0.0074077537 0.058376446 0.34856665 -0.28564888 0.47885507 -0.043265853 -0.015736727 0.05714083 0.24577017 -0.5171101 -0.14998397 0.13855384 0.66115886 -0.6382375 -0.60296583 -0.48781854 -0.42971584 0.28950813 0.5925565 -0.041123923 0.71863866 -0.3058989 -0.21318069 -0.39664668 0.368745 0.03169031 -0.28360513 -0.19628374 0.13702011 -0.41674182 0.306389 0.9111085 0.24921739 -0.5124871 0.33065236 0.12821531 0.14718626 -0.3518322 -0.025627228 0.2691198 -0.60550463 0.010750382 0.39146188 0.055545583 -0.35182714 0.26426366 -0.3332468 0.7251607 -0.2619689 0.055881117 -0.8666906 -0.13338527 -0.6607854 -0.1256963 -0.8224575
53 -0.37636715 -0.7845786 0.5957874 -0.6491921 -0.18904659 -0.4382061 -0.39282703 0.17524357 -0.3332863 0.348672 0.21132697 0.061240938 -0.071396805 0.21995084 -0.25204542 0.15322086 -0.589844 0.34968287 -0.47851974 0.777315 0.09107937 -0.06508255 0.40909222 -0.5278078 -0.1748588 0.3453394 -0.16189101 0.28818968 0.35594085 0.5549955 0.2653959 -0.39682436 0.11937954 -0.11319673 -0.58933884 -0.3723834 -0.45368364 0.6160284 -0.18373446 0.2146536 -0.4159299 0.8210536 0.2643267 -0.31908548 0.33231175 0.1227331 -0.13357759 0.1614717 -0.0002888043 -0.45427462 -0.059770856 0.036528487 0.23767461 0.13270782 0.5652148 -0.297502 0.27355018 0.19887263 0.10868598 0.13789943 -0.5719743 0.11865642 0.07641316 -0.2544809
10 -0.20956482 -0.45174897 0.07165744 -0.43198696 0.45911914 0.9071316 -0.28915846 -0.23627427 -0.33606204 0.10040934 0.057539426 -0.22198749 -0.5282062 -0.10382142 0.17621747 0.2534089 -0.11317959 -0.26372606 -0.079219736 0.27422306 -0.23430614 -0.43144235 0.16451497 0.5225745 -0.32898057 -0.032751087 -0.49317932 0.3531996 0.007434275 0.64851683 0.14328885 -0.26448306 0.85403335 -0.027891299 0.28546885 0.39228028 0.26835257 0.2551953 -0.028950434 0.087178215 -0.00096934044 0.20499228 0.11179807 -0.08518473 -0.14882383 -0.38741067 0.37317488 -0.45708522 0.36126 -1.2742919 -0.26806164 -0.44301215 0.20810144 0.13480105 0.67165095 0.46160138 0.17727445 0.40504998 0.47640884 0.6123491 -0.12132472 0.011585378 0.45065844 -0.29746073
65 0.2793182 0.22148983 -0.016565846 0.21226029 0.26826167 -0.43678752 0.07761885 -0.27184877 0.5251359 0.34224948 0.43857932 -0.33463725 -1.09458 -0.33458775 -0.09930599 0.009500423 0.27659455 0.2841251 -0.5206891 -0.703085 0.6892578 -0.32615548 0.1989714 -0.4235635 -0.39683244 0.057834778 0.2999684 0.52034485 0.19999763 0.58546597 0.38739112 0.3446945 -0.024080075 -0.012338758 0.61787 -0.21910742 0.23005341 0.31750092 -0.2656094 -0.3949913 0.27888176 0.5926742 -0.5414588 -0.19074802 0.06028971 0.25053293 -0.26318195 0.11551828 -0.26270235 0.19759896 0.4531887 0.5712433 -0.116900355 0.029562155 0.1958991 -1.1573389 -0.16025913 0.73226523 -0.21402721 -0.31794667 0.20519069 -0.43123356 -0.69188565 -0.089768566
24 -0.036746707 0.0736337 -0.23421225 0.17280658 0.23499908 -0.40512076 0.18296757 0.19013874 -0.56750715 0.41803038 0.3295424 -0.1076457 -0.43912113 0.18752708 -0.7017636 -0.92441463 -0.51301515 0.43059736 0.10543744 0.18627809 0.5442516 -0.43761078 0.3434344 0.09893065 0.5431704 0.14564869 -0.89860827 0.10935933 0.7493428 0.38200313 -0.46575722 0.07140976 0.22795522 -0.2188144 -0.64654726 -0.09079601 -0.17143025 -0.11422185 -0.018911758 0.7737372 0.12566514 0.08255568 0.04049256 -0.48329997 -0.1794141 0.6167643 -0.03501772 -0.2546385 0.08150817 -0.11792086 -0.49111584 0.6477453 -0.4755702 -0.43955436 0.42675045 -0.4735985 0.24361272 -0.19572726 0.68892664 -0.24774648 0.36184403 -0.11176103 0.022768594 -0.07178191
42 0.43221208 -0.28094834 0.4271995 -0.06626542 0.0086831255 0.11457248 0.044878703 0.542258 0.01758918 -0.13302664 -0.52536666 -0.09151829 -0.24017236 0.22353336 -0.17372574 0.9673223 0.018271565 -0.4699872 -0.103499845 -0.08584871 -0.93059033 -0.14890102 -0.23518033 -0.20541126 -0.052269343 0.27814016 -0.192625 -0.26586166 0.34642974 0.14390765 0.88325834 0.59816474 0.44230866 0.1821051 0.61954 0.15752137 -0.4483323 -0.36350903 0.22787958 -0.7855849 -0.74116117 -0.24178776 -0.54790294 0.12896386 0.13684832 0.10580772 0.36806074 -0.2642824 0.16938071 -0.017206075 -0.30058345 0.010577761 -0.117662705 0.1077422 -0.72851944 -0.1673167 -0.43708625 0.5103249 -0.5256238 -0.28367585 -0.38157988 -0.6609212 0.2642348 -0.39099538
69 0.10538293 -0.048032533 0.26865664 0.25938696 0.020358669 -0.63827294 0.5380653 0.55171484 0.18766253 0.18834284 0.75563943 -0.27297685 -0.42479613 0.580048 -0.5234756 -0.43916285 -0.38990268 0.7196254 0.21421866 0.20378615 -0.065964155 -0.6678299 0.8861503 -0.758759 0.76835895 0.13371442 0.21753325 -0.2884422 0.77946264 -0.2902787 0.18968467 0.6204241 -0.48603493 0.055904333 0.16739549 -0.1707234 0.5893956 0.3132031 0.3078183 0.17187841 0.11935731 -0.09030631 0.5817653 -0.52312946 0.21288417 0.27674866 0.5283277 -0.43821695 -0.45537096 -0.018023439 -0.4015489 -0.2473227 -0.3832857 0.20150866 0.3316002 -0.61084485 -0.48044303 0.48627478 -0.34286395 0.23156802 -0.28452697 -0.49133745 -0.19983962 -0.15699698
9 0.17025673 -0.48146105 0.84877104 -0.22505254 0.41427678 -0.14820649 0.04591482 -0.19302532 0.34783086 -0.6289427 0.15692715 0.11013479 -0.287343 0.1639983 -0.45696607 0.5280314 -0.15319982 0.58491075 0.45315066 0.010750104 -0.09643685 0.39566517 0.13813098 -0.17783798 0.2037763 -0.28895974 -0.39535427 -0.14644065 0.20498157 -0.5123359 -0.095775686 0.4962742 -0.15099987 0.35182387 0.4691665 -0.49453652 -0.29086465 -0.18525462 -0.8850082 0.11146352 0.26903918 -0.25526792 0.53390074 -0.8938189 -0.77848756 0.26541048 -0.2972945 -0.28021225 0.26995048 -0.29539558 -0.80099005 -0.31468505 -0.03843174 -0.03633711 -0.037386138 -0.015058797 -0.49738172 0.12459324 -0.53724855 0.89814204 -0.6555282 0.32379705 0.92923886 -0.55316967
37 0.41135004 0.29257333 -0.32798433 0.11939838 0.017174775 0.54252106 -0.30803236 -0.039492205 0.26632684 -0.5194952 -0.6403934 -0.25904402 -0.3405103 0.0912934 -0.10032686 -0.08230451 0.22337294 0.2510789 -0.100476526 0.13182904 -0.7661473 0.44054168 0.07208645 1.165073 -0.62501043 0.03816729 0.10030168 0.19175346 0.009094805 0.0469809 -0.89582336 -1.3995738 0.12061901 -0.10493645 0.6764243 -0.04661945 0.1339326 -0.23643616 0.6818937 -0.15649952 0.4018354 0.39046735 0.3364731 -0.28038183 0.223946 -0.939864 0.21095818 -0.49602306 0.2491274 -0.19857073 0.7709425 0.31877336 0.10266722 0.3730188 0.04188361 0.45240605 -0.46041766 0.9536847 -0.2431657 0.49265122 -0.30340502 -0.4508237 0.5783024 -0.39025578
