2352 100
无 0.222255 0.57078695 0.63973683 -0.0038523353 0.044915993 -0.15845452 0.09194426 -0.029631147 -0.29506907 -0.15951222 0.025103437 -0.10256232 -0.22996512 0.13633001 0.09497872 -0.53035545 -0.18407871 -0.2620681 -0.15275496 0.19017969 -0.47249237 0.345138 -0.18378015 0.2057527 -0.3685769 0.034573056 -0.16689213 0.20966385 0.3899866 0.12656136 0.110216744 -0.39860195 0.29606184 0.00030087578 -0.08626629 0.16524534 0.3690474 0.3383229 -0.004523589 -0.06444225 -0.416346 -0.22776616 -0.0963228 0.47607967 -0.0382335 0.030437628 -0.007794858 -0.7895538 0.25485665 0.8107009 0.611835 -0.32260326 0.3838477 0.01362116 0.07273261 -0.33558148 0.13523196 -0.35658327 -0.5597903 0.3068906 -0.43189016 0.09377505 -0.19888261 -0.20339407 0.06139614 0.67318034 -0.13966869 -0.020732537 -0.036144543 -0.37510338 0.0183596 -0.13232417 0.05212601 -0.14852035 -0.11169031 0.19844079 -0.2288752 0.34864637 -0.035379454 0.13772953 0.16132945 0.02431743 0.16423193 0.117201 -0.21058534 -0.18358158 0.05897017 0.26411897 -0.048603892 0.075540535 -0.11635947 0.3219997 -0.0855998 -0.049479015 0.076235734 0.12945922 -0.31192735 -0.0374205 -0.07515024 -0.07454155
咳 0.049346857 -0.06292856 -0.22738184 0.34803355 -0.032019794 -0.07818853 -0.04099586 -0.012169212 -0.38956052 -0.19877033 0.32326505 -0.3673436 -0.20207787 0.34627107 -0.30761385 -0.03934857 -0.2236931 -0.11537704 -0.2002083 0.20568398 -0.40526456 0.5920532 0.4086794 -0.12163576 -0.06503787 0.24966195 -0.07440918 -0.0027173746 0.20753936 0.19755763 -0.0062456257 0.1954182 0.2792206 -0.13743483 0.21923387 -0.4066281 0.3802097 0.0044732383 0.43939316 -0.1872291 0.14265619 0.38038978 -0.14705636 0.119420685 0.09682368 0.031008612 -0.06577611 -0.4006634 0.3466837 0.41150713 0.0013239584 -0.3134891 0.3588744 0.405277 -0.19211031 -0.022521006 0.39954567 -0.12672687 -0.22660224 -0.22068012 -0.25624794 -0.42796624 0.13440643 -0.38024038 -0.12306935 0.11520402 -0.34172803 0.09498704 -0.5337876 0.000260712 -0.20840392 -0.069343776 0.4312464 0.102626525 -0.116375074 0.2005239 -0.49255002 0.43097466 -0.10739952 0.06813861 -0.0016803272 -0.0133195855 -0.00095725193 -0.3836177 0.075876586 0.0052501447 -0.39449078 0.23461908 -0.31548917 0.06460982 -0.50796205 0.5158356 -0.30149725 -0.13634162 0.21133417 -0.20524812 -0.1760788 -0.008327004 0.092937395 0.20581882
气 -0.14694297 0.17465392 -0.28112966 0.015364174 -0.043164436 -0.04445929 0.11141683 0.43617705 -0.50915164 0.007052832 -0.09554981 -0.008065289 -0.18802191 0.3773869 0.43490672 0.13625705 0.21676481 -0.27933922 0.12811193 0.23654933 -0.062015496 0.34000406 0.13097587 0.09172662 0.05969179 0.2769751 -0.09315256 -0.12816355 0.24472992 0.07419118 -0.10980056 0.3899888 0.028496215 -0.3189533 0.22625607 -0.6348375 -0.01975406 -0.07108092 -0.10230506 0.3536027 -0.05603676 -0.023350032 0.0892254 0.2837935 -0.36118722 0.3006622 -0.19098727 0.11692849 0.28159606 -0.004274482 0.33711907 -0.24011388 -0.14372048 -0.13421832 -0.22058468 -0.093705684 0.25362566 -0.08725068 0.18737274 0.385544 0.040372502 -0.031057237 0.4025825 -0.5182388 -0.570281 0.47688136 -0.47450396 0.14455226 0.06501779 -0.055848278 0.07990308 0.30227873 0.064180724 -0.05272341 -0.017109154 0.18021278 -0.1221267 0.14371502 0.33652884 -0.42968708 0.3609982 0.19361787 -5.6270128e-05 -0.16245352 -0.33527973 -0.25244987 -0.24877085 -0.0609159 -0.012439174 -0.17384252 0.12629081 0.866476 -0.1325096 0.05337575 0.3861279 0.020146262 0.1351916 -0.16354015 -0.009790773 -0.17697069
性 0.19109696 0.32798618 -0.48313546 0.042284064 -0.14928107 0.15444425 0.13065599 0.5119482 -0.15774049 -0.50157213 0.011478592 -0.15326504 -0.013906809 -0.22393447 -0.15572885 0.13638872 0.2558252 -0.24270037 -0.5392148 -0.043761645 -0.030850803 -0.49917257 -0.2641355 -0.36377692 0.60082227 0.16298464 0.08498853 -0.6220748 0.27167314 -0.02491096 -0.01532997 -0.05962154 0.4856909 -0.7863971 -0.06644915 -0.081397615 0.289302 -0.32441503 -0.17753796 -0.763272 -0.30616865 0.08575255 -0.44665822 0.10401596 -0.4494045 0.043797802 -0.4029647 0.004045095 0.06567135 0.12919351 0.07237625 -0.2381757 -0.15927394 0.18807225 -0.121515445 -0.29776803 -0.48318833 0.02819701 -0.15401691 0.50989217 0.008333659 -0.09510474 0.5064578 -0.04947314 0.14950582 -0.22113153 0.08965928 0.009396896 -0.51980835 -0.4512729 -0.034104742 0.084505215 0.16414653 -0.32823876 0.48266196 0.293075 0.048064202 0.7270294 0.27635735 0.013478234 0.43312937 -0.3409219 0.22614291 -0.21118014 -0.45411792 -0.06959184 -0.3642834 -0.52211946 0.01733174 0.5137239 -0.48096517 0.20629731 -0.3918414 -0.19755992 0.19896531 -0.42079547 0.0277088 -0.41596004 -0.42337817 0.29934996
痰 0.06420963 0.13301876 -0.019549703 0.3534396 -0.11125484 -0.21169883 0.29526904 0.08438085 0.0017135814 -0.3452992 0.24852084 -0.09629071 -0.08662293 0.14829099 -0.46237537 -0.069417596 -0.056016006 -0.11511318 -0.052310377 -0.11690868 -0.4315383 0.85399204 0.62606394 -0.30431384 -0.1581422 0.15562601 -0.035213396 0.17918594 0.4040195 0.19259182 -0.07988921 0.17806785 0.15756704 -0.10740884 0.27045292 -0.22222084 0.33356783 -0.11293732 0.2675463 0.18308133 -0.131499 0.47261968 -0.074507065 -0.013920178 -0.027067246 -0.10340805 -0.27898395 -0.37917218 0.34658483 0.16788986 0.03545241 -0.1424788 0.34575304 0.31670758 -0.45074552 0.006134473 0.24866234 0.15749504 -0.39511746 -0.31147283 0.083556965 0.07121522 0.035600506 -0.47420722 -0.14497536 0.091414995 -0.35926384 0.36293507 -0.16488631 0.04274522 -0.12119923 -0.13901557 0.07927694 0.007991868 -0.19428135 0.3183335 -0.71327746 0.035324197 0.11319127 -0.04458091 -0.102158315 -0.05965033 0.10691894 -0.12606797 0.014247431 -0.17339613 -0.38362297 0.097344354 -0.2562687 0.114425264 -0.49491444 0.73589414 -0.24104896 -0.19795313 0.41271207 -0.30957764 0.10182287 0.13741045 -0.15006576 0.16916086
院 -0.018060138 -0.034015197 -0.4250452 0.09055885 -0.23692125 0.2550712 -0.5365689 0.22677279 -0.018066205 0.5172005 0.16606373 0.22766624 0.07496713 0.48397973 -0.111427955 -0.13870245 0.12698199 -0.3768816 0.07844396 -0.29963738 -0.24753506 -0.29492024 0.2782334 -0.31453636 -0.20351467 0.3053428 -0.008970623 -0.14585257 0.0018042964 -0.4467063 -0.5029121 -0.13205346 0.092003986 0.11781982 0.4586678 -0.005179341 0.19357026 -0.4135574 0.37758562 -0.16184376 -0.23001356 -0.07338845 0.04735765 0.058352582 -0.010777532 -0.1424859 -0.15508549 0.28230938 0.2505901 -0.27228138 0.16103542 0.07449262 -0.20295557 -0.07878315 0.018731728 -0.37677938 -0.1612169 -0.020491222 -0.26686755 0.29164386 -0.21972719 -0.18665883 -0.1932123 -0.23055705 -0.19306102 0.40188828 -0.34059203 -0.0074362173 -0.23425522 -0.42212117 0.03775638 0.32827726 0.030676989 -0.4614049 0.2633576 -0.45859724 -0.030336773 -0.09864723 0.23834348 0.38269284 0.5848471 -0.0022781065 0.045802284 0.121551454 0.13355753 0.34641445 -0.041030776 0.17440106 0.33470136 -0.21604584 -0.4498435 -0.15318619 -0.23437743 0.2505118 0.08935222 -0.22423081 0.3705587 0.026820153 0.22374384 -0.05786566
诊 0.16128351 0.06310209 -0.03200908 -0.17194252 -0.32408264 0.054861546 -0.13135183 0.24433804 -0.195223 0.31255683 -0.02727019 0.04768243 0.028027732 0.50279856 -0.036992487 0.10950239 0.31805217 -0.3858172 0.2504393 0.046845242 -0.113675594 -0.31830654 -0.25440115 -0.48404875 -0.14548017 0.13322937 -0.15822701 -0.29856032 0.31825215 -0.5869447 -0.60233015 -0.46212158 -0.17640434 0.21937148 0.064236075 -0.02494143 0.0019267421 -0.61591256 0.542637 0.04842616 -0.3934043 -0.0713502 0.20394863 0.02613967 -0.30998302 -0.3298419 0.075055994 0.30805364 0.1225142 -0.37818283 0.20842448 -0.054859065 -0.12129127 0.19733295 0.35993403 -0.44738787 -0.14602579 0.46338516 -0.2912924 -0.024091331 -0.28100064 -0.31073332 -0.11900769 -0.25028616 -0.09623971 -0.013865472 0.016370596 0.26431623 -0.50925505 -0.018498948 0.13620923 0.29926428 0.08774172 -0.38668415 0.16115828 0.10984952 0.2012629 0.24441887 0.25323072 0.54614455 0.3038627 0.12024401 0.116334066 -0.22288279 -0.024644038 0.25407586 0.045907382 0.14577197 0.4818505 -0.01533823 -0.10421974 0.07347127 -0.5420744 0.18187211 0.41993764 -0.22578205 0.32476512 -0.089052 -0.1529573 -0.09784139
后 -0.065229364 0.14445768 -0.06861933 0.08748947 -0.43221515 0.15306203 -0.29629114 0.05429998 0.008265985 -0.029744959 0.24287462 -0.3585906 0.091452 0.12704693 0.29763865 0.34534055 0.04045953 -0.15077345 -0.08785118 -0.18417886 -0.1666387 0.247017 0.089178786 0.0017530301 0.011687773 0.3790547 -0.42427942 0.009896694 -0.20732948 0.019237982 -0.16116321 0.13368869 0.26002675 -0.12958404 0.19057502 -0.29393494 -0.03713217 0.3419897 -0.17836577 0.36936978 -0.08765055 -0.1836815 0.09865908 -0.21426822 -0.28613573 -0.48058748 -0.04919936 -0.16347286 0.49783343 0.043754593 0.16615035 0.059619296 -0.16743922 0.30307415 -0.6085157 -0.1308747 0.1821017 0.089001946 0.0071765427 -0.2050298 -0.106587395 0.13669191 -0.15490204 -0.09399881 0.07455766 0.14057744 -0.25193918 0.12290332 -0.020588059 -0.05711621 -0.030869223 0.2260495 -0.39352688 -0.35869923 -0.3141985 -0.007923633 -0.06661161 0.36235815 0.44876844 -0.23965494 0.40445405 0.1337726 0.22683017 0.13121241 -0.3012705 0.06551063 -0.43828258 0.448967 -0.4011486 0.35335857 -0.1696965 0.2628014 -0.10590723 0.043449216 0.17281859 -0.17646152 0.16471969 -0.06597324 0.026629655 -0.15895998
发 0.4385742 0.21431647 0.2212627 0.49049267 -0.4814059 -0.072680846 -0.028736416 0.042933784 -0.33780444 -0.18810986 0.18656464 -0.30912918 -0.1813542 -0.16410942 -0.16401502 -0.48070666 -0.21870312 0.006677432 -0.117691666 0.05482766 -0.0051782927 0.19281027 -0.14445372 -0.19929455 -0.01743744 0.23726398 -0.26418948 -0.4305585 0.08770691 -0.0552918 0.018792639 0.21077646 0.47926337 -0.5657622 0.39841017 -0.03419392 0.15047742 -0.017374303 -0.043006726 -0.236338 0.092697434 0.005213332 -0.24812083 0.37489498 -0.3882408 0.3427217 0.10971997 -0.43126857 0.09180402 0.17287214 -0.07081939 0.13243888 -0.28858447 0.276259 0.16190451 -0.25989714 0.009819581 -0.091306664 0.22572961 0.2750002 0.20247437 -0.51354104 -0.6232138 -0.05712329 -0.40726733 -0.03826782 -0.1956565 -0.20678292 -0.070760466 -0.14430235 -0.14173909 -0.16258593 -0.1453913 -0.21626301 0.6223444 0.3331031 -0.37704262 0.25294238 0.09318057 0.35297242 0.3565182 0.21752197 -0.2840261 -0.40952355 0.07060448 -0.2568762 -0.25868645 0.2704809 -0.13736273 0.011380366 0.22746415 0.19728947 -0.4623188 -0.365777 -0.038763523 0.10960302 -0.13172093 0.13246985 -0.162906 -0.07203088
出 0.13384914 0.24149516 0.24716823 0.44575477 -0.23828809 -0.052936565 0.25164366 0.20188577 -0.11568582 0.14782259 0.1174892 -0.6626364 -0.29997608 0.09809545 0.07566662 0.19898577 -0.11749356 -0.3488155 0.03543611 0.40247983 -0.2859942 0.6782185 -0.06790577 0.033249293 0.3775195 0.5263184 -0.15912274 -0.008696434 -0.09959984 -0.099859506 -0.1143906 0.018379288 0.43299308 0.10069665 0.08867113 -0.13460913 -0.017767608 -0.1263747 0.11503434 0.10791183 0.07363774 0.19806235 0.23812747 0.055664673 -0.35864997 -0.5471699 -0.23137566 -0.07750716 0.6784753 0.067457564 0.0040188003 0.036540806 -0.038443767 0.28729963 0.0688215 0.29291958 0.23132344 0.09968676 -0.04199633 0.16354255 -0.09289629 -0.18354261 -0.22345471 -0.11770314 0.1511302 0.17950468 -0.33939266 0.29057965 -0.12847123 -0.18603043 -0.39293525 0.056100886 -0.088544264 -0.28802165 -0.16519956 -0.25485122 -0.64750797 0.50106883 -0.31428486 -0.23438278 0.120770864 0.027957631 -0.12265237 0.27465212 -0.2617441 0.24340948 -0.27978796 0.12035684 -0.27525315 0.24360903 0.022049638 0.16039404 -0.07679166 0.06178412 0.1627601 0.02235641 -0.21500584 -0.23153985 -0.2256363 -0.11562562
治 -0.13524722 -0.27169952 0.17292586 -0.096172296 -0.25500995 0.06141049 -0.07212794 -0.050170217 -0.110275686 0.4471219 -0.0011286044 -0.028754627 -0.01438186 0.5252368 -0.12070572 0.3284582 -0.089841776 0.07183785 0.0059053944 -0.12471532 -0.16285786 0.049176637 0.3699766 -0.41192117 -0.5605391 0.18172956 -0.31498337 -0.18270853 0.044672955 -0.7135567 -0.53389096 -0.13220519 0.08582434 -0.21870127 -0.07683361 -0.73576146 0.07073418 -0.38709778 0.47768548 -0.08806945 -0.1016176 -0.22273152 0.3531186 -0.026082534 -0.085239746 -0.29725364 -0.063901685 0.4139942 0.13820103 0.0638609 0.22462988 0.31401226 -0.04991387 0.13825025 -0.34380606 0.057616588 -0.07105802 0.0749205 -0.102356575 0.41265786 -0.49771675 -0.010154218 0.019386154 -0.33294135 0.09132195 0.32868353 0.3210669 0.2672671 -0.4616557 -0.032963995 0.19811627 0.3142421 0.15496877 -0.038474996 0.61766154 -0.22009785 -0.2068735 0.42083022 0.47469044 0.3607668 0.43892494 0.3516284 -0.23049249 0.20945814 -0.0826723 0.42054754 -0.5345649 -0.06841597 0.078462645 -0.20149833 -0.30484027 -0.13083357 0.002989549 0.109766774 -0.22721489 -0.3077506 0.34210926 0.40233284 -0.19510154 0.032772556
重 0.7040546 0.16654295 0.04567296 0.21834406 -0.00135556 0.013528654 -0.23594421 0.43471888 -0.17981814 -0.14353004 0.10365301 -0.11610834 -0.4599197 0.6137012 -0.05532677 0.3032955 -0.09921628 0.1568369 0.5397539 0.14743325 0.19499612 -0.08488579 0.13452479 0.22721498 0.087617174 0.37591845 -0.70201916 0.22578175 0.22317527 0.32616562 -0.22776403 -0.5083184 0.10862723 -0.27920568 0.053512458 -0.057320107 0.008440734 -0.09554143 0.3046813 -0.09833558 -0.102758706 -0.39237663 0.026702177 0.14856361 -0.13491754 -0.15859926 -0.036050398 0.15746534 0.115651086 0.14904457 -0.17710662 -0.3877252 -0.04336448 0.18414165 0.1800949 -0.0056082257 -0.525724 -0.1179537 -0.14849956 0.27121726 0.060199317 0.19912834 0.35336173 -0.29275164 -0.11843878 0.03394422 -0.26561737 -0.6915348 0.10240671 -0.24179849 -0.07009242 0.20103653 0.3385439 0.32811245 0.35854113 -0.3032692 -0.24840707 0.11573773 0.17350961 0.039887562 0.093465485 0.15630147 0.15417784 -0.42832902 -0.24823706 -0.29417738 -0.054129038 -0.109439135 -0.8527576 0.11745579 -0.10735118 0.45768228 0.1384038 -0.14985642 0.5049037 -0.4228192 0.05867797 0.4406798 -0.8590705 -0.18271881
患 0.0022361977 -0.19169344 0.53229374 -0.16528963 -0.41044632 -0.31332985 -0.5626683 -0.33986378 0.003331854 0.10885983 0.17168716 -0.26949233 -0.2899401 0.3046028 0.044129398 -0.29711857 0.21313193 -0.116755836 -0.5579862 -0.38866344 -0.32607907 0.14003235 0.3237364 0.10767025 -0.0606551 0.61651117 -0.29589424 0.26161203 -0.0067289826 -0.11516843 -0.33109638 -0.51547164 0.33104265 -0.1387645 0.073941864 -0.20030192 -0.04825179 -0.06200965 0.3251339 -0.073179506 -0.24823798 -0.37961164 0.18032464 0.14072083 0.1487711 -0.04263267 -0.37926692 0.02041694 0.47051942 -0.10541672 -0.090959944 -0.010582552 0.41081074 0.12555958 -0.25793973 -0.19216013 0.4606901 -0.13211943 -0.08108713 -0.10629211 -0.622541 -0.1852816 -0.11086737 0.2217494 -0.19263887 0.10511671 0.1329703 -0.42102578 0.43868846 -0.1523026 0.20928411 0.067073 0.00011699528 -0.27490988 0.0009666227 0.1478234 -0.0028100843 0.56576926 -0.16631712 0.22097829 0.119537726 0.053900473 0.18029274 -0.15786812 -0.011882937 0.116076894 -0.39837995 -0.4906789 0.00810479 0.050131332 -0.27437633 0.28105634 0.15930738 -0.06498268 0.18203717 0.11542711 0.14136443 0.092858836 -0.2239676 -0.30804765
者 0.0008712841 -0.43657735 0.22553755 0.17019293 -0.5229788 -0.29054862 -0.5449798 -0.12644078 -0.048630282 0.5058645 0.2397667 -0.37901387 -0.13060972 0.4509802 0.13543223 -0.7319214 0.10944626 -0.14645132 -0.32658988 0.060793202 -0.45733202 0.104870036 0.3000013 -0.0060740015 -0.37091973 0.24055384 -0.39826462 0.2836777 0.34187913 -0.08552576 -0.43372294 -0.079890825 0.29455593 -0.09442332 0.065445825 -0.1769577 0.13133839 0.12311376 0.43133092 -0.16373147 -0.33146137 -0.40129972 0.12313692 -0.149933 0.33458528 -0.041894168 -0.03636857 -0.24220464 0.5144934 -0.07301662 0.18180586 -0.18577644 0.41494533 -0.09036101 -0.18255214 -0.25102022 0.46092153 -0.21183147 0.28350225 0.24026804 -0.28555617 -0.060971614 0.05412476 0.10805865 0.11637604 -0.25401506 -0.14834012 -0.17186747 0.48039004 -0.19780934 0.2768905 0.13396397 0.10584185 -0.26655963 -0.1429992 -0.2597847 -0.34639218 0.18202488 -0.09925192 0.100067854 0.25229016 0.30561405 -0.008675415 0.013534098 -0.043141562 0.22506697 -0.31303325 0.027678672 -0.16413562 0.011103672 -0.10334023 0.094816215 0.19526465 0.03082197 0.43908516 -0.052187562 0.1111989 0.087894626 -0.6086937 -0.31437165
疗 -0.101923674 -0.30695564 0.36864904 -0.22230734 -0.1141494 0.23057353 -0.03381387 -0.34209296 0.11763182 0.42050466 0.1849666 0.013590236 -0.29430494 0.80973935 -0.30850774 -0.20112158 -0.14964335 0.010665944 -0.17940049 -0.03210562 -0.06861536 -0.2457233 0.36783037 -0.23114093 -0.23988 0.2763306 -0.22994722 -0.042423803 0.27176264 -0.49756107 -0.15888743 0.0770245 -0.2048298 0.13855238 -0.12192131 -0.58820564 -0.013851786 -0.31438416 0.46498114 -0.33270904 -0.02831334 -0.5220656 0.46698505 0.0052175517 -0.21009478 -0.38068184 -0.08941653 0.3926902 0.44547403 -0.22884937 0.34741908 0.1900777 -0.16959186 0.10987279 -0.20845899 -0.14498922 -0.19652812 0.4951387 0.05386559 0.08577711 -0.38865742 -0.1505438 -0.40793496 -0.18459311 0.047901604 0.3763269 -0.05779693 0.15359962 -0.48365378 0.04926108 0.10613161 -0.025816023 0.03539433 -0.3638929 0.43418774 -0.1612825 0.27699387 0.26933414 0.22371554 0.1740843 0.53734165 0.16066118 0.10698454 0.5087107 -0.059598897 0.36152077 -0.2743318 0.07313711 -0.18420492 -0.0634676 -0.33103442 0.00878361 0.06593116 0.30600926 0.15093045 -0.13617189 0.47303286 -0.03463119 -0.019096958 0.079459004
明 0.32085264 0.44947302 -0.115175396 0.022455316 -0.14308695 -0.30590928 -0.35138243 0.056619853 -0.35158783 0.09973303 0.03327416 -0.13051982 -0.16560273 0.24747486 -0.027036486 -0.15922238 -0.008086246 -0.13762051 -0.00965705 0.047638338 -0.21238554 0.5669133 0.15303776 0.26402962 -0.022808617 -0.48899272 -0.4338289 0.12463091 -0.315476 0.424008 -0.26907864 -0.041398533 0.51236075 0.16341914 0.020835845 0.016231393 -0.032102123 0.0043813647 0.4592916 -0.15914688 -0.058813203 -0.18906929 0.03928426 0.2548353 -0.1806008 0.11183346 -0.48086888 -0.12314111 0.43779945 0.28386497 0.38504735 -0.41282266 0.017156135 0.19915327 0.04119119 -0.2544724 0.3192803 -0.7195668 -0.028232204 0.0132260695 -0.45209947 -0.08115456 -0.022885544 -0.10903618 0.10420632 0.74039257 -0.17644142 0.28422198 -0.26346213 0.08131256 0.23232813 -0.21373938 0.10999424 0.09226196 0.076523945 0.020109726 -0.14282136 0.087266415 -0.111973606 0.14271952 -0.17315806 0.08821119 -0.15428449 0.044688847 -0.06488666 0.16374229 -0.2995903 -0.33035925 -0.3501277 0.3656464 -0.13623746 0.5780594 0.26873064 -0.1317504 0.13609329 0.23267221 0.36032194 0.13824812 -0.38397494 0.06979353
显 0.57808226 0.5822522 -0.18909404 0.13239002 0.09579985 -0.17074557 -0.04736171 0.22316343 -0.3556013 0.21529238 0.069947354 -0.15018085 -0.054488022 0.020414853 0.12477378 -0.15322389 0.11475614 -0.28323925 -0.009348634 0.4586647 -0.41247252 0.41035014 0.19000916 0.41401753 -0.15158743 -0.08622636 -0.36713886 0.45343852 -0.41859156 0.23473376 -0.18133602 0.052290555 0.51263446 -0.18334658 0.24688233 -0.12177607 0.15465114 0.10272329 0.37623507 -0.05754636 -0.47353882 -0.108911484 0.14180969 0.5254894 -0.5045807 -0.012373166 -0.22181064 -0.100598946 0.722856 0.3502894 0.14773439 -0.2211166 0.14085808 0.12721102 0.015940344 -0.3604164 0.09060866 -0.22828022 0.22032113 -0.10701066 -0.44871318 0.06474902 0.023861883 -0.45407984 0.025508113 0.28413284 0.065038726 0.002168801 -0.10331806 -0.38829118 0.1488068 -0.16534388 0.34156623 -0.23874463 0.26010495 -0.23893718 0.035807688 0.2715823 -0.26529476 0.16481373 -0.19369464 -0.13136987 0.12016512 0.13228199 0.2476752 -0.06636727 -0.057921752 -0.112018734 -0.41468245 0.21880998 -0.115356974 0.5645982 0.33938482 0.082868166 0.084333 0.21977113 0.11985038 0.05905365 -0.17683187 -0.17324312
肺 -0.32898685 0.3163386 -0.07626665 0.049149152 -0.11655778 0.22721845 -0.65676945 0.27167106 0.26737937 -0.15444352 -0.23605712 0.013222002 -0.5732452 0.042655844 0.1876189 0.023849493 0.5996273 -0.31085882 -0.16938837 -0.20447394 0.23200564 -0.41871855 -0.2529015 -0.29748496 0.14443463 0.24047738 -0.7216203 -0.27831835 0.73366886 -0.6748231 0.0977844 -0.20397721 0.003020707 0.047156107 -0.28106576 0.23524006 0.28559583 -0.1981843 0.42186877 0.03776328 -0.02718624 -0.11906075 0.06709153 -0.25918898 -0.38815635 -0.5897833 -0.23604785 0.12430305 -0.03335468 0.79660195 0.08503452 0.37948638 -0.14479536 0.09947099 -0.19399495 0.3309034 -0.047575817 0.32741004 -0.12658101 0.16112277 0.074483275 0.039698668 0.46398428 -0.14723428 -0.22815326 0.20010255 -0.02300564 0.5047901 -0.12253366 -0.32537678 -0.17794958 -0.10819033 0.47919154 -0.5308089 0.7275038 -0.1051432 0.3791695 -0.0009126928 0.49190474 0.085783474 0.12520036 -0.27569467 0.61616987 -0.792883 -0.207312 -0.09802312 -0.052025944 -0.30377984 0.3298158 0.6406558 -0.8289404 0.14648671 -0.6512294 -0.010343022 0.42023134 0.14434473 0.1846922 0.031912018 -0.5033373 0.005630306
现 0.4394942 0.13199075 0.13504264 0.121132255 -0.50008345 -0.060717694 0.044974647 0.1251554 -0.030843131 0.13475381 0.49960396 -0.2947231 -0.19510108 0.0595732 -0.14614387 0.22604439 -0.04270435 0.10508266 0.054959595 0.49296248 -0.36037645 0.51002604 0.16100506 0.067072 0.20957597 0.17420104 0.0027566585 -0.11915294 0.18624471 0.009333867 -0.035609085 0.34258583 0.30738425 -0.017547125 0.35578808 -0.3085327 -0.055730704 0.18373816 -0.16403426 -0.035021756 -0.056480475 -0.1518466 -0.19059792 0.5070319 -0.16135532 0.2196579 -0.32728234 0.0007664128 0.24948348 -0.26941326 -0.18585163 -0.27503592 -0.22540267 0.5184613 0.10596109 0.15254954 0.1378995 -0.39052185 -0.10492593 0.08141747 -0.35485485 -0.21918996 -0.11668177 -0.066797584 -0.19256748 0.37547413 -0.24795136 0.26445335 -0.11370069 -0.045749735 0.33351755 -0.26713142 0.37583104 -0.3474793 -0.33915272 -0.4011849 -0.007149737 0.56925124 -0.4608708 -0.021582648 0.25127214 -0.40529174 0.096970566 -0.10410749 -0.2248812 0.18279676 -0.67964286 0.47358415 -0.12289483 0.13057315 -0.28394115 0.20793341 -0.24487828 -0.10841637 0.40817028 -0.016292213 0.14079085 0.33611718 -0.09885737 -0.032535527
前 0.21698233 -0.23700666 0.40762618 0.175159 -0.2210695 0.42898715 -0.3543437 -0.01156073 -0.3175663 0.33994085 0.17013206 -0.57332015 0.2631271 0.1454983 0.003023671 -0.19344448 0.12020617 -0.01061384 -0.055832293 0.23863073 -0.42447355 0.2656123 0.06345219 0.07438558 0.011041977 0.45834413 -0.541077 -0.3247693 -0.15458569 0.2598836 0.032139577 0.42914635 0.004873649 0.07021168 0.29323173 -0.27907437 -0.20784527 0.25658962 0.36802205 0.007410082 -0.06625793 -0.28647548 -0.09093905 0.035178497 -0.18024883 -0.000677564 -0.23568313 0.19677462 0.493702 0.2641593 0.42377073 -0.013342987 0.25236815 0.14020136 0.17368726 -0.4690072 -0.06473297 -0.23451273 0.28271 -0.32418793 -0.31306493 0.09641186 0.10478435 -0.19455133 0.1269315 0.04191077 -0.01728009 -8.239721e-05 0.07884525 0.2620319 0.03376528 0.04758264 0.14489627 0.1054872 0.004745191 0.29094487 -0.38408813 0.55067044 0.049090907 -0.2221638 0.27071124 -0.4001043 0.09574817 -0.215555 -0.2890934 0.059827313 0.009177209 -0.29916015 -0.20267174 -0.034287896 -0.41931042 0.1276472 -0.11470745 0.06685353 0.31386018 0.53523767 0.2320712 0.22462149 -0.23167892 -0.5010852
嗽 0.29013753 0.01678163 -0.10051861 0.2009672 0.0012283039 -0.45196828 -0.16367523 -0.044150993 -0.23572353 -0.10295911 0.20857176 -0.6834091 0.14291753 0.3837089 -0.1634813 -0.2774892 0.3881733 -0.26171193 -0.09133206 0.42052117 -0.50118816 0.31411797 0.33039123 -0.050035674 0.15501665 0.21713325 -0.0057210308 -0.26127738 0.08644365 0.13402376 -0.15103361 0.116971835 0.53569216 -0.123955905 0.42247045 -0.31889647 0.002031633 0.23552921 0.29355806 -0.08650815 0.21116334 0.32278508 -0.13829088 0.24019736 -0.18831003 -0.2527818 0.010709709 -0.38997942 0.36375982 0.4672567 -0.10174027 -0.22151391 0.381169 0.32160375 -0.06597602 -0.1051758 0.25838166 0.27394757 -0.121025674 -0.26307702 -0.2193758 -0.5661131 0.077941164 -0.17940246 -0.012432617 0.32729787 -0.28829673 -0.054332282 -0.60209346 0.07552263 -0.09576114 0.052743092 0.40555748 -0.0557359 -0.16467768 0.174225 -0.41593358 0.31441092 -0.38394734 0.07244739 0.1367458 0.03187224 -0.067115605 -0.49488997 0.088518776 -0.103903346 -0.260745 0.24630636 -0.37577355 -0.01466747 -0.33092368 0.41955575 -0.05517669 -0.25034344 0.12717123 0.1001742 0.21938823 0.09316548 -0.14053598 0.18815672
胸 0.0985297 0.11566844 0.25133753 0.13654955 0.0537745 0.0012886617 -0.21610275 0.5436461 0.13695537 0.087606065 -0.18195677 -0.0033011534 -0.1876595 0.23821513 -0.092522204 -0.34251583 -0.33895466 0.009283618 -0.008463837 0.21286823 -0.50418794 0.21854775 -0.22269835 -0.067492045 0.18623924 0.07632533 -0.027505618 -0.24894196 0.4062288 0.4284539 0.42963347 0.14667483 0.6816242 -0.68513685 0.32919753 0.041304044 -0.13611078 0.14997886 0.004150747 -0.19320032 -0.6123072 0.11775016 -0.033346925 0.20682886 -0.50246274 -0.07120812 -0.37112027 0.071126424 0.19617648 0.22114804 0.073949195 -0.41857085 -0.10623592 0.13565114 0.042095017 -0.20514168 -0.13246626 0.29846883 -0.2856008 -0.06335307 -0.085077524 -0.098998114 -0.21819901 0.026461557 -0.42328408 -0.046876784 -0.056221172 0.5272753 0.28803575 -0.07716434 -0.48175108 0.0076786564 -0.2853103 -0.36941677 -0.2267444 0.30074066 0.18657085 0.2082853 0.5132801 0.35683432 0.073912285 0.2648273 0.19187656 -0.1247754 0.1859337 -0.45408183 -0.14983855 0.15579014 0.3338891 -0.28218985 -0.027275752 0.4221727 -0.027510928 0.017188117 -0.34776458 0.2314393 0.15838943 -0.068454795 -0.016889311 -0.36143738
病 -0.11040505 -0.11693717 -0.64598316 -0.23463951 -0.24877496 0.2970148 -0.17636877 0.102259286 -0.12529509 0.20826355 0.2318511 -0.4762104 -0.27597424 0.21344762 0.306599 -0.019465415 0.01241421 -0.23083162 -0.24558976 -0.0031551283 -0.16948906 0.054460835 0.22004572 -0.2935331 -0.25425202 0.69572014 -0.2943279 -0.3444477 0.22820053 -0.6983726 -0.40666318 -0.16776356 -0.034723148 -0.34660617 0.0966374 0.26138037 0.31534633 -0.6169987 0.19143951 -0.5843933 -0.58759123 -0.058300715 0.090190865 -0.021325637 -0.52646214 -0.17798874 -0.036139727 -0.1365183 0.14669687 -0.06518954 -0.113028795 0.363894 0.25105822 -0.077197604 -0.2990273 0.18746302 -0.20731264 0.19233395 -0.18321694 0.13763742 0.21350352 -0.21478935 0.4904053 -0.36362585 0.3606241 0.054857112 0.19275434 -0.54774356 0.4378781 -0.35430402 0.109495044 -0.5399322 -0.11228705 -0.6166996 0.6406319 0.0435914 -0.01299383 0.13722624 0.51426274 0.28255495 0.15323663 -0.4655955 -0.14845958 -0.61334723 0.10374713 0.18883209 -0.18300857 0.25290957 -0.2014594 0.14952424 0.26070333 -0.14290309 -0.2405652 0.23399223 0.12053732 0.88194406 0.0006499213 -0.14699976 -0.23863955 -0.24851237
年 0.026990535 0.32712576 0.07570199 -0.003482979 -0.3214489 -0.038777314 -0.16707493 -0.17878284 -0.5145307 0.26665154 0.29048315 0.18885717 -0.1851394 0.5088873 -0.031614292 -0.24022228 -0.10167886 -0.3067264 0.046221174 0.37453243 -0.5224578 0.10784936 -0.07683923 0.16867904 0.1664117 0.15824075 -0.29422095 0.24268952 -0.24707298 -0.06979205 0.2955347 -0.19420217 0.046251312 -0.29766956 0.22675753 0.20900086 -0.12223674 0.02792872 0.5826539 -0.4088169 0.13925762 -0.23721296 0.13784167 0.3181707 -0.4607679 -0.443086 0.17749004 -0.1597999 0.1347784 -0.16552593 -0.14890154 -0.081094325 -0.08530261 -0.14261775 -0.0011064395 -0.21435788 0.4973666 -0.13969576 0.14695512 0.06823855 -0.28129742 -0.24515669 0.05761383 0.027681474 -0.029695302 -0.103330925 -0.38126713 -0.26772535 -0.3795629 -0.31996226 0.527137 -0.008415679 0.15931277 -0.24168363 -0.16903664 -0.016852893 -0.34661716 0.44263637 0.29846647 -0.56076115 0.26239887 -0.17848948 -0.10381641 0.06435612 -0.18688472 0.13682696 -0.19930229 -0.4376364 -0.07613222 0.3517289 -0.526121 0.4100814 0.119098514 -0.030927906 0.20432058 0.24640533 0.11399275 0.15602659 -0.6149586 -0.34975398
症 -0.41136944 0.0593232 -0.06006114 0.015037744 -0.37802106 0.11236194 -0.008622351 -0.01306655 -0.22761905 0.09143053 0.28692558 -0.07442065 -0.017427357 0.5631731 0.42079812 0.25895047 -0.11088229 0.17417088 -0.4209315 -0.06995951 -0.58836037 0.17130893 0.17079131 -0.14568081 0.06717691 0.29063916 -0.5011085 0.072516024 0.1359789 -0.40169275 0.20462175 0.12992527 -0.16457902 -0.13356291 0.2716237 -0.5230765 -0.17401242 0.09667066 0.31955644 0.43006405 -0.35561427 -0.0814295 -0.16213958 0.20034844 -0.056596834 -0.18882428 -0.19792151 -0.18495834 0.2288287 0.026652303 0.061142 0.029566338 -0.1453759 0.4902549 -0.07697818 -0.39579624 0.1664796 0.32396683 0.12580732 -0.35736698 0.32155466 -0.07298139 0.05567168 -0.15497002 0.2728535 0.10950259 -0.28939408 -0.14346136 -0.0456947 -0.14387885 -0.022343501 -0.2069502 0.1495555 -0.042475708 0.39343467 -0.13071258 -0.5284434 0.1501916 0.42177966 -0.018820798 0.21864827 -0.03229513 -0.056768812 0.19036156 -0.02852209 0.14292659 -0.53858286 0.00031052288 -0.15491484 -0.039264318 -0.1580432 0.402561 0.1163673 0.08260373 0.21824093 0.13332246 0.22442427 -0.025534196 -0.07053012 0.33518595
促 0.09466927 0.24714242 0.019657893 0.066247754 -0.23762119 -0.2995877 -0.44797164 0.032630336 -0.511153 0.117806 0.13096996 -0.61524653 -0.14063984 0.0150837535 -0.053021256 0.30761394 -0.17800519 0.28143796 0.03050784 0.24003509 -0.42119503 0.24467313 0.25335833 0.3401322 0.094121516 0.18559301 -0.07916702 -0.257114 0.15811782 0.32542673 0.0011302965 0.14254348 0.17765504 -0.20757678 0.27525344 0.08815023 0.013874361 -0.015235623 0.43626684 0.32416892 -0.26138648 0.26408055 0.2774093 0.17548278 -0.31873277 0.14295389 -0.30914322 -0.007824142 0.37066463 0.28317195 -0.0911535 -0.38415623 -0.12871341 0.0093366895 0.03956746 0.20226492 0.24419877 -0.06852668 0.3051486 -0.123378776 -0.471943 0.16139153 -0.05109785 -0.36199144 -0.24087037 0.20977022 -0.48198065 0.3364776 -0.1436565 -0.55176675 -0.16378087 -0.123714745 0.06817018 0.14725842 -0.316307 0.03299061 -0.15427764 0.13438208 -0.009404609 0.16324243 0.46092632 0.26710594 0.46979448 0.18627088 0.12096878 -0.08100626 -0.11501434 0.22478087 -0.39005643 0.05117221 -0.27664495 0.37565973 -0.2475156 0.11895147 0.15742317 -0.18882206 0.26426432 0.10615742 -0.035214145 -0.06878941
为 0.47788647 0.047578014 -0.41744626 0.037880637 -0.23737362 -0.3756772 -0.3807916 -0.06477226 -0.27390903 -0.04848785 -0.15870221 0.05174271 -0.20343842 0.51300186 -0.1792798 0.055608913 -0.47892967 0.058855303 0.4246125 0.5604928 -0.21739887 0.1454106 -0.104154885 -0.04670504 0.2547188 -0.30739895 0.16883856 -0.33575365 0.22504641 -0.34726882 -0.0729352 0.2196344 0.10996515 -0.0055464357 0.2089687 -0.4879638 -0.3385389 -0.2897488 -0.30889222 0.1974766 0.07931026 0.21977724 0.43552515 -0.042511094 -0.54301196 0.20942707 0.16376059 -0.20173052 0.2427419 -0.017971171 0.17550467 -0.010088459 0.19726424 0.4753549 -0.16153517 -0.38554275 -0.40163833 -0.119799994 -0.45903596 0.20574027 -0.13626797 -0.22472842 0.12852682 0.1739865 0.12005167 0.005971257 0.084240295 0.4276419 -0.6981787 -0.13398632 0.061390787 0.2556228 0.17581421 -0.43358907 0.32642883 0.065007284 -0.23651806 0.55567884 -0.05984164 0.20398912 0.0670509 -0.52339435 0.20187418 -0.21101454 -0.4771925 0.13062476 -0.17646137 -0.24440388 0.29151526 0.0032832243 -0.1995594 0.10096015 -0.43542522 0.3535825 0.26180774 -0.332842 -0.113547295 -0.35765055 -0.35403666 0.27865684
痛 0.5156426 0.18732426 0.38586584 0.35795176 -0.022883102 -0.040707387 0.20247541 0.021662416 -0.113357745 -0.22150768 0.15544824 -0.02507978 0.18344356 0.0630928 -0.06806298 -0.067200474 -0.51960605 -0.2665068 -0.030542675 -0.48779142 -0.7040747 0.31690404 -0.38351515 0.47848377 -0.055664543 -0.3282114 -0.22442329 -0.41552317 0.66817534 0.049352463 0.13591298 -0.10984458 0.3756298 -0.06666628 0.47729915 0.13227116 0.36831564 0.28196615 0.3025334 -0.5349902 -0.6788031 -0.3562885 0.1949356 0.18569736 -0.4546712 -0.28950855 0.22928022 -0.5632338 -0.01904195 0.777877 0.1860908 -0.16021273 -0.12514447 0.09179783 -0.12940767 -0.16476737 -0.15083365 0.13022971 -0.5085711 0.060580056 0.085440814 -0.028956726 0.2774412 -0.22688727 -0.016102903 0.33875358 -0.21854198 -0.20857745 -0.1083741 0.0020666574 -0.16181892 -0.08892358 -0.06627858 -0.16211553 -0.4872322 0.010255554 0.055554613 0.49956855 0.26847264 0.55368316 0.1747936 0.27744302 0.020840093 -0.09036944 0.037134998 -0.120210595 -0.15463337 0.6558959 0.31783766 -0.14456055 0.35666183 0.1434407 0.1261943 -0.0114187375 0.011371411 0.105871625 0.01545022 0.20026498 0.19374846 -0.20238271
加 0.48814481 0.32528102 -0.08345792 0.06110748 -0.13948648 0.3980388 -0.57622975 0.24985005 -0.14249529 0.13714327 0.0066377087 -0.4307705 -0.27095133 0.26511553 0.16306587 0.2979161 0.048148077 0.25851586 -0.46447346 0.007119675 -0.0740196 0.34270662 -0.02296373 -0.08962472 0.48878852 0.038727596 -0.07747698 -0.1294963 0.5971992 0.17385602 -0.12858643 -0.1002453 0.5856645 -0.12325874 0.1948405 -0.33292806 -0.32309484 -0.15735053 0.28889406 -0.38623977 -0.036066506 0.31716293 0.30022052 0.044294782 -0.36798126 -0.5133428 0.19401525 -0.12321958 0.38647398 -0.3278401 0.27345082 -0.20488416 -0.304223 -0.18446395 0.2687151 0.30093753 -0.28703272 0.10390927 0.2764981 0.014890584 -0.036633193 -0.32020003 0.33136895 -0.46560347 -0.17365344 0.2862978 -0.26339832 -0.5386265 0.25470796 -0.66626513 0.45323488 -0.004981149 0.31673342 -0.028361669 0.042600445 0.25975522 -0.06669326 0.015033406 -0.27421385 0.15870692 0.19773942 -0.062419128 0.0048932927 -0.13703962 -0.72255486 0.10276159 0.07994843 0.3719796 -0.44501686 -0.13233306 -0.12676951 0.54619306 -0.23672174 -0.16503993 0.5044412 -0.5324336 -0.4890371 0.14441301 -0.24610232 0.48557046
状 0.27006832 0.17938933 0.065920584 -0.100806065 0.037386645 -0.07437973 0.025348699 0.031882692 -0.26856247 0.43025777 0.3020149 -0.102656454 -0.019366235 0.2639219 0.22602102 0.47688115 0.0056880563 0.14975804 -0.3676464 0.15736915 -0.6275684 0.17439133 0.5292818 0.32922268 -0.0068514463 0.22988868 -0.6850585 -0.11841448 0.1127267 -0.26740414 0.08350928 0.09147746 0.036695942 -0.12207866 0.07072706 -0.11957634 -0.48440737 0.17494607 0.16548766 0.26183033 0.009915432 0.026755769 0.03049718 -0.15119064 0.17069368 0.006070562 -0.5359199 -0.3866473 0.25814548 0.2293043 -0.07594893 0.44751304 -0.494337 0.68408245 -0.49852273 -0.43829545 0.101044275 0.24166569 0.2549253 -0.38418037 -0.01859712 -0.19196473 -0.10654952 -0.0678704 0.25967592 0.15487596 -0.19608983 0.1743848 -0.12972225 -0.32709953 0.19416457 0.072178766 -0.21038058 -0.07100108 0.5840992 -0.16286446 -0.39434147 0.14098251 0.22734252 -0.18129784 0.25124055 0.23472333 -0.110867925 -0.08655501 0.12026918 0.19220474 -0.22571741 -0.023570752 0.19527523 0.100555114 -0.52906615 0.2803997 -0.22127897 -0.039643995 0.57696575 0.23443237 0.08747139 -0.069788955 0.061595257 0.24066848
我 0.09777698 -0.17493562 -0.022808015 0.22219114 -0.59623706 -0.5098121 -0.33135673 -0.17308503 0.103781834 0.03499769 -0.09038177 0.18271118 -0.1937645 0.73550886 -0.33196488 -0.15793675 0.23875012 -0.5993941 -0.14866242 -0.18382232 0.07960489 -0.40384355 -0.18694252 -0.33103818 -0.12033005 0.45656437 0.0770577 -0.1437608 0.14219297 -0.2068414 -0.21190637 -0.33550897 0.4490539 0.24609485 0.61630374 -0.11739639 0.24185292 -0.8717699 0.45736086 -0.05756044 -0.62392735 -0.17134523 0.07620142 -0.14078924 -0.23633188 -0.17267026 0.08146539 -0.21323314 -0.04160092 -0.33313727 -0.10819368 0.18275826 -0.50107616 0.19062401 0.069005385 -0.13963689 -0.42743427 -0.30772436 -0.34208968 -0.03212982 -0.2739552 -0.25925073 -0.15671091 -0.39655888 0.1193203 0.091744006 0.3603644 0.55396914 0.18594931 -0.22872502 0.4012163 0.08617639 0.29617298 -0.17546102 0.117453605 -0.24781998 0.17590043 0.10783432 0.52921706 0.3791451 0.6523633 0.1627531 0.09497544 -0.18330896 -0.2887089 0.050781593 0.13245106 0.024968809 0.37095514 0.2209144 -0.02071912 -0.059688106 -0.35729226 -0.077220745 0.37995932 0.25400308 -0.09209427 -0.1518813 0.12732948 0.12372126
体 0.075107574 0.6675525 -0.025153857 0.19584876 -0.4322849 0.016767455 0.0693803 0.27480263 0.00856133 -0.13765594 0.31400937 0.3394146 -0.6853259 0.9372798 0.22808556 -0.4618667 0.14836363 -0.3097928 0.0047051376 0.018549467 -0.80478233 -0.12872218 0.067243606 0.187057 -0.115479566 0.24101016 -0.5875033 0.2839817 0.041192103 -0.40059078 -0.25899538 0.6089971 0.45901567 -0.15600124 -0.09724529 0.00590775 0.4194209 0.35518318 0.43349203 -0.18840572 0.4385939 0.15227032 0.050234176 -0.013800018 -0.37847173 -0.4986071 -0.6187124 0.33103564 0.24703515 0.21213411 0.40565565 -0.64158106 0.020881603 0.15106517 -0.50928235 -0.6676128 0.018780066 -0.27042228 -0.45658663 -0.37920153 -0.22688702 -0.15344135 0.14264913 0.22217825 0.025803762 0.304075 0.63319284 0.0076234206 0.19294785 0.20612967 0.4665995 -0.3957768 -0.01023012 0.31674513 0.05664865 0.09882506 -0.23438646 0.06101778 -0.17856391 0.09988749 -0.35949412 0.5718341 0.5601311 -0.39873537 -0.230576 0.104883604 0.35866857 -0.39397728 -0.6765682 0.110045105 -0.19556963 -0.018132795 0.46106672 0.4485507 -0.041211374 0.14796717 -0.4338586 -0.052834332 0.15846911 -0.031761877
可 0.06068902 0.5879109 -0.03636073 0.7548921 -0.3531986 0.09720507 -0.40652654 -0.2693286 -0.49485686 -0.4721941 0.36527008 -0.112476565 0.20330828 0.035339333 -0.05242308 0.085743725 0.026751112 -0.07255187 -0.15021473 -0.23758817 -0.44288024 -0.106878236 0.3320132 0.388652 -0.009268799 0.12978122 -0.35924265 0.29853645 0.018203558 0.16029115 -0.18249889 -0.18254869 0.34529683 0.17424016 0.044064205 -0.36815596 -0.058580995 -0.23821722 -0.25581565 -0.051709443 0.16799305 -0.17245881 0.16698605 0.024326205 -0.33871502 0.7417354 -0.19827019 -0.21678267 0.29618916 0.07956361 0.31939465 -0.052011333 0.1110398 -0.039879855 -0.49671474 -0.3206402 0.8227722 0.19508007 -0.0012303402 -0.12000501 0.1447643 0.12498179 -0.032531023 -0.31938055 0.32371223 0.50284475 0.014055523 0.32765904 0.03632464 -0.32794112 -0.4231378 0.14067172 -0.072205044 -0.11794146 0.5663375 -0.3859855 0.16038601 -0.081488565 0.50255835 -0.09070074 -0.028581217 0.2953224 0.105991535 -0.24629276 0.17422359 0.5624089 -0.057529792 0.011871963 -0.662574 -0.05693851 0.13542655 -0.26908672 0.26130402 -0.136819 0.32513326 0.24960257 0.01999463 -0.19123714 -0.24931383 0.2714302
于 0.3221498 0.1270449 -0.117089465 0.08342234 -0.19201706 -0.45528743 -0.29034993 0.24480538 -0.39584765 0.27486983 0.11630751 -0.27669325 -0.01770263 0.27297866 -0.37233496 0.11501485 -0.035499543 -0.3653982 -0.07998116 0.1878563 -0.12188403 0.31116682 -0.14088506 0.02448674 0.11464329 0.06283749 -0.37777546 0.22959855 -0.06859497 -0.23074032 0.07321207 0.34276497 0.12923788 -0.011708556 0.33167714 0.10358596 0.2298374 0.07787328 0.22680205 -0.009407927 -0.07348427 -0.07595116 -0.047750607 -0.19074279 -0.2948726 -0.30783314 0.29496923 -0.08417298 0.21259488 0.051510468 0.054970242 -0.5363837 0.11711795 0.114268824 0.23479359 -0.48539332 0.14370684 0.011571324 -0.22569105 0.06507871 0.18196101 0.11913584 -0.2880224 0.28233546 -0.44904533 0.29811707 -0.08025217 0.0019722495 -0.17359081 -0.40502876 0.21670753 0.22489344 0.3026116 -0.38706914 -0.22497714 -0.07396751 -0.3280678 0.21364832 -0.035862043 -0.113445304 0.32780808 -0.1547428 -0.36212534 -0.049089845 -0.34319374 -0.09269272 0.05581719 -0.70126474 -0.15671514 -0.10205826 -0.34018737 0.21667024 -0.10079028 0.19361146 0.08141553 -0.0017207304 0.4376014 0.2793611 0.022032337 -0.4957369
血 0.109212175 -0.004552012 0.3772353 0.023955988 0.09192147 -0.25174144 0.37311745 0.27332628 0.0012365688 0.05681695 -0.21779603 0.09143425 -0.31763923 0.0432316 -0.22954708 -0.24635395 -0.019256935 0.25628138 0.22401896 -0.0118253045 -0.43776459 -0.059634715 0.43857908 -0.18092543 -0.08569858 -0.10911949 -0.08366989 0.115562506 0.1670698 0.5749718 0.11953212 0.23267485 0.75105476 -0.1399902 0.3909901 -0.0037870335 0.4506845 -0.12804171 0.058472127 0.025546309 -0.385754 -0.41824788 -0.43388537 0.030792214 -0.19091517 -0.16550848 -0.4948472 -0.5485123 -0.13553984 0.15441747 0.47823796 -0.0981713 -0.080331154 -0.22631302 0.12324342 0.08476053 -0.44128892 0.082164496 -0.92559755 -0.30587015 0.1518223 -0.17761426 -0.2568013 0.01656642 -0.20549427 -0.13690944 -0.5290094 0.16777821 -0.24871822 -0.10307711 0.20240618 0.2266072 -0.24164228 -0.44250557 0.07231643 0.29711872 -0.008707246 0.10679413 0.26338825 -0.16205175 0.09425001 -0.01730609 0.033959977 -0.3618161 0.061055783 0.04340814 -0.017319709 0.47883764 0.25297114 0.13903438 -0.047971494 0.01858013 -0.2912148 0.27400932 0.21439375 0.2518785 0.23145656 -0.0075663454 -0.1334102 -0.11537747
伴 0.44359905 0.5073219 0.36365047 0.0821681 -0.25798035 0.63681936 -0.008974032 0.16466868 -0.26215592 -0.20909074 -0.026453484 -0.43779296 -0.07092304 0.123460844 -0.007656119 -0.1447613 -0.24288803 -0.24682401 -0.14146915 0.08364884 -0.05339044 0.25942177 0.08489094 0.28849307 0.1286353 0.20777316 -0.25617614 -0.4018175 0.5822293 0.4519336 0.10839571 0.094591245 0.2062783 0.15151408 0.30582067 -0.06809393 0.059112065 -0.114714034 -0.2597005 0.10383724 -0.15958859 0.079413705 -0.4252089 0.5380228 -0.21261166 0.18007132 -0.21251854 -0.4612723 -0.034913175 0.27690056 0.16349724 -0.40255156 0.19276026 0.3399913 -0.40449682 -0.11425187 0.020105414 0.26899403 0.084157355 0.13806404 0.26589182 -0.20735909 -0.030748714 0.11288501 -0.31609827 0.27154794 -0.369366 0.29425517 -0.2944801 -0.0037600363 -0.011505087 -0.2575711 0.48452374 0.11723124 -0.14902258 -0.02265395 0.037695237 0.40923828 -0.18481022 0.13837996 0.31794593 0.062093694 0.2778129 -0.18344145 -0.03233217 -0.2868905 -0.33133096 0.5622254 -0.1903569 -0.28628996 0.020277837 0.4021311 -0.39643613 -0.046413187 -0.18106566 0.030808305 -0.42756656 0.12588377 -0.34380746 -0.09684775
一 0.042144146 0.0062653134 0.11147546 -0.12168688 -0.6873209 0.07932 -0.054555546 -0.1757213 -0.34212226 -0.021149466 -0.10164147 -0.46100762 -0.55284464 0.11377588 -0.2752891 0.009991959 -0.22984622 -0.043823086 0.30337128 0.25068185 -0.49155173 -0.7333868 0.014979374 -0.21183306 0.00032062054 0.18531068 -0.11500036 0.067865044 -0.022846544 -0.26969486 -0.36085978 -0.18162355 0.2846366 0.14646992 0.6894555 0.70598143 -0.46811166 -0.14932577 0.0019312693 -0.31878713 -0.04318722 -0.5410734 0.21226147 -0.13235846 -0.040014736 0.6260494 -0.25795588 0.19686893 0.69062084 0.093854174 0.2576843 -0.33585122 0.35798436 0.3909923 -0.37992355 0.019221753 0.16882418 0.19683383 -0.479904 -0.25910577 -0.23963217 -0.3383601 0.15331505 -0.6928672 0.29254526 -0.06314614 -0.06159703 0.66542995 0.19971348 -0.05861063 0.2500023 0.20956822 0.033157196 -0.48074174 0.48103172 -0.50418335 0.11841883 -0.24252641 0.06685213 0.5552727 0.11751225 0.49231464 0.15133625 0.14867759 -0.12752183 0.28557757 -0.12714714 -0.5830199 0.027729955 -0.0034402085 -0.07763795 -0.12455591 0.052965876 -0.12757744 -0.11321048 -0.279671 0.3557313 -0.15408291 -0.40260294 -0.07473553
不 0.11829715 0.28652385 -0.078927726 0.17218497 0.1116876 0.16707821 -0.35330546 -0.20501046 -0.26538906 0.51325506 0.5255171 0.06688525 0.13924363 -0.20008557 -0.45100564 0.17816652 -0.2130378 -0.3777449 -0.15216199 -0.14370306 0.00462677 -0.13070107 0.13820183 0.30827203 0.08885906 0.64146346 -0.43109608 0.12362803 0.32300705 0.100495644 -0.16919482 0.15760657 -0.024030121 -0.08784376 0.021826662 -0.34452838 -0.011941466 0.3780747 -0.26685014 0.53974205 -0.31517652 -0.23533583 -0.16451243 0.3739325 -0.50733364 0.07747388 0.009860818 -0.43950197 0.2022618 0.16775239 0.3409206 -0.14097562 0.14356251 0.34720978 -0.049202774 -0.084513426 -0.10667712 0.28727874 -0.3897165 -0.26389158 0.0927003 -0.44843566 -0.02385099 -0.22700125 0.17700611 0.36953318 0.0018370477 0.35823753 -0.09052666 -0.33943826 0.2338107 -0.15227051 -0.06202645 0.016954243 -0.33025125 0.04654896 -0.22893322 0.124154404 0.5189322 0.24757877 -0.112846814 0.24619406 -0.09219743 -0.011387252 0.039900612 0.6036408 0.21983595 -0.06876447 0.027813042 0.12004794 -0.14098585 -0.09525285 0.042276308 0.24179375 0.075150244 -0.22477613 -0.100153685 -0.18722497 -0.29160476 -0.13767469
感 0.13892838 -0.06141913 0.3080638 0.13158685 -0.30639607 0.031082856 0.0608685 0.41860422 -0.01684921 -0.02598641 0.52933896 -0.013663838 0.24857587 0.17531978 0.30384946 0.313357 0.080871835 0.09142867 -0.50832534 -0.18129545 0.18194571 0.4745192 0.21847239 -0.018337911 0.06640897 0.1847092 0.12413714 0.3327323 0.5239179 0.1919718 -0.43861803 0.37553433 0.10206418 -0.013490764 -0.083653465 -0.55642974 0.008547814 -0.24896276 -0.21691582 0.19190322 -0.009557259 0.013947893 -0.061149303 0.10984518 -0.30642453 -0.15957724 -0.10850107 0.19522166 -0.11013994 0.29781595 0.2597348 0.08755848 -0.18662336 0.07908119 0.42095056 0.28406566 0.32343024 -0.15488479 -0.17810865 -0.11014762 0.034664907 -0.19219218 0.15630952 0.04151478 0.08894341 0.122940004 0.08125852 0.1402528 -0.057717245 -0.12254109 -0.10688016 -0.059506502 -0.31997672 -0.5601783 0.383261 -0.16899914 0.21549334 0.30077383 0.6415569 0.43170318 0.3250621 0.25231364 0.103011794 -0.50799894 -0.35813007 0.021080205 -0.40230682 0.22310965 -0.66520095 -0.024963882 -0.25836605 0.78081924 0.05496358 -0.0025513705 0.45761663 -0.41141304 -0.08956598 -0.2171828 0.16528077 -0.26863107
多 0.4310659 0.067402385 0.07091392 0.251834 -0.019164944 0.2635859 0.12024765 0.04675266 -0.4072365 0.23893078 0.20210494 -0.21296939 0.14945282 -0.0031337854 -0.21919453 0.1381628 0.412639 -0.08369679 0.42061365 0.14311703 0.01746625 -0.1020106 0.42494112 -0.025655994 0.24429893 0.16947043 -0.1897774 -0.10020018 0.17545937 -0.033876825 0.25926018 -0.12390361 0.23439339 -0.08947866 -0.000154325 0.2996793 0.15683788 -0.30269215 0.039107393 -0.27177984 -0.046810463 0.108939394 0.21817863 0.12865421 -0.4217176 -0.49028242 -0.098205686 0.17741321 0.46843034 0.07280188 0.12536305 -0.35014352 -0.025467161 0.12470809 0.1999396 -0.20520441 0.4340859 -0.32487884 0.017328205 -0.53885555 0.35931048 -0.028717725 -0.04574359 0.57782984 -0.1524405 0.04579975 -0.002277158 0.45295787 -0.11502347 0.11751618 0.0943506 0.48008335 0.17271714 -0.2615789 0.32495695 0.21956831 -0.44903192 0.06927395 0.38586667 -0.087506376 0.29908007 -0.6382361 -0.36526886 -0.16748571 0.0843426 -0.26815778 -0.48357219 0.12485134 -0.051447447 -0.039499782 -0.028089873 0.56317 0.051388536 -0.39504263 0.101138026 -0.066902265 -0.29358584 0.09324773 -0.08750443 0.33157736
热 0.2928532 0.06320394 0.33547035 -0.24950315 -0.4328176 -0.58491373 -0.3393911 0.42669725 -0.10176275 -0.063759066 -0.03923768 -0.3179006 0.1266563 -0.052058913 -0.21941335 -0.01765937 -0.17599654 -0.30691618 -0.1288999 0.06767089 -0.55344254 0.03440496 -0.13553739 0.27725407 -0.10296206 -0.24337505 -0.23176514 0.37515694 0.36622798 0.06680131 -0.3550604 -0.069339454 0.27295583 -0.034271862 0.26594442 -0.23602411 0.59251136 0.10525643 0.15655133 -0.15596625 -0.07933102 -0.040463284 -0.23075163 0.61784524 -0.22911704 0.023114517 -0.23050979 -0.45887843 -0.07179522 0.32568896 0.23746534 -0.55511624 0.12663922 0.002469732 -0.24343488 -0.080038674 -0.25482267 0.41309825 -0.20338805 -0.36765838 -0.39597055 -0.061008498 -0.06366427 -0.105988406 -0.24418372 0.06834956 -0.4443483 0.123707734 -0.05994921 0.124232255 -0.24901773 -0.10355126 -0.19892932 -0.3281238 -0.14846228 0.31660852 -0.6744434 0.036665604 0.31761026 0.2466811 0.22557761 0.13786875 0.20149326 0.093938306 0.10721147 -0.11785289 -0.6021283 0.6962075 0.24479224 -0.25094846 -0.19991913 0.2619009 -0.35378966 0.27680117 -0.024477158 0.26912174 -0.34806812 -0.09856243 0.24113701 0.13311669
间 0.09363868 -0.041068614 -0.4602661 -0.19620767 -0.5915504 0.42295492 0.1587304 0.01792439 -0.47663388 -0.12345158 0.33185914 -0.10764445 -0.33283246 -0.028230924 -0.26952386 -0.4429015 -0.014653203 -0.07388201 0.096445985 0.26315337 -0.3711915 -0.25280517 -0.4564611 -0.3747291 -0.040928837 0.28213176 -0.26431113 -0.00947652 -0.0673701 0.68319273 0.25511372 0.06779733 0.062413815 -0.01513285 0.27948618 -0.13016559 0.03669792 -0.123109035 -0.16545929 -0.26989794 0.25964954 -0.09963895 0.13437407 0.38990974 -0.48625958 -0.2928504 -0.58154213 -0.48811117 0.06337202 -0.043780003 0.08417114 0.20669734 -0.02960956 0.27293593 -0.096184745 0.11678454 0.29592785 0.38770238 -0.5401587 0.25482047 -0.057864167 -0.16038434 0.08526219 0.338332 -0.14143653 0.24837852 0.04622892 0.053282842 -0.15628397 -0.28053427 -0.5314177 -0.3121998 -0.046675306 0.20793378 -0.023777338 0.5407916 -0.3786533 0.22547233 0.21930732 0.31178564 0.51729023 0.066123806 -0.2140394 -0.08768802 0.4167267 -0.29992852 -0.1632877 0.038168 -0.20385633 0.21141715 0.047695022 0.34546632 -0.03606263 -0.1482998 0.35406998 0.1369979 -0.31972045 -0.06590007 0.09709854 0.16324298
吸 -0.37248567 -0.26894337 -0.0648479 -0.21020965 -0.42315236 -0.16714895 -0.026144816 -0.49377927 -0.41087887 0.050079837 0.0592756 0.058029104 0.1208763 0.1344335 0.08471498 0.0016561522 0.25599402 -0.2364261 -0.0532941 0.5482797 -0.38580033 0.4305882 -0.5700022 -0.6093732 -0.043151893 0.4115012 -0.041651558 -0.17477253 0.43143737 0.43886033 0.05028628 0.085573174 0.5557924 0.2535862 -0.22974545 0.094736055 0.3822108 -0.2534946 -0.010726019 -0.58740574 -0.17547539 -0.30910555 0.0031907812 0.2945606 -0.2713124 -0.011949494 -0.4914227 -0.29428086 0.040581603 -0.07789328 0.16356428 -0.35685515 -0.29996055 -0.1953139 0.21577176 0.006752366 0.043802973 0.28908408 -0.17470978 0.3369769 -0.054184698 0.27332303 0.3624838 -0.16813481 0.06506133 0.45580858 -0.020962106 -0.15620604 -0.28785297 -0.30290517 -0.27279437 0.46606284 -0.77043444 -0.10642658 0.6489935 0.4163076 -0.084324785 0.34458977 0.4274549 -0.13617104 0.3314755 0.7196326 -0.050795235 -0.3195069 -0.3113379 0.10502187 0.16644265 0.31416225 0.019164795 0.15824369 -0.17258443 0.34027153 -0.041587573 0.37310827 0.07864093 -0.05798441 0.25897625 0.09096524 -0.02022342 0.7724692
以 0.3425602 0.17089236 0.10529289 0.06225512 -0.42243746 0.049070176 -0.14724235 0.08838224 0.17088386 -0.2632286 0.17884377 -0.28395292 -0.16326052 0.4509151 0.18067814 0.10716171 -0.1402152 -0.12887308 -0.052873373 -0.35733864 -0.21437967 0.23328829 0.20568748 -0.24791709 0.14377108 0.34682006 0.16056418 0.26499477 0.35069653 0.072064854 -0.356558 -0.020930143 0.17415363 0.20398931 0.237016 0.26422805 -0.19738792 -0.32716557 -0.031678297 -0.7890545 0.25146836 -0.004239983 0.06879431 -0.3262556 -0.24835123 0.18961304 0.5181548 -0.45587522 0.19821867 -0.111027494 -0.16478878 -0.09582408 0.10615296 -0.1183986 -0.24840982 -0.09384185 0.14632879 -0.3014434 -0.18275656 -0.03714268 0.17776659 -0.61220783 0.46178287 -0.21126562 -0.031239439 -0.2847094 0.5687207 0.19306643 -0.0030861592 -0.11711628 0.14841066 -0.0758449 -0.041186936 -0.21634881 0.38884503 0.10977694 -0.2585751 0.36998925 0.85866886 0.28744268 0.45124137 0.119479306 -0.14946909 0.07756368 -0.13164945 -0.17183909 -0.5423602 0.049240574 -0.1756919 -0.15056363 0.0674491 -0.20656441 -0.6286578 0.52948976 0.3464556 0.083309636 0.24094021 0.6422351 -0.12672082 0.47198388
予 0.34029618 0.17710762 0.03997943 -0.11420282 -0.32550448 0.18564793 -0.401049 -0.047612038 -0.20442605 -0.1770559 -0.09714252 0.25603884 -0.14689435 0.37671837 0.36779 -0.30151483 0.25789765 -0.07166388 -0.14860837 0.028857788 0.20508818 0.03542184 0.39152166 -0.336023 -0.054728188 0.13835156 -0.4910651 0.06049201 0.060755126 -0.33050537 -0.30427936 -0.06119784 0.24343556 -0.119675525 -0.6017313 -0.07542104 0.03797242 -0.32293049 -0.32292107 -0.030033108 -0.5137042 -0.10448157 -0.15055418 -0.26218057 -0.043412887 -0.2917261 0.012546845 0.64825255 -0.29538405 0.079457484 0.6264952 0.46759322 -0.30800602 -0.063401625 -0.04072997 0.17616506 0.3323077 0.6081581 -0.5501603 -0.27003482 0.18069719 0.2506289 -0.065117076 0.16753906 0.19197273 0.43401653 -0.12841651 -0.15440048 -0.67864585 -0.061004344 0.421629 -0.63517016 -0.25134298 -0.08088637 0.10446863 0.08568022 -0.072008595 0.117110774 0.09353877 0.24914476 0.37816116 -0.05865275 0.117144935 -0.18892808 -0.27585122 0.30329347 -0.0781118 0.0840399 0.3092119 -0.26540264 -0.329258 0.23982972 -0.53642166 0.23233806 0.1142658 -0.07437342 0.5266149 0.34712642 -0.1270508 0.0054373983
动 0.37615636 0.5274151 0.0884892 -0.17962311 -0.075846076 0.16534357 -0.038418014 0.89713305 -0.32438922 0.31713557 0.021264967 -0.07760308 -0.3439924 0.33096138 -0.47491026 0.05795841 0.5702531 -0.20297986 0.03510979 0.2647461 -0.019453313 0.2775518 -0.10163103 0.5288751 0.35120612 0.1773754 0.20446868 -0.3839554 0.46949157 0.38645184 -0.08040623 0.72359693 -0.059955433 -0.2660621 0.5721665 -0.0724315 -0.5447547 -0.31576753 0.3722457 0.4396131 -0.24760559 -0.123601 0.41479 0.32518667 -0.28187844 0.07911284 -0.18802541 -0.04766899 0.1274261 0.36048397 -0.27799314 -0.3480509 0.14964953 0.098644905 -0.17322932 -0.14905353 0.38802472 0.1636917 -0.3016552 -0.2065508 -0.104522064 0.10218348 -0.16535755 -0.09843328 -0.17702927 0.36713228 -0.26963887 0.3752131 0.015984144 -0.41313112 0.39873028 -0.15435414 -0.43051034 0.43741328 0.16476248 0.088141546 -0.11957772 0.43574348 0.03895202 -0.3270254 0.2009754 -0.031591654 -0.080993325 -0.14071147 0.19341688 0.059080463 -0.37218797 0.2861525 -0.5216908 -0.22215204 0.015753256 0.18729457 -0.22436227 -0.24896838 -0.13214846 0.020004839 -0.21619889 0.06439698 -0.6691598 -0.22176583
来 0.28662774 -0.23713443 0.36919582 0.26924825 -0.69624317 -0.1750704 -0.5473853 -0.06477601 0.03920477 -0.12295624 -0.19393648 -0.697133 -0.28475508 0.1683156 -0.12573592 0.18874508 -0.5658098 -0.10102577 -0.24622108 -0.32340086 -0.5950565 0.047072127 0.09732531 -0.014947853 0.023642266 0.15881884 0.012907437 0.023652688 0.42120138 -0.036942013 -0.61839294 -0.17403822 0.49434367 -0.33967158 0.07757063 0.57228166 0.11225775 -0.62467223 -0.07455925 0.010727443 -0.360743 -0.5898657 -0.26700896 -0.043659035 -0.110188216 -0.18220995 0.042247124 -0.028255578 0.34684113 -0.20566058 -0.1259169 -0.0835103 0.2812561 0.55410093 -0.06572461 -0.47698453 0.14780915 -0.2295257 0.2415293 0.09828742 -0.3201094 -0.053122133 0.033192802 -0.3002559 -0.0035253123 0.24783796 0.6129359 0.12817335 0.5747477 0.034118846 0.603265 0.14380793 0.12452501 -0.020885604 -0.00728433 0.036810752 0.05054522 0.06980573 0.22679658 0.23324068 0.77591366 0.17426714 -0.0281738 0.2671182 0.03083543 -0.30779907 -0.16361813 -0.1060959 -0.035871845 0.26086274 0.03818091 -0.16286382 -0.17706059 0.045215756 0.41670963 0.11343338 0.85155886 -0.36434942 -0.29866943 0.25558835
有 0.19498065 0.3288395 0.082484975 0.1719289 0.00083208963 -0.0751498 0.036450155 -0.1981307 -0.09072362 -0.30603057 0.08472304 -0.25083613 -0.05482957 0.2746419 -0.2406542 -0.1569215 -0.0067623607 -0.2623048 0.35726973 0.13561806 -0.16093566 0.33680618 0.28185123 0.19051827 0.2818674 -0.10887432 -0.24657547 0.03219102 0.5194318 0.25728127 0.32594115 -0.09271872 0.08716595 0.06624179 0.19336607 -0.26499143 0.05422728 -0.050646693 0.02814817 0.46479306 0.24319911 -0.09253101 0.05360236 0.54665875 -0.43369806 -0.07589521 -0.16213362 -0.4098656 0.13410556 0.19778807 -0.013566485 -0.07612665 -0.07451107 0.38678542 -0.37106198 0.21399619 0.2968387 0.18527445 0.026980331 0.0029663786 0.015325802 -0.28132385 0.0018379588 -0.03314098 0.39779562 0.56553334 -0.43900883 -0.031029092 0.09367107 -0.4145923 -0.18570419 -0.30225098 -0.06241144 -0.33903846 -0.098417275 0.063301824 -0.20494659 0.528811 -0.08403204 0.26331016 0.123321 0.29410183 0.27451956 -0.35288987 -0.030791832 -0.1182645 -0.22494714 0.13459949 -0.26053673 -0.118594155 -0.2026868 0.036487605 -0.15899712 0.1825581 -0.052498184 0.021367101 -0.26537392 -0.2276378 -0.09826116 0.1579812
复 0.4658795 -0.12625009 0.17005426 -0.059651434 -0.26220888 -0.37178135 -0.33489195 -0.21656546 -0.23956878 -0.32423878 0.0023407533 0.2198118 -0.055937584 0.119946666 -0.35235608 -0.25736254 -0.049528208 -0.44398537 0.01660156 -0.16948926 -0.57493067 0.2693764 0.1899214 -0.22835457 0.11242721 0.31629503 -0.52914304 -0.19315928 0.21110207 0.22849108 -0.13771321 0.122801945 -0.08104002 -0.40113658 0.42689517 -0.50783086 -0.23268709 0.010783244 0.4781122 0.037554167 0.31637886 0.15069479 -0.1190081 0.053548865 -0.16436388 -0.7087719 0.078487925 0.45561793 0.6110929 0.22265969 -0.06764836 -0.30593324 -0.08918803 0.0031082896 0.033857644 0.14672598 0.31269595 -0.3612784 0.13620728 -0.06565855 -0.20282216 -0.09060709 -0.1754324 0.011301217 -0.19034457 0.23541181 -0.14091727 0.12039861 -0.054101434 -0.32429138 -0.07471142 0.18420117 0.05035712 -0.6996637 0.011939314 -0.17015733 -0.34936476 0.16090135 0.20051458 -0.12553678 0.45717263 -0.21594453 -0.9667912 0.1570376 0.18368582 0.2889319 0.011616533 0.20373538 0.0036408133 0.25064123 -0.72932434 -0.05710379 0.23855829 0.17265236 0.2759647 -0.030494034 -0.11966432 -0.09141168 -0.12568834 0.1511965
天 0.30881187 0.09582631 0.07496857 0.021635091 -0.38356698 -0.27915862 -0.007627045 -0.6247442 -0.44996318 0.14660381 0.29703572 -0.39836168 0.14812323 0.06495807 0.35310248 0.04274958 -0.028730003 -0.28464988 0.102437064 0.31884947 -0.24477212 0.37728277 0.16648474 0.015157559 -0.20387836 0.2762732 -0.16359347 0.44856504 -0.084290415 -0.2231272 -0.073406644 0.120659836 0.09553907 0.13973069 0.47342503 0.005803827 0.022702942 0.09819218 0.45945382 -0.22646901 -0.080838345 -0.25541776 -0.08402404 -0.11552482 0.06552647 -0.3806739 -0.06626636 -0.010899624 -0.011833217 0.18629524 -0.011741848 -0.0061672176 -0.24518262 0.16723545 -0.37871143 -0.37298 0.49574178 -0.2780383 -0.20014367 -0.12410522 0.07310333 -0.09034767 -0.38265035 -0.08661337 -0.2566984 0.25024155 -0.012004501 -0.110444635 -0.40126118 -0.17712311 0.13065608 -0.07625027 0.22484642 -0.06362334 -0.026918085 -0.16474447 -0.5033503 0.00604388 0.17337869 -0.18584092 0.053976297 -0.07553716 0.03671391 -0.30346015 -0.19853772 0.009537813 -0.040207773 0.08177985 -0.3132413 0.13041347 -0.34825888 0.3447874 0.2836683 0.27117947 0.27517104 -0.36672464 -0.082881145 -0.077057146 -0.22008787 -0.24816734
入 0.33596504 -0.5747128 0.063860975 0.040468823 -0.3043451 0.041390553 0.02893771 -0.16149248 -0.5529534 0.38097465 0.0929322 -0.36864722 -0.20404707 0.17102516 -0.13549823 0.09341484 0.35445532 -0.12991302 -0.5759259 0.46735212 -0.1494814 0.19278741 0.024424283 -0.43697345 0.012382742 0.5022413 -0.13041815 0.1694945 -0.25862867 -0.6552382 -0.34106457 -0.19135092 0.445889 -0.2643696 -0.13435912 -0.2672041 -0.14503235 -0.6764357 0.2755422 -0.879929 -0.2738698 -0.27205095 0.0733591 -0.10527327 -0.08172396 -0.23909411 -0.2559591 0.113646336 -0.18029234 0.010756932 0.20714022 -0.15529095 -0.14421763 -0.12246004 -0.91562015 -0.09827163 -0.018105226 0.16120733 0.15432756 0.32479134 -0.1599957 -0.027203 0.049834426 0.023068173 0.30638564 0.488903 -0.1265361 0.1963956 0.45917824 -0.50423586 0.49252245 0.324709 0.30263877 -0.25004402 0.3505398 0.35306227 0.47278455 -0.17068946 0.2447168 0.23309737 0.09248993 -0.11663053 -0.010704901 0.13073443 -0.119515784 -0.0076501993 0.1684342 -0.08295257 -0.04508784 -0.05775109 -0.14371258 -0.284798 -0.6136836 0.25920972 0.6698013 0.025096599 0.6904346 0.09590849 0.058971204 0.42612058
次 0.4109161 -0.16002885 0.029158674 0.40262777 -0.5786652 -0.12177562 -0.8112053 -0.09369855 -0.46269798 -0.07978039 0.3827018 0.16215928 -0.20804547 0.8082555 -0.38270372 0.267512 -0.07372433 -0.13564552 0.028240494 -0.4463388 -0.2665477 -0.033236418 0.36311027 -0.2791469 0.29029676 0.28824976 0.07368946 0.13799274 0.18482736 -0.35903123 0.28241557 -0.006468857 0.3369557 0.20377973 0.49205908 0.042685147 0.04674582 -0.025806962 0.51224536 -0.19917645 0.108954 0.061596036 -0.039283425 0.024511803 -0.15212777 -0.31443805 0.18784304 -0.18289898 0.19216165 0.10634276 -0.044625014 0.0041941423 -0.1923565 -0.1356541 0.099307336 -0.25621614 0.15695629 0.3512103 -0.08542304 0.22906786 -0.2496003 -0.23442812 -0.24820304 0.19306876 -0.0670418 0.07508907 0.013672858 -0.12731484 0.065011166 0.07339869 0.07923119 0.5530657 0.07186459 0.040457662 0.4969446 0.21619491 -0.1713002 -0.23112817 0.13217211 0.17056417 0.38283244 -0.3636602 -0.03710269 0.09257376 -0.06395537 -0.13595718 -0.14069353 0.17979884 0.16469653 0.23293094 -0.050825994 0.20621318 -0.038587756 -0.17407167 0.024227979 -0.23593104 -0.12195622 -0.17610703 -0.06524594 -0.5845478
慢 0.2907104 0.5276704 -0.27728352 -0.31960097 -0.28929886 -0.033499267 -0.46467295 0.7685742 -0.2990416 -0.26130936 -0.12010411 -0.08159815 0.1257457 0.2121088 -0.31478563 0.1547536 0.6997126 0.2797721 0.3637345 -0.06950524 -0.00707222 -0.6116762 -0.7680384 -0.45022064 -0.42330936 -0.061794978 0.08391372 -0.4613489 0.59181434 -0.3372201 -0.095450416 -0.16244084 0.26292247 -0.4968531 -0.39252296 0.0854274 0.19980615 -0.22820833 -0.029146962 0.0692047 -0.73303807 -0.11321664 0.17240122 -0.26707515 -0.81857425 -0.42552269 -0.07309681 0.47218433 0.08540393 0.3370361 -0.05407757 0.3710708 -0.08325227 -0.078186356 0.14208603 0.05379248 -0.17446037 0.4279196 0.12029091 -0.022319343 -0.5472632 -0.8074095 0.11011804 -0.05588331 0.20990835 0.029398061 -0.3996881 0.23200732 -0.019927904 0.04566422 0.37072918 -0.029556947 0.30325684 -0.4982474 0.23212078 -0.42527038 0.10262411 -0.19817476 0.25342518 -0.060668193 0.71135545 -0.1236134 0.22088285 -0.73034114 -0.036275603 0.1822028 -0.43882135 -0.3296001 0.34620082 -0.027772663 -0.46631747 0.20791154 -0.3687505 -0.33599937 0.946029 -0.14351971 0.20504591 -0.48614198 -0.7318042 -0.033892125
下 -0.01155729 0.15080532 0.483337 0.3925022 -0.28747576 0.005683354 0.14589944 0.3400109 -0.11642696 0.1694561 0.06123365 0.37749073 -0.14870827 0.28487107 -0.12519541 -0.37169307 0.40699425 -0.039408114 -0.23745051 -0.005203297 -0.05682591 0.18017906 -0.44305465 0.1878835 -0.3494802 -0.16076685 -0.2901035 -0.23376007 0.5075628 0.6078898 -0.58642596 0.25643668 0.3504937 0.11536412 -0.107619695 -0.032593913 -0.47826293 -0.18145366 -0.20646185 -0.11486369 0.134621 -0.3355297 -0.32724193 0.33802903 -0.7452528 0.36942315 -0.4583909 -0.06908687 0.2807804 0.44652167 0.37604094 -0.39716372 -0.43301082 -0.03607022 -0.017201968 -0.31552038 0.19785132 -0.14156857 0.21476156 -0.4521125 -0.17803515 0.035073586 0.0672879 -0.1925002 -0.7718311 0.17435722 -0.13080767 0.031309944 0.4556334 -0.20958173 -0.2620419 -0.2880619 0.48478353 -0.1529706 -0.23314376 -0.118082054 -0.16928452 0.395664 -0.08953584 -0.050952487 0.29145113 -0.7643468 0.466518 0.0026550472 0.22987366 0.17483793 0.17511873 -0.017344084 0.083698794 0.4368107 -0.0029276563 0.1676446 -0.2509316 -0.50175375 -0.24453928 -0.1184831 -0.085425474 -0.19446124 -0.37409297 -0.006317923
心 0.13717754 0.03885763 0.19314131 -0.26244372 -0.06058127 0.05848153 0.17596231 0.3927668 0.3627739 0.4143884 0.37372544 0.025622493 -0.1419596 -0.054998927 0.5338547 -0.39131868 -0.5138838 -0.15731226 -0.006475238 -0.23217754 0.15713023 0.07930343 -0.15088429 -0.32216793 0.25369346 -0.20835033 -0.089729056 -0.05184987 0.22643873 0.5322674 0.38715962 0.12186238 0.38048628 -0.67614734 0.021147545 0.13880299 0.14294429 -0.5776516 0.39217746 -0.17000957 -0.5449084 0.009540386 -0.09717976 -0.116901465 -0.65589327 0.15924646 -0.61185914 -0.5874612 -0.37263095 0.53037846 0.5724089 -0.08805888 -0.10306796 0.34602678 -0.031859107 -0.33245736 0.03389514 0.4241477 -0.76530206 0.30359384 -0.14969155 -0.03272435 -0.13098021 -0.081295006 -0.33634418 0.17521583 0.42879698 0.03316751 -0.10160753 -0.365937 -0.07283543 0.008334108 -0.55618453 -0.28921825 -0.18419777 -0.17431651 -0.12429942 -0.15717578 0.4715512 0.14258169 0.045562655 -0.14220689 -0.08312641 -0.5704881 0.041342217 -0.11281008 0.112188146 0.5049399 0.20259562 -0.07414829 0.018734923 0.12741919 0.13261111 0.024387842 -0.024632992 -0.36752507 0.38625225 0.062653504 -0.6156176 -0.03671683
白 0.46057707 0.43698063 0.17839228 -0.17100891 0.20376478 -0.39300004 0.4025065 0.49012432 -0.56707704 0.057540532 0.37277374 -0.53111476 -0.29778525 0.5234307 -0.3910516 -0.4869519 -0.47328597 -0.31690943 0.28538805 -0.29645532 -0.6498394 0.2577873 0.55822015 0.13809434 0.37117463 0.23494774 0.3469535 -0.18694918 -0.07415332 0.27045158 -0.033308566 0.68666464 0.23532991 -0.03397935 0.39290193 -0.28102517 0.11211793 -0.019697744 0.15502596 -0.37046748 -0.07142456 0.54325104 -0.47279808 0.023150798 -0.029418096 -0.5942804 -0.42016673 -0.19258788 0.6645751 0.19797872 -0.082710326 -0.4740957 0.30278495 0.31775567 -0.091250606 0.2715333 0.03395239 -0.02831751 -0.30384344 -0.14592022 0.29117966 -0.41860017 0.08611795 -0.23069604 -0.5031991 -0.057972286 -0.5344241 0.42842436 -0.5400444 0.36925188 -0.07654909 0.21815336 -0.08256066 -0.35514516 0.061896067 0.2719684 0.038340613 0.1840789 -0.1433739 -0.22213759 -0.4305784 0.065144695 -0.28234407 -0.3438987 0.6799871 0.103002384 -0.21913604 0.30924994 -0.16600354 -0.103407495 -0.60889167 0.47702056 -0.9040073 -0.43717754 0.08252926 -0.19792388 -0.08954044 -0.18177012 0.0006990798 -0.08364775
喘 -0.18337853 0.09978451 0.020924503 -0.1260168 -0.09674656 -0.026477411 0.008941636 -0.1303191 -0.42155403 -0.016367542 0.5984006 -0.18177447 -0.22847998 0.37021366 0.23922363 0.18682592 0.14240214 0.14998038 -0.118727304 -0.23829181 -0.39730173 0.44441134 0.3543827 -0.105589606 -0.34186143 0.2294838 0.066375025 0.15086883 0.5594016 0.4442194 -0.3849986 0.17499907 0.33128965 -0.2700151 -0.32485718 -0.5549143 0.25624958 -0.23959969 0.13180125 0.44916496 -0.3807766 0.2699978 0.39068934 -0.03790685 -0.34514165 0.16674234 0.012749263 -0.23985887 -0.14893958 -0.0022109873 0.09901837 -0.18286243 -0.14422989 0.013953532 -0.12617058 -0.11485083 0.13723604 0.040936306 -0.19838297 0.032197013 -0.20924535 -0.051756147 0.060387433 -0.2528178 0.16741507 -0.26769307 -0.49428955 0.25088593 -0.6044485 -0.60730016 -0.20675974 -0.31984493 -0.09946308 -0.13349573 -0.0005923096 0.15145999 -0.47819227 0.019540945 0.45684355 -0.13265085 0.3162163 0.088617526 0.44281426 -0.06421105 -0.26337263 -0.016110279 -0.16599312 0.05100935 -0.7542371 0.29173967 -0.3270226 0.50214845 -0.036383905 0.09622533 0.3276608 -0.13451685 0.39870423 -0.08681731 0.35622486 0.27545464
大 0.82659 -0.12384238 -0.63766587 0.45100844 -0.71887875 0.4785912 -0.21687795 0.21590985 -0.54741156 -0.02183256 -0.09334527 0.08539707 -0.70638895 0.6292853 0.014669178 -0.29037642 0.32951838 0.16948107 0.31978944 0.24208921 0.051959626 -0.13870868 0.11455943 0.5033321 0.015004755 -0.10233365 -0.55566514 0.5542719 0.7049343 0.5924489 -0.1477007 -0.07344944 -0.21977444 0.17874323 0.09023583 0.34429738 -0.109869294 0.015572676 -0.04507537 -0.81363773 -0.53470397 0.016171755 0.25946832 0.11088107 -0.42162082 0.01197451 -0.39005566 -0.5678582 0.033730578 0.06165995 0.45644656 -0.1712995 0.5551875 0.37908766 -0.062988 -0.003141721 0.19489354 -0.009126273 0.27745056 -0.25696388 0.498536 0.12097509 -0.25590563 -0.1491563 0.16942322 -0.15607673 0.33306536 -0.22685204 0.25756443 0.45339376 -0.07820879 -0.17265972 0.32022578 -0.71999705 0.5582901 0.18033275 -0.17291774 -0.29766747 0.57425874 -0.3867396 0.084628366 0.39020216 0.18681355 -0.3575202 0.35156593 -0.1130331 0.0067757443 -0.39676723 0.51942086 0.12345016 -0.032888606 -0.43280873 -0.42537466 -0.15246677 -0.179657 -0.7030679 -0.23814785 0.18686485 0.050900254 -0.49328876
反 0.23622073 0.31750566 0.15496503 0.13066286 -0.52264243 -0.14092487 -0.034748007 -0.15793908 0.062325474 0.18364501 0.21023683 0.050876044 0.12773572 0.29043677 0.2445462 -0.18577695 -0.12149184 -0.6698381 0.07520452 -0.019525643 -0.5771081 -0.30557513 -0.14657083 0.08516919 0.4118273 0.19336645 -0.15465161 0.20423411 0.5965632 -0.04257465 0.47281754 -0.10417718 0.39553884 -0.575681 0.22291559 -0.28716248 -0.023392044 0.32983223 0.47396073 0.031168045 -0.2795208 -0.0026933395 0.046832237 0.2988289 -0.13670461 -0.094532855 -0.13203004 -0.16026838 0.43142557 -0.5166078 0.105809785 0.020454163 0.017031902 0.17249243 -0.4110442 0.056013305 -0.057924908 -0.49675536 0.4179475 -0.40239206 -0.27552837 0.010271914 -0.23442417 -0.06992676 -0.11204187 0.5365134 -0.25018615 -0.3292558 -0.6599 -0.10118557 0.07359077 0.18946297 -0.06450285 -0.18420444 -0.08994188 0.33449858 -0.9320967 0.31201643 -0.2014587 0.06506151 0.43009174 -0.11368032 -0.83515775 0.010719494 0.10306299 -0.16605285 -0.2691799 -0.21431474 -0.27247885 0.24256928 -0.58553344 -0.16516097 -0.31264654 -0.069431804 0.07257998 0.018711038 -0.04457773 -0.3875894 -0.5740297 -0.5140374
化 -0.36620402 0.09406836 0.23174967 -0.17941101 -0.81568635 0.21104172 0.35364723 -0.18631898 0.13222925 -0.113777556 -0.24905159 -0.21654287 -0.18138328 0.16885445 -0.18939006 -0.068535835 0.25517398 -0.12553129 -0.41427627 -0.052914515 -0.41613808 0.29561776 0.38863692 0.3349493 -0.28948662 0.3030779 -0.88402015 0.16651343 0.1157983 -0.32476574 -0.3020869 0.29632232 0.17997865 -0.2446243 0.06268868 -0.75321776 -0.28499871 -0.3869679 0.42363176 -0.5466612 -0.16170956 -0.07614215 -0.15670647 -0.28042775 -0.083660655 -0.34918743 0.12396171 -0.04083142 -0.044049863 0.3134337 -0.18405618 -0.107141875 0.24339645 -0.04070928 0.02617884 -0.5922977 0.29790574 -0.45807943 -0.08823862 -0.21832475 0.18563586 0.26324508 0.37347934 0.2819703 -0.07138433 0.32990548 0.04035688 0.16024716 -1.2157764 0.043143116 0.17994905 -0.21253116 0.058282502 -0.46239066 0.14642902 -0.21304785 -0.258578 -0.20666173 0.5387018 -0.14846845 -0.10525796 -0.23024516 -0.011241988 -0.1617505 -0.22542338 0.5574139 0.095655665 -0.21156308 -0.14302249 0.6430973 0.68118376 0.54997456 -0.22800407 -0.32829922 0.43763536 0.10509362 -0.12098931 0.3301286 0.3404302 -0.6316099
时 -0.06688352 0.1523178 -0.1319495 -0.31104234 -0.18838839 0.3207461 -0.33682844 -0.0027983675 -0.7317603 0.022443762 0.19765396 -0.17032278 -0.36185527 -0.25444022 -0.10514543 0.14044684 -0.20377706 -0.20180811 0.364031 0.1074874 -0.2643114 0.06304527 0.41106138 0.08111468 -0.061909776 0.15712762 -0.56613874 -0.020767022 0.13654223 0.29864243 -0.12690414 0.15005678 0.69796807 0.28964332 0.5219089 -0.09868668 -0.099789836 0.31449533 -0.0050747725 0.08374885 0.23028867 0.10915187 0.18205054 0.34174246 -0.33365294 -0.30563617 0.12898228 0.08460003 0.14508629 0.19156688 0.15790236 -0.24156713 -0.31412783 0.43049657 -0.42347473 0.15556636 0.68322504 0.024796043 -0.012229235 0.493537 0.10426251 -0.31223053 0.23645619 0.025731402 -0.09728674 -0.117635906 0.13835914 -0.21300003 -0.13632871 -0.5542033 -0.13917151 0.006716329 0.022420265 -0.10486468 -0.054789703 0.37837693 -0.21073231 0.08988584 0.21961156 -0.158791 0.24642634 0.10201546 -0.015304945 0.19072475 -0.063315086 -0.42965838 -0.010096443 -0.086621895 -0.08110568 -0.23863786 -0.31478158 0.19851828 -0.18725292 0.079528525 0.4453943 -0.09773699 0.13942754 0.43942884 -0.17927559 -0.3635466
常 0.5187884 0.79470325 -0.4049513 -0.110716864 -0.73708194 0.11553255 0.040585674 0.46688417 -0.74529886 -0.16543858 -0.1339009 -0.12572089 0.28840455 0.036860187 -0.020407086 -0.43704423 -0.3719051 0.07830721 -0.006692062 -0.03310895 -0.26694632 0.025773704 0.31417012 0.17571607 0.2938815 -0.19321455 -0.36691636 0.41114953 -0.18330628 -0.38264093 -0.7120995 -0.19502737 0.42373312 -0.43520147 -0.24548708 -0.13931134 -0.06060397 0.3546886 0.50365424 -0.019514557 -0.063959174 -0.8731619 -0.08001153 0.098085426 -0.3379465 -0.6512696 -0.80164343 -0.03785184 0.20746228 0.0916003 0.03347106 -0.24389894 0.28270966 -0.03373723 0.21093877 -0.38032898 0.42754808 -0.7501377 -0.182215 -0.015131845 -0.54254 -0.056826342 0.02432844 -0.38574025 -0.067468755 0.0075564957 0.56023467 0.16099013 0.40858078 0.055317726 0.07240167 0.05191719 0.47473267 0.006671878 0.048782874 -0.1785564 -0.14578216 0.0197615 0.32682288 -0.41972914 0.15795857 0.4648176 0.051397145 -0.52970076 0.527336 -0.015099393 -0.19175129 -0.6412891 0.004353865 0.065898106 -0.059039917 0.2315557 -0.25523636 0.13954332 -0.54589826 -0.22467254 -0.3501449 0.52203095 -0.19555134 -0.31104735
便 0.7269169 0.19059776 0.18818551 0.21159148 -0.75562114 0.14230663 0.12607758 0.15026839 -0.55988806 -0.027976869 0.3224433 -0.55730945 0.019757329 0.44084343 -0.009420766 -0.23101328 0.06780108 -0.23532131 0.2713096 -0.019052587 -0.3535637 -0.12183913 0.9399615 0.79239076 0.107865624 -0.6390004 -0.6188735 0.4786069 0.7686553 -0.17851418 -0.20098597 -0.03800651 0.0944431 0.64458525 -0.48770759 0.35760474 0.2555611 0.13236423 0.010240577 -0.42991933 -0.587152 -0.31889668 0.031112585 0.46692133 -0.5672553 0.08373475 -0.781758 -0.55539733 0.9270363 0.17826581 -0.09781921 -0.5330503 0.27954048 0.44176537 -0.07045786 -0.7757403 0.36411977 -0.2976501 -0.7827334 0.4057482 -0.24352613 0.44301453 0.1527031 -0.6778188 -0.40188816 -0.14632806 0.44693816 -0.5616179 0.6372617 -0.25668976 0.04015588 -0.04065263 0.117648534 0.3111667 0.2254801 0.045595706 -0.011097224 -0.07699832 0.12822407 -0.61895096 0.21213436 0.51608896 0.1887939 -0.4111591 -0.07732121 0.3280642 0.10392447 -0.61955523 0.384998 0.18649781 -0.42961755 0.10800765 0.23937978 -0.1353029 -0.659827 -0.37424314 0.2593913 0.23468459 0.107287616 -0.094805695
月 0.15990463 0.101137124 0.042722348 0.23531124 -0.36390156 -0.2980097 -0.34483436 -0.09443915 -0.29099655 0.34780368 0.24104464 0.12799037 0.016051345 0.40775296 0.052605823 -0.145969 -0.11731086 -0.011307471 -0.6872939 0.1742568 -0.43033886 -0.019562611 0.2844147 -0.15943086 -0.2758197 0.37183738 -0.42401782 0.331767 -0.28668675 -0.005435066 0.26392338 -0.011658981 0.10392485 0.12563317 0.42047384 0.2503388 0.055917878 -0.20927957 0.4915696 -0.15944687 0.24735615 -0.20057702 0.057392154 0.35881132 -0.6513809 -0.5516156 0.11111429 -0.010203185 -0.09232296 -0.24020426 -0.31992304 0.14375746 -0.11860013 0.11656839 0.31656402 -0.09910981 0.69805175 0.20567325 0.057274975 0.097529836 -0.16632336 -0.03810082 -0.21108378 0.08301953 -0.12599543 0.08295908 -0.08314979 0.057016462 -0.0517129 -0.11001169 0.3831735 0.0361538 0.01658691 -0.067409925 -0.020074615 -0.08359398 -0.35290506 0.34729823 0.23359701 -0.4059316 0.27722016 -0.044319004 -0.18761139 0.06358159 -0.041815072 0.122967444 0.02046983 -0.17833129 0.09495776 0.058425006 -0.2243738 0.30870616 -0.0780163 0.098040074 -0.025291927 -0.020093488 0.25401366 0.12881348 -0.45828477 -0.34699893
因 0.026745263 0.33377618 0.29050913 0.4364718 -0.26806772 0.082955316 -0.4323705 0.06256163 -0.31424293 0.28954837 0.20625943 -0.5036726 -0.47275066 0.33702254 -0.2028012 -0.2805029 0.2998558 -0.16709363 -0.28772977 0.35640258 -0.17419794 0.23823634 -0.08136346 0.08691962 0.060287904 0.557228 -0.20438702 -0.15223593 0.18127924 0.083634414 0.19882771 0.24504322 0.3302742 -0.072226696 0.3501468 -0.49729073 -0.0014436546 -0.12552626 0.3067226 -0.1930563 0.14566717 -0.3422189 -0.35204023 -0.051464498 -0.06747032 -0.18386984 0.08130898 -0.014274178 0.42408442 0.021065995 -0.48288095 -0.36365157 0.22338098 0.217109 0.11475032 -0.4023901 0.17191054 -0.36852375 -0.005088742 0.05812233 -0.31099936 -0.22908667 0.09103682 -0.45889762 -0.3745294 -0.2865688 -0.38317296 0.03736626 -0.17039222 0.3017368 -0.14468361 0.375173 -0.19402131 -0.37291047 -0.11297763 0.16056727 -0.19572797 0.5723733 -0.4102362 0.035485987 0.4500971 -0.29594314 0.08522251 -0.11841003 -0.34579912 -0.028140841 -0.16418889 -0.023776134 0.4170406 0.27200228 -0.13250265 0.019555548 0.51407766 0.35352424 0.28400537 -0.117431454 0.03891657 0.6774062 -0.40673795 -0.06562072
转 -0.08804492 -0.24156275 0.115496665 0.10974816 -0.4186198 0.07510518 0.002918823 -0.038866986 0.11442015 0.15007122 0.72092146 -0.35477144 -0.25993618 0.25746772 -0.1782328 0.55212045 0.3018133 0.01606722 -0.11090459 0.14163284 0.06770558 0.5195575 0.29360735 -0.10346383 -0.42049775 0.051018927 -0.63065624 -0.4671056 -0.035732865 -0.5245158 -0.00561404 0.15329176 -0.07408685 -0.08766966 0.605563 -0.59125775 -0.41251144 0.11925973 0.19782488 0.028303856 -0.110586844 -0.31161836 0.100041725 0.15531269 -0.0750042 -0.7688563 -0.29229352 -0.09477353 0.38922486 -0.1655523 -0.18621925 0.047657732 -0.1681392 0.103532396 0.18152907 -0.5471307 -0.103079654 -0.24320684 -0.16097201 0.07667233 0.101485096 0.17421594 -0.1581056 -0.19652234 -0.13245344 0.32520607 -0.045478385 -0.10669446 -0.47263548 -0.24474083 -0.0638785 -0.023282332 -0.5104922 -0.78440076 -0.21004348 -0.26199183 -0.3327881 -0.007616051 0.27177712 0.33504218 0.22832261 0.5871239 0.15000534 0.21261632 0.171815 0.26190987 -0.5401894 -0.3174473 0.03505868 -0.09163226 -0.35775697 -0.1291086 -0.21242705 -0.0543712 -0.22694592 -0.05847764 0.23181221 -0.1803747 -0.35916546 0.17301452
活 0.28937116 0.37150085 0.104404256 0.18293186 -0.27067292 -0.657859 -0.4585709 0.7076545 -0.2460071 -0.009717225 -0.15936448 -0.6015554 -0.45346272 0.4091406 -0.061639078 -0.3924907 0.24153204 -0.023059933 0.35975713 0.031962138 -0.091572315 0.3533398 0.28200525 0.22379039 -0.0580587 0.71843493 -0.21690005 -0.4704041 0.18371795 0.18006966 0.42068672 0.31546512 0.0031188491 0.006820611 0.056111664 -0.26511997 -0.65157294 0.003662301 0.25139064 0.23799184 -0.28346545 -0.120813675 -0.03676116 0.6831289 -0.5708549 0.24391203 -0.1254911 -0.24090926 0.11851591 -0.07621877 -0.12546079 0.07216846 -0.2639751 -0.13064022 -0.22876595 -0.17384128 0.7198301 0.22540349 0.054664027 -0.2295281 -0.26189288 0.14604057 0.3266194 -0.24740635 -0.47818667 0.3315487 -0.32016906 0.39388725 -0.28554222 -0.4321324 -0.0019912096 -0.089156695 -0.10767974 0.40018094 -0.49203798 -0.13369733 -0.021367088 0.3613178 0.2892609 -0.22611646 -0.17555724 0.17417923 0.13520227 0.39608902 0.16168109 -0.013886256 -0.34966022 -0.0233006 -0.37106267 -0.21821678 -0.19899584 0.047783375 -0.057254504 -0.80630976 0.073728696 0.14716169 -0.3226262 0.020354437 -0.28909543 0.14366099
色 0.34493333 0.36209944 0.25603226 0.3547692 -0.34948468 -0.10051649 0.3897271 0.02506424 -0.50287336 -0.022555139 0.11507252 -0.36537984 -0.1609941 0.4202308 -0.6510692 0.09059829 -0.26659828 -0.2870735 -0.030116498 0.26357728 -0.12898873 0.55046827 0.886231 -0.14922105 0.30978882 -0.30322063 -0.29624814 -0.025250537 0.10435237 0.25392237 0.31444794 -0.011196407 0.11307163 0.14981197 0.32373214 0.028674748 0.30447337 0.068387754 0.18423173 -0.4889372 -0.20505874 -0.079592556 0.15121165 -0.10822076 0.106914826 -0.1920038 -0.26145002 -0.32480618 0.81270444 0.39454642 0.006356917 -0.21795207 0.46183127 0.2690174 -0.7020718 0.35934496 0.03729566 0.55608064 -0.0153280925 -0.35490647 0.14447759 -0.33820534 -0.18311176 -0.365575 -0.62735355 0.33980933 -0.47051242 0.345341 -0.35363373 -0.31017107 -0.22641328 0.16870525 0.24885957 0.12787391 -0.21137974 0.6280957 -0.16735207 0.20943335 -0.31182754 -0.02857944 -0.27904886 -0.07587074 0.024417926 -0.6145714 0.2518619 -0.01693085 -0.31481263 0.49948153 0.3282654 0.45609677 -0.19659926 0.76400685 -0.8417059 -0.3713389 0.09854651 -0.18627138 -0.12854645 0.14525221 -0.16580334 0.22235362
等 -0.024648098 0.23469129 -0.19236618 0.18373518 0.19098282 -0.08854094 0.16599444 -0.4336213 0.09516363 -0.083363295 0.35539168 0.0671589 -0.22629672 0.30500555 0.065442085 -0.09217564 0.17154042 0.40112406 0.028821994 -0.0604163 -0.25051272 0.4205625 0.20956405 -0.47532874 -0.50851566 0.0023033465 -0.18224569 -0.19121245 0.4398603 -0.24362592 -0.115082584 -0.17350344 0.20008792 -0.026267933 -0.168425 -0.16513443 -0.023225224 -0.37338227 0.026638212 0.06334582 -0.6632319 -0.6343153 -0.47817606 0.13456878 -0.43740842 0.14684394 -0.14743915 -0.17382951 0.086801305 -0.15410708 0.49263287 0.14172737 0.12600686 0.038981404 -0.5648401 0.19171353 0.2913584 0.20822394 -0.26976743 -0.6159114 -0.056168932 0.045938797 -0.16273828 -0.46988592 0.31142652 0.5510814 -0.02021472 -0.007393317 -0.40087903 -0.03596049 0.08241323 0.22640517 -0.5569152 -0.36339423 0.38367945 0.33262646 -0.54456604 0.0038617568 0.46471688 0.07103448 0.35864815 0.21097589 -0.0030176137 0.6048362 -0.07957782 -0.15080619 -0.020013908 0.16515863 -0.17564085 -0.22841363 -0.3420632 0.21762091 0.36806944 0.31926373 0.18745309 -0.45822546 -0.29190397 0.32684216 0.3530121 -0.11391199
就 0.48786032 -0.020635333 0.14384238 -0.16910265 -0.1439891 -0.41322342 -0.005794903 0.47191563 -0.28608277 0.6173279 -0.23398113 0.28821298 -0.03730325 0.6141024 -0.09397082 0.15868832 -0.03914921 -0.20573305 0.34937316 -0.41418755 -0.33958188 -0.09237444 0.0024513628 -0.25738943 -0.008445372 0.10276186 -0.20236216 -0.2672662 -0.01397299 -0.38665536 -0.6382453 -0.6728036 -0.1564796 0.2092135 0.2590522 -0.0846808 0.047719933 -0.29022974 0.5272843 -0.07616594 -0.4022227 -0.1616067 -0.073208936 -0.49428797 -0.6413212 -0.14688642 0.05594607 0.5406227 -0.044984758 -0.23967248 0.49848214 -0.04146618 -0.56144613 -0.031670187 0.38004103 -0.12123534 0.19644432 0.5979767 0.008270479 -0.16596234 -0.026472267 -0.28661436 -0.050198972 -0.6077966 -0.23900941 0.16780229 0.015177038 0.30945608 -0.24246143 -0.3658678 -0.36136487 0.018151209 0.12536609 -0.6730177 0.088558204 0.02736516 0.11515159 0.2792045 0.22294852 0.48892078 0.17229632 -0.2238562 0.11457166 -0.13558336 0.013644246 0.1284383 -0.0754969 -0.06443824 0.4132775 -0.28097785 0.13923965 -0.38495043 -0.18538225 0.090658866 0.4860147 -0.45346817 0.06439212 -0.18190785 0.15826114 0.13071227
及 0.2810888 0.3247991 -0.31893766 -0.14604138 -0.07763903 0.32229334 -0.1482689 -0.41407487 -0.3538759 -0.015918057 0.1745982 -0.049125608 -0.14545503 -0.03982261 0.018602079 0.048442192 -0.082881294 -0.08354725 0.047540087 0.14254801 -0.2572428 0.3364511 0.20933044 -0.21897258 -0.033350457 0.16929054 -0.026621513 -0.03725772 0.2782772 -0.1778054 -0.2969658 0.16011654 0.12629212 0.34230363 0.10718024 0.072358064 -0.03246479 -0.018800998 -0.45658985 -0.28992563 -0.594013 -0.1565247 -0.28024215 -0.4905533 -0.13294108 0.011763123 -0.1832951 0.23265539 -0.2047269 0.056117404 0.35875255 -0.020491106 -0.23693787 0.037203215 0.09045439 -0.0073043024 0.6672866 0.19430871 -0.17736386 -0.02057832 -0.046409592 0.30765587 0.24701312 0.37687105 0.13391411 0.45749864 0.048130892 0.26852068 -0.07632745 0.09400795 -0.27703646 0.08845795 -0.16098338 -0.48600814 0.36408532 0.59462625 -0.20096505 0.6526839 0.46435988 0.14374281 -0.16686024 0.20521256 0.028731557 0.2949671 0.09483233 -0.28443918 -0.15043184 0.009167766 -0.4198984 0.28854984 0.23923472 0.29328224 -0.13878396 0.015303438 0.11221576 -0.012842736 0.19472584 0.105981335 0.13404769 -0.27837646
塞 0.23026668 0.043206938 -0.55302185 0.20862556 -0.6502563 -0.17355809 -0.36560145 0.54951483 0.17024855 0.20942865 0.18265004 -0.3233776 -0.13523276 0.5833329 0.5939372 -0.24693607 -0.050015055 -0.7122122 0.0785264 0.42670277 -0.049910672 -0.45378712 0.013541689 -0.3097683 -0.15195334 0.08577041 -0.60362464 -0.88680357 0.66434973 0.046499033 -0.2775882 0.18920603 0.6009728 -0.19539765 -0.35900834 -0.04741311 0.2540555 -0.5740512 0.50792134 0.07323027 -0.088304035 -0.4031511 -0.24619573 -0.5615818 -0.32557595 -0.28025323 -0.6285407 0.0002004859 -0.43579775 0.2551747 0.5206024 -0.025453214 -0.06031015 -0.2897609 0.0055049476 0.5939529 -0.22813782 -0.09315421 -0.44110203 0.42312685 -0.049010552 -0.389673 0.24398473 0.36738065 0.44227168 -0.13694522 -0.26647514 0.051164996 -0.35564223 0.20537426 0.032595053 -0.23736648 -0.0037990448 -0.3861663 0.2562061 0.6567097 0.39344054 -0.4717802 0.42519647 0.5246047 0.4248185 0.0010588395 0.14223306 -0.30708316 -0.4062264 -0.05498113 -0.49397504 -0.0355701 0.101860695 -0.025028432 0.6477096 0.080108084 -0.020856498 -0.33534938 0.5443866 -0.70941275 0.5841229 -0.8157929 -0.55144244 0.3690515
进 -0.08578255 -0.2343157 0.17173868 0.31540966 -0.33569577 -0.47427574 -0.36046594 0.34949586 -0.10010984 -0.0219838 0.3363261 -0.45019194 -0.3367289 0.52129626 -0.16768056 0.10800053 -0.5878212 -0.28971568 0.11761696 0.13174213 -0.2097951 0.0071715266 -0.59025955 -0.39401093 -0.36016437 -0.09428783 -0.3773446 -0.34168163 0.24445243 0.019112196 0.24985541 0.0077785566 0.30824807 0.28020337 0.1470797 -0.1600668 -0.1194297 -0.35695472 0.21624833 0.27397054 -0.42848113 -0.2748523 0.6126865 0.16235392 -0.24479032 0.7247874 0.2162525 0.6159718 0.57013106 0.3247881 -0.12603053 -0.21043396 -0.45862457 0.60005015 -0.3752945 -0.041157015 0.07408505 -0.21895906 -0.23271126 -0.67655617 -0.15279849 -0.74185985 0.082662284 -0.5924777 0.41923562 0.13032873 0.05408797 0.07229793 0.060227994 -0.13410611 0.672159 0.015985614 -0.053989705 -0.31429487 0.36623234 0.21839152 0.4266318 0.4268346 0.15421921 -0.3104384 -0.048664544 0.2659239 0.2659077 -0.26484266 -0.103961274 0.14599086 -0.40480056 -0.16192468 0.250255 0.27824304 -0.2585654 -0.17623696 -0.22318166 -0.11695077 -0.28806812 0.0362008 0.41346636 -0.022661835 -0.09223201 0.02840149
变 0.261517 0.66467136 0.25718787 -0.22926551 -0.5728714 -0.113259636 -0.062764324 0.010363004 -0.20284347 0.26547927 -0.08750856 -0.39332676 -0.09272401 0.29112193 -0.459903 -1.0803456 0.2868681 -0.012635609 -0.1697294 0.17100698 0.7071358 0.638643 0.038377658 0.7145084 0.29772538 -0.055919565 -0.6919088 0.45968378 0.24402732 -0.10566822 -0.515788 0.14023903 -0.14041123 0.12489068 0.37092534 -0.63106376 0.30448982 0.16371705 0.45789278 -0.7088069 -0.365314 0.18355995 -0.1771961 0.2507215 -0.36869967 -0.29230255 -0.2685908 0.07256688 0.27533048 0.3632351 0.33830914 -0.18830776 -0.45794606 0.098403126 0.37759322 -0.6180458 0.110471874 -0.35998836 0.2216047 -0.40997252 0.4489752 -0.7263838 -0.28400338 -0.40179068 -0.41720378 0.16617697 0.14408563 -0.2434833 -0.1947617 -0.19425336 -0.2686468 -0.084017016 0.20068964 -0.13928603 0.014505098 -0.18323861 0.008347154 -0.1582071 0.20289008 -0.50930005 0.17280461 -0.18100713 0.11257213 0.14586328 0.058354728 -0.09650474 -0.49066672 -0.7957366 -0.36962032 0.8391802 0.004759268 0.19851086 -0.12001344 -0.08158196 0.42313528 0.22616915 -0.20749752 0.3483215 -0.24513529 -0.20098867
住 0.10262328 -0.2001368 0.085924484 0.11724542 -0.50453585 -0.06903898 -0.23084643 0.22499228 0.11047458 0.22022709 -0.2216149 0.22138011 0.20476463 0.53232723 -0.58595985 0.20120177 0.42816132 -0.3650802 -0.00784535 -0.3131284 -0.19324349 -0.11780227 -0.023274843 -0.31067324 -0.30705616 0.26304716 0.07379452 -0.04261981 -0.00985894 -0.5433655 -0.25278425 -0.004510273 0.4675336 0.26553267 0.38930643 0.24615966 0.13974917 -0.64822024 0.69922006 -0.23375727 -0.27535594 0.24007624 0.023818562 -0.24919842 -0.43449262 -0.36763564 -0.17333469 -0.10927647 0.36736655 -0.5373281 0.10686695 -0.10779917 -0.38481745 0.20524421 -0.023557628 -0.19999488 0.06545282 0.33787426 0.33779362 0.3650113 -0.34492275 -0.0695512 0.14020042 -0.24436474 0.16951708 0.0716665 -0.24886979 -0.4091668 0.16401245 -0.4513751 -0.10628872 -0.04861171 0.0090625 -0.6829125 0.26912904 -0.4581503 -0.13386588 -0.21001711 0.5200834 0.36949053 0.2712518 -0.36990404 0.46172768 0.08051045 -0.07866839 0.097198494 -0.28207138 0.059366282 0.391299 0.008867975 -0.036373064 -0.24865195 -0.44955188 -0.105926774 0.42042527 -0.27514726 0.26076728 0.14800954 0.008015104 -0.014697753
步 -0.012241786 0.10689577 0.20975126 0.10658632 -0.76462156 -0.46783012 -0.6608926 0.25026992 -0.089496456 0.06041813 -0.1457509 -0.58155924 -0.12279627 0.4115899 -0.0398416 0.14601058 -0.114643276 -0.0064723473 0.16919793 0.09580749 -0.4126933 -0.09821855 -0.24522853 -1.0459536 -0.19367464 -0.30245912 0.16504908 0.25678575 -0.05330788 -0.043749668 0.30846527 0.014585139 0.16498344 -0.007864656 0.30477384 0.10051865 -0.8148042 -0.21478696 0.50057346 0.3041606 -0.7930576 -0.02290052 0.53621393 0.72814727 -0.24292982 0.3887927 -0.4545653 0.9015276 0.5241476 0.3876435 0.06745604 -0.16296013 -0.033211857 0.3414297 -0.19768961 -0.040009 0.010634415 -0.115853585 -0.19280598 -0.34731266 0.11781349 -0.32624316 0.33188105 -0.4702654 -0.045562327 -0.010322976 0.16357468 0.37514088 0.029110953 -0.36034656 0.820293 0.18812568 -0.059774574 0.20689337 0.10618901 -0.38901693 0.20537922 0.37092516 0.3212504 0.27159762 0.67467725 0.060942143 0.6398943 -0.10099364 -0.43190235 0.19863118 -0.5554977 -0.12242657 -0.19135296 0.15470447 0.23414347 -0.5489849 -0.26421455 0.32010993 0.7677628 -0.35549122 0.14328036 -0.3923988 0.06642509 -0.054960057
呼 0.5609671 -0.041700277 -0.17479235 -0.26689288 -0.40378535 -0.3232729 0.34786892 0.08523386 -0.23983623 -0.010169016 -0.22104482 0.19963229 -0.0463255 0.21004356 -0.039243307 -0.034333143 0.21884513 -0.0039535663 -0.59084755 0.29113066 -0.6814728 0.27269492 -0.1993466 -0.43454054 -0.22072539 0.7554131 0.16655356 0.13767163 0.49400988 0.87619615 -0.015572572 0.16269389 0.39025584 -0.078936726 -0.21816106 0.09143035 0.34078777 -0.3350783 0.027353931 -0.47595444 -0.69372606 0.04648964 0.7690984 -0.047165737 -0.27972946 0.26163182 -0.31269106 -0.3274448 -0.027783064 0.7231018 0.09830294 -0.04769626 -0.199247 0.133093 0.08311824 -0.272079 -0.37637937 0.25907016 0.053898495 0.7416923 0.30559596 0.27672556 0.4537653 0.13864002 -0.54429567 0.44843432 -0.1977602 -0.070532 0.13937613 -0.32432988 -0.46586543 0.5270204 -0.6315899 -0.20180506 -0.07942598 0.1021929 0.012482681 0.2817886 0.3278339 -0.11205808 0.3612732 0.48910415 -0.11476788 -0.57027435 -0.3886372 -0.0041353973 -0.094205886 -0.013768861 0.2093743 0.09975074 -0.21712385 -0.19965081 -0.15361826 -0.04059085 0.19570841 -0.37373355 0.2787236 -0.0054603396 0.08622686 0.504279
上 0.19311845 0.31879056 -0.054194834 0.06429783 -0.4210489 0.46467295 -0.17095625 0.31400418 -0.3108897 0.22104403 -0.059674963 -0.41547608 -0.27731192 0.5419996 0.09430591 0.24348645 0.4959386 -0.17372914 -0.35645917 0.10788777 -0.20170096 0.2966225 -0.17893635 0.12848233 -0.062218934 0.13843684 -0.26899365 0.03928908 -0.18924384 -0.35883826 -0.13258542 -0.04246138 -0.24679221 -0.18414445 0.3822059 -0.508444 -0.05163447 0.26548287 -0.3420459 0.09611253 -0.060963277 0.2650583 -0.005859689 0.5928341 -0.5211908 -0.09771615 -0.1628623 0.003825905 0.2839837 0.11518409 0.12273684 0.020204125 -0.70971286 0.5844536 -0.22541784 0.25895908 0.5228178 -0.31750622 0.27367947 -0.4927549 0.3068127 0.039295856 -0.231657 0.07869119 -0.4468822 -0.036922645 -0.43291423 0.20682769 0.3454845 0.2644189 -0.10360768 0.0124707995 -0.12029452 0.036126837 0.17565273 -0.013845957 0.026770227 0.3186567 0.38199773 0.19504899 0.51808906 -0.17990275 -0.02318823 -0.34454462 0.115865804 0.47516215 0.5454911 0.25439256 -0.23412299 0.046619423 -0.15087186 0.21781503 -0.04449374 -0.32001516 0.2288757 0.21254767 0.50950825 -0.1625892 -0.53262687 0.0011871235
医 -0.22630462 0.41200134 0.07253661 0.054014094 -0.5288885 0.01953038 -0.4886546 0.5740172 0.09717604 0.29611754 0.17072156 0.12592626 0.032699537 0.17440778 -0.45738527 0.16530846 0.041520867 -0.14586961 0.5763516 -0.56409496 -0.094113715 -0.32633558 0.20415105 -0.35341915 -0.5826673 0.83065015 -0.3741426 -0.30715024 -0.0002326056 -0.27135387 0.0050951503 -0.015313157 -0.23996261 -0.0030696513 0.22026965 0.31392533 0.11692341 -0.13439518 0.45826086 -0.24989034 -0.7112554 -0.38359082 -0.046055395 -0.2656126 -0.39995375 -0.4134184 -0.2762903 0.16479379 0.26199952 -0.7201184 0.7321153 0.2178643 -0.48364955 0.5933055 0.3074015 -0.36204666 0.16473228 0.40140077 -0.15305603 0.24795654 -0.13067499 0.19566703 -0.34083936 0.12085664 0.07182116 0.26637477 -0.26606032 0.25942528 -0.40973026 -0.56712323 -0.22003987 0.29145202 0.3741901 -0.08724163 0.063362636 -0.22723983 0.06408248 0.18103614 0.11146216 0.40197814 0.17355484 0.10856428 -0.38804033 -0.46450868 -0.09135409 -0.17475314 0.3684745 0.11357798 0.6860431 -0.3260961 -0.39665374 -0.017879736 -0.21102004 0.09796911 0.73599917 -0.4844067 0.23154207 -0.014876602 0.85256165 0.18424855
解 -0.32237005 0.26899073 -0.031383153 -0.07140372 -0.18333465 0.13061611 -0.025232852 0.013356949 -0.27023214 -0.39633325 0.6834334 0.04804625 -0.2929114 0.15390196 -0.5602054 0.45340836 0.07741406 0.2963953 -0.13822083 -0.13256352 -0.4980097 -0.04470295 -0.007473759 0.03341061 -0.17898305 -0.02247313 -1.0018119 0.16864656 0.42251197 -0.06845113 0.124931656 -0.028813422 0.23097555 -0.28414282 -0.12763488 -0.69486946 -0.13734102 0.21098424 0.36573535 0.28172508 -0.054432612 -0.024983231 0.4957309 -0.6812981 -0.22576246 -0.18883263 -0.5782436 -0.10490416 -0.10158129 -0.08123211 0.1846423 -0.20478663 -0.026312253 -0.0680029 0.018445801 0.16783343 0.18560676 0.18328069 -0.25400886 -0.27337837 -0.22494726 -0.10943511 -0.47486094 -0.9712607 -0.2070113 0.42691025 0.0071591944 -0.095203154 -0.066854015 -0.044444688 0.25640234 0.19270663 -0.21661477 0.042597115 0.26255393 -0.38458395 -0.3669228 0.26585308 0.17583553 0.32604566 0.29078212 0.23408893 -0.050586652 0.2905681 0.040709205 -0.2639392 -0.30938312 0.28072134 -0.37235427 -0.039790276 -0.114675984 -0.020600384 -0.17551085 -0.17648426 0.34049454 -0.010071247 0.22829598 0.059883326 -0.1191003 0.12684917
神 0.33651742 -0.22165368 0.15677623 0.35277635 -0.5970998 -0.59285045 0.47437015 -0.32440844 0.55331177 -0.20537668 0.66023374 -0.7405913 -0.7768454 1.0701016 0.006204545 0.008742731 -0.2237821 0.02284689 -0.18144497 -0.4684342 -0.4099744 -0.06498568 0.07195212 0.70260346 -0.02065173 0.16789447 0.27489614 0.7023198 0.04793427 -0.52814525 0.13166171 -0.9583681 0.32628953 0.042361192 -0.05495084 0.37666637 -0.16163684 -1.0655866 -0.6114872 -0.52915436 -0.7044112 -0.7288102 0.15336421 -0.21427123 -0.4480565 -0.34260568 -0.62516695 -0.4954508 0.53380436 0.27547115 0.47533447 -0.47540906 0.054438986 0.4022389 -0.24456674 0.23656759 0.098442644 -0.23091297 -0.06530437 0.88500094 -0.14412697 -0.41669798 0.5083273 -0.27423984 0.2674517 -0.03921803 0.05782339 0.29671994 0.5791318 -0.6485896 0.21151024 0.46828806 -0.27594882 0.15809175 0.041345827 0.37938794 -0.26700377 0.012952517 0.641211 -0.030099249 0.2651974 0.28954223 0.2221418 -0.36492416 0.5903569 0.05039203 -0.10934315 -0.067863666 -0.35064337 0.078044 -0.2673184 -0.30349764 -0.36226168 0.17547439 -0.24031797 0.27368078 -0.32700506 -0.0067610303 -0.12083968 -0.060912874
科 0.5928042 0.07042828 -0.23347759 0.121339664 -0.3693996 -0.087572634 -0.51910794 -0.21208419 0.2715476 0.22036086 0.20738125 0.17250855 -0.30387115 0.36211884 -0.60944897 -0.48158514 0.1608167 -0.39202508 -0.47912186 -0.27210984 -0.44268245 -0.59365195 -0.05886267 -0.37174487 -0.26489717 0.2570942 0.07092905 -0.1898565 0.12152627 -0.6616554 -0.36415434 -0.41082552 0.1454787 0.09509772 0.8767678 -0.08540052 0.1756843 -1.4823383 0.17616391 -0.4501063 -0.09067475 -0.15094864 -0.0053748647 -0.66314524 -0.23154934 -0.29977292 -0.160229 -0.12414977 -0.24020362 -0.025858946 0.2136009 -0.077452466 -0.33230934 -0.075397864 -0.0750145 -0.34509772 0.107046224 -0.5579444 -0.010710665 0.121681325 -0.26731795 -0.15585631 0.47221774 -0.23993714 0.15848376 0.06926064 -0.047031377 0.069616996 0.45051286 -0.62357235 0.28131756 0.29944047 -0.3733593 0.14327975 0.4783877 -0.42314935 0.15146522 -0.3648461 0.18966033 0.35000336 0.631363 -0.3612327 0.7269911 -0.092227235 0.32470885 -0.08969032 -0.3001326 0.08483959 0.11441984 -0.06218347 -0.28281862 0.004586754 -0.72783685 0.22886047 0.09336199 0.27245557 0.44704252 0.10473448 0.23518154 0.029779928
染 -0.45104238 0.13160762 0.4007926 0.46038777 -0.36151648 0.06992511 -0.03291877 -0.031092329 -0.09650813 -0.011867471 -0.01680063 0.06650885 -0.06223 0.29745677 -0.11411035 0.057952102 0.22883603 -0.13972405 -0.24124765 -0.017757526 0.015406165 -0.21242398 0.2659421 0.0042113992 0.06606994 0.15191536 -0.33238852 0.04921194 0.29240152 -0.6160567 -0.5707647 0.45025983 0.25922245 -0.05258116 -0.26224566 -0.8104558 -0.52846295 -0.48130947 -0.22968133 0.068196796 -0.43357223 -0.11356933 0.29194516 0.09588422 -0.4402512 -0.5795245 0.1634222 -0.051795334 0.14329813 0.30800176 0.2618386 0.50780714 0.13418142 0.2116119 0.2044415 0.47767055 -0.0019454773 0.33426845 -0.22267585 -0.11476422 0.34023798 0.17881049 0.82829255 -0.14031976 0.44567987 0.17880924 0.24779703 0.10721217 -0.74029636 -0.21301796 0.017236445 -0.51050645 0.08161376 -0.34397665 0.7465722 0.080925055 0.07530237 -0.30064443 0.6326483 0.3600891 0.6063392 -0.20623821 0.1488845 -0.48996365 0.21583731 -0.23005472 -0.5522894 0.15425259 -0.086291514 -0.09184763 -0.78298134 0.6325422 0.77024335 0.2614518 0.126356 -0.11017829 0.7107791 0.19498514 0.2732112 0.16333546
咯 0.09106386 0.18602692 0.2324652 0.18956868 -0.16131145 -0.19728564 0.19755512 0.21814787 -0.41945353 0.15328692 -0.07052723 -0.088972494 -0.08078417 0.348184 -0.09611828 -0.14132781 -0.54222316 0.14843978 0.02265381 0.11152649 -0.15567349 0.33531368 -0.05033488 -0.1841974 -0.18479286 -0.17126898 -0.045026354 0.25916144 0.5482657 0.11253812 -0.097074665 0.10370821 0.4471607 -0.30915755 0.601171 0.11999803 0.5241858 -0.010724293 0.110366255 -0.2845145 -0.24438187 0.28877896 -0.08430009 0.5161342 -0.22262038 0.2199663 -0.23135193 -0.45344368 0.051778104 0.31826198 0.073548645 -0.13118234 0.16019356 -0.021299984 -0.11529408 0.034013953 -0.0668978 0.15114912 -0.3990433 -0.06183277 -0.23467515 -0.057842236 -0.20013985 -0.275863 -0.29955527 0.013701979 -0.45182166 0.27301484 0.17722628 -0.08366576 -0.17841855 0.043174382 0.18359433 0.10090031 -0.40813136 0.67312217 -0.52397704 0.27571085 0.38509503 0.4038615 0.55056596 -0.004505615 0.20334843 -0.2605299 -0.044474937 -0.059316825 -0.5748152 0.20149557 0.25843194 -0.12592518 -0.120373905 0.2655495 -0.13632175 -0.06183426 -0.1964261 -0.029682854 -0.11577554 0.15614916 0.21096508 0.029721031
行 0.4945147 0.119399525 -0.12951955 -0.29975003 -0.029302863 -0.10420139 -0.115602724 0.109312266 -0.29318514 0.0016969574 -0.06009964 -0.28104487 0.19429953 0.09523377 -0.11910169 -0.07080906 0.26010484 -0.66800165 0.25181577 -0.10076065 -0.41936058 -0.24619673 -0.005977486 -0.026050417 -0.05384935 0.26483908 -0.07271247 -0.32249603 -0.11824056 -0.122434296 -0.13153258 0.8815715 0.085226394 -0.07156815 -0.1958293 -0.16653907 -0.5696454 -0.18798672 0.05122123 -0.058499333 -0.44901 0.2180141 0.083716296 0.22278021 -0.6753001 -0.0106002 -0.037811954 0.4112544 0.16919965 0.045218218 -0.028994119 0.1775569 -0.25407022 -0.13810465 -0.032515403 0.2951431 0.5570521 0.2453323 -0.26128575 -0.11657582 -0.078531265 0.43549207 -0.30906865 -0.0005141841 -0.16109356 0.0874246 -0.22860907 -0.025776425 0.34012643 -0.18409754 0.15694526 -0.0086479625 0.47618562 -0.13430828 0.081096 -0.124988005 0.20996773 0.040085863 0.47733313 0.015534579 0.23316929 0.89662343 0.25542662 0.32143453 -0.24558471 -0.32451552 -0.12537785 0.44169402 0.25878572 0.24512422 0.048759755 -0.04325062 0.03494477 0.08504624 0.49509957 -0.32303002 0.22492728 0.34942016 -0.5680582 -0.28054485
好 -0.032870498 0.25693062 0.16450596 -0.064018466 -0.4908975 0.42880777 0.17751412 0.12667786 -0.37169772 -0.3349849 0.850904 0.17667922 -0.4158513 0.17807993 0.12803233 0.14823177 0.18591546 0.38715658 -0.12468015 0.17613705 -0.41519076 0.34365705 0.613064 -0.19246985 -0.41342854 0.27320176 -0.38363644 0.26665503 0.39488533 -0.5435596 -0.412338 -0.18273781 0.2631522 -0.31084898 0.5101547 -0.7167443 -0.00054181577 -0.096058145 0.17456248 -0.06313045 -0.15044689 -0.389635 0.36802414 -0.29419672 -0.12572823 -0.63301903 0.10065545 0.23490565 0.17535351 -0.13849692 0.050075572 0.21930929 0.08123056 0.4036052 -0.18675673 0.12047724 -0.33076382 0.09074362 0.2507581 -0.34629527 -0.277233 -0.5087391 -0.11289158 -0.0116017135 0.22234645 0.8092988 -0.20540851 -0.046931345 0.027916985 -0.4023094 0.07662533 0.47396067 -0.17884085 -0.13559172 -0.2651173 -0.47332972 -0.41767183 -0.2634141 0.31498626 -0.09680165 0.11028024 0.56194806 0.1342022 0.36972615 0.18289742 0.33743304 -0.7090256 -0.33009243 -0.034582794 0.068827935 -0.19177538 -0.040286362 0.36775988 0.013830165 -0.009506473 0.24101695 0.3993024 -0.4389184 -0.06552417 0.06126731
阻 0.3378497 0.49164397 -0.30751088 0.393743 -0.38909045 -0.10157604 -0.25710744 0.5845975 0.16007955 -0.43083265 0.17483945 0.2654539 0.33595672 0.5126614 -0.38510835 -0.07026419 0.5067851 -0.6506134 -0.24047185 0.16960621 -0.15495242 -0.9350633 -0.561325 -0.63334095 0.10370902 0.29869184 -0.20875986 -0.89547276 0.7312863 -0.42774892 -0.7956057 -0.19391577 -0.09858023 -0.10004313 0.4275576 0.026234526 0.37384367 -0.6269566 0.6732846 -0.29837692 -0.48577467 -0.17541151 0.3504295 -0.37719443 -0.4316949 -0.21548145 -0.4891075 0.3676688 -0.11072317 0.26809165 -0.055335 0.40941513 -0.089219294 0.42034683 -0.12821482 0.23844305 -0.16069822 0.367891 -0.3688795 0.7691545 -0.23898932 -0.04180081 0.28561914 0.029419305 0.16821912 0.24569094 -0.3632633 0.08069515 0.21928337 0.014061083 0.30143967 -0.6580361 0.21900593 -0.17350805 0.11976006 0.64742357 -0.13653131 -0.29641044 0.43984285 0.07021467 0.27538484 -0.21026394 0.10789027 -0.59891534 -0.31823772 0.7030186 -0.2917509 -0.6199733 -0.014955341 -0.057920773 -0.39776945 -0.06840673 -0.066017136 0.030388221 0.8012034 -0.3175954 0.89001995 -0.26078337 -0.797479 0.32219678
